,0,1,2,3,4,5,6,7,8,9,10,11,12,13,14,15,16,17,18,19,20,21,22,23,24,25,26,27,28,29,30,31,32,33,34,35,36,37,38,39,40,41,42,43,44,45,46,47,48,49,50,51,52,53,54,55,56,57,58,59,60,61,62,63,64,65,66,67,68,69,70,71,72,73,74,75,76,77,78,79,80,81,82,83,84,85,86,87,88,89,90,91,92,93,94,95,96,97,98,99,100,101,102,103,104,105,106,107,108,109,110,111,112,113,114,115,116,117,118,119,120,121,122,123,124,125,126,127,128,129,130,131,132,133,134,135,136,137,138,139,140,141,142,143,144,145,146,147,148,149,150,151,152,153,154,155,156,157,158,159,160,161,162,163,164,165,166,167,168,169,170,171,172,173,174,175,176,177,178,179,180,181,182,183,184,185,186,187,188,189,190,191,192,193,194,195,196,197,198,199,200,201,202,203,204,205,206,207,208,209,210,211,212,213,214,215,216,217,218,219,220,221,222,223,224,225,226,227,228,229,230,231,232,233,234,235,236,237,238,239,240,241,242,243,244,245,246,247,248,249,250,251,252,253,254,255
0,-0.015515735,-0.04322285,-0.110314354,-0.01622855,-0.09124796,-0.09415923,-0.093804576,-0.008263492,-0.055019557,-0.048407014,-0.010677402,-0.066667564,-0.13433452,-0.073958,-0.1343974,-0.071799934,0.03650814,-0.018331358,-0.030986339,0.008204578,0.056561302,0.016824916,0.054803684,0.07737257,0.015730333,-0.056763697,-0.024701122,-0.015184988,0.065210365,0.06243266,-0.0037649127,0.013367345,0.08480503,0.067395344,0.08968288,0.018275782,0.029266642,0.04457952,-0.04042266,0.046002593,0.015337719,0.07330261,-0.057242155,0.031407632,0.040620323,-0.041091535,0.09353379,-0.020512713,-0.036527522,0.051719904,-0.03764751,-0.040693413,0.015265651,0.034020577,0.022242785,0.03962316,0.020327346,0.039002623,-0.007843512,0.04761954,0.05052484,-0.04324666,0.046860043,-0.00894858,-0.075821854,-0.11892037,-0.09804963,-0.0040285904,-0.048041508,-0.019326728,-0.09265352,-0.07385169,-0.06851087,-0.08022791,-0.07754296,-0.019709274,0.02170371,0.048425343,0.07418856,0.06130103,0.03143023,0.12949692,0.061911013,0.117249854,0.06012219,0.023936912,0.10173742,0.07546565,0.019950321,-0.00834707,0.023282586,0.019254114,0.012708902,0.062064,0.04716138,0.0936586,-0.047887124,-0.022133019,-0.07120481,-0.06029098,-0.07204532,-0.020799076,-0.10120414,0.006603018,-0.06168847,-0.024752833,-0.03314068,0.0030136039,-0.074838705,-0.07066574,-0.05972295,0.0382985,-0.061406866,-0.054998316,-0.009169592,0.020817101,8.778622e-05,-0.034186907,-0.033709347,-0.005208667,-0.008346601,0.0027519409,0.000848849,-0.04092776,-0.035575658,-0.057097748,-0.058381412,0.034725387,-0.009454039,0.0011270951,0.0029181333,0.060593966,-0.031701747,0.007875859,0.04011127,0.011941936,-0.002588048,-0.07240678,-0.055559188,0.040628858,0.020311221,0.02627411,0.051870726,0.012625364,0.023937663,0.024917234,-0.030484132,-0.015501039,0.019367298,-0.06948629,-0.034818083,-0.043798726,0.02125013,-0.03792632,0.0032840145,0.0046749935,-0.082998864,-0.0345673,0.0067870296,-0.041118972,-0.006357768,-0.052918356,0.062614925,-0.04361219,-0.01958267,-0.05037877,-0.04466351,0.013596184,-0.06723515,-0.10359725,-0.032252166,-0.06432078,-0.05316449,-0.052671976,-0.01325371,-0.034953672,0.09187005,0.06244545,-0.017549576,0.06365283,0.07140841,0.05674747,0.04368417,0.0019493997,0.029446946,-0.00036264525,0.0066812662,0.059098285,0.0341749,0.04851598,0.054964956,0.06854706,-0.0639938,-0.009879876,-0.013914437,0.062709704,0.020415606,0.030717693,0.018866472,-0.006551609,-0.04786909,-0.084896535,0.04462296,0.04198003,-0.049768593,0.030782301,-0.040858906,0.0044807144,-0.048323657,-0.018958546,-0.001815969,-0.063927054,-0.022043828,-0.07279601,-0.0627972,-0.06775884,-0.0061112577,-0.0819829,-0.030658811,-0.11226728,-0.11164768,-0.044953212,-0.0036088286,-0.06355456,0.022738062,-0.04533088,0.0035902858,0.049356043,-0.057496216,-0.06626125,-0.0742529,0.020281231,-0.005072859,-0.082088135,-0.010447181,-0.014377717,-0.016295029,0.004908356,-0.08562979,0.0069966037,-0.10806646,-0.012703559,-0.003491042,0.057462595,0.010185458,-0.046040017,-0.05750528,-0.011115284,-0.09811362,0.028033983,-0.0057768147,-0.012116741,-0.0069576404,-0.07117782,-0.042042937,-0.02146216
1,-0.07382625,-0.069848694,-0.102332614,-0.071137846,-0.12766182,-0.076409854,-0.0010555576,-0.07066666,-0.10216915,-0.14178844,-0.0272771,-0.119290255,-0.06993338,-0.06577066,-0.11285057,-0.094675116,0.0037473706,-0.03651513,0.032496504,0.013627033,-0.026293922,0.04192249,0.05025261,-0.09502303,-0.025294123,-0.018316308,-0.008434622,-0.023970347,-0.035461012,-0.051852986,-0.04032414,-0.050482873,-0.02348586,0.051933736,0.031328138,0.00042913485,0.05928652,0.060062174,0.09949326,0.03540722,0.024689702,0.012498354,0.057292633,0.008532676,-0.055232845,0.035511564,-0.02234705,0.0092236595,0.018530667,0.07581496,-0.060499158,0.03786475,-0.0688681,0.03088786,0.029348407,0.038172554,-0.000119689605,0.03557431,0.10516003,0.034591578,-0.09900981,-0.013393025,-0.029530102,-0.08350322,-0.014986283,-0.09460977,-0.113706484,-0.06945349,-0.020133868,-0.031860493,-0.078812115,-0.0844904,0.0018704942,0.027087145,0.0111142,-0.09167794,0.0059129014,0.05589691,-0.032687135,0.026259048,0.082610905,-0.12251455,-0.08813327,0.04271437,-0.011086723,0.0006432541,-0.07024896,-0.027901279,-0.062206212,-0.06444173,-0.009110016,-0.0070253643,-0.048992645,-0.08348854,-0.04997679,-0.09878049,-0.05619886,-0.097221434,-0.086989775,-0.008663067,-0.019504212,0.026139999,-0.08477632,0.030786712,0.07043633,0.07112314,-0.008929335,-0.027042026,0.006995409,-0.024919393,0.033703577,0.050563112,0.111381695,-0.0060095806,-0.010485583,-0.056111462,-0.009580387,0.14061418,-0.003049908,-0.003475458,-0.080614254,0.09016255,0.0730421,-0.020377105,-0.01992046,-0.036685456,0.009925083,0.03297031,0.06880873,0.10327671,-0.07079444,0.03543579,-0.023498468,-0.0023345517,0.0853469,0.011172401,0.00044371502,-0.00021592925,-0.0009719873,-0.067797646,-0.11748987,-0.10933587,-0.014999663,-0.04261983,-0.06368909,-0.019945139,-0.033788178,0.01890628,-0.05943142,0.021407053,0.014734177,-0.050101575,-0.053455714,-0.057822186,-0.0046447394,-0.0035242408,-0.062753126,0.0015687738,-0.0010901347,-0.015947888,0.06626963,0.12011673,0.018088212,-0.019434834,-0.048186895,0.121817455,0.12187368,0.03185988,-0.024982363,-0.032872703,0.02993552,0.105320886,-0.1051668,-0.100416236,-0.06354549,-0.019832723,0.024085216,-0.07843909,-0.089147,-0.015648838,-0.049910888,0.016093895,-0.07801937,0.015157462,-0.01820418,-0.0026542158,-0.073857404,0.044330735,-0.017637705,-0.04606165,-0.10618871,-0.083571345,-0.059978407,-0.13731089,0.0004487845,0.047593206,0.10592346,-0.058829203,-0.07399948,0.018078202,0.101380065,0.18878794,-0.016096927,-0.03176696,-0.062323347,0.049586024,0.08294183,-0.0592249,0.08201903,0.02133521,-0.033039548,-0.0017327291,-0.023944577,0.08809111,-0.0101782475,-0.08300255,-0.002233639,0.07166296,0.032602202,0.04005576,-0.0048255106,-0.051863354,0.05904402,-0.020025194,0.01947958,-0.0135919675,-0.031799156,-0.022298543,0.023043927,0.037134364,0.009138782,0.03595311,0.096415594,0.04528377,0.018915417,-0.03389118,0.00063388306,0.07076813,0.060858473,0.11090118,0.033113554,0.13983262,-0.033256657,-0.00056924234,-0.035837274,0.03151073,0.087249726,0.018283706,-0.08388928,-0.081550956,0.05010046,0.04904071,-0.03434074,-0.10626784,-0.09893048,-0.02232037
2,0.030925062,-0.07110285,-0.07411153,-0.046400726,-0.021899402,-0.0022460266,-0.06856027,-0.06978128,0.05419834,0.035357226,-0.013443487,-0.016141515,0.024542045,0.05026066,0.007997553,-0.012943345,0.04876619,-0.043084178,-0.075684994,0.020528004,-0.0750686,-0.006201779,-0.026471898,0.013921066,-0.051024962,-0.040656935,0.0027556263,-0.019676117,0.0021400799,0.021727387,0.011577739,0.03189467,0.029750092,0.003941767,-0.056616634,0.029453263,-0.054673694,-0.017105967,-0.037907623,-0.018419897,0.014473721,-0.036522098,-0.083653696,-0.03573064,-0.022808796,-0.07449139,-0.064567424,-0.01687954,0.028434051,-0.049447402,-0.039570335,-0.045096137,0.04164401,0.035865784,-0.012299176,0.015865186,0.020529278,-0.0008501839,-9.8061464e-05,-0.065744035,0.027401043,0.00011941204,0.032633413,0.018791255,-0.0010152189,0.046506446,0.04060366,-0.017549362,-0.10637875,0.03777502,0.003924484,-0.013058764,-0.028567841,-0.02351581,0.053347025,0.04571379,-0.14301133,0.032466423,0.00086671155,0.059083603,-0.08976555,-0.026878951,0.010534852,-0.04814533,-0.080371685,-0.05342319,0.0041251266,0.0077132056,-0.06743683,-0.08104966,-0.045531854,-0.026105164,-0.0018366837,-0.07179874,-0.08573337,-0.07452134,0.016376913,0.017725948,-0.052645776,-0.027800992,-0.029384142,-0.067437336,-0.013485108,-0.050413873,-0.0824698,0.043842874,-0.027357545,-0.024674162,0.03105939,-0.0665707,0.0404668,-0.0171633,-0.0370641,-0.003665837,-0.01883485,0.04070044,0.06334327,0.020906663,-0.04454043,-0.07404991,0.10032327,-0.034182396,-0.037156224,-0.04182164,0.060422346,0.06540935,0.0023279507,-0.064950444,0.06458274,0.031788334,-0.033248164,0.022519503,0.10476884,-0.008357725,-0.027320653,-0.06991639,0.06621922,0.06885299,-0.083529204,-0.018430537,0.08702859,0.11973839,0.029954333,-0.08456961,-0.04712558,-0.03853855,0.024047978,0.013310533,0.043046318,0.0277267,-0.05491959,-0.05335682,-0.06467513,-0.0076234597,-0.04059094,0.026072154,0.07169044,-0.0536465,0.010646277,-0.0059104,-0.007119968,-0.064407304,-0.012424768,-0.010217018,0.04760497,-0.010357353,-0.09225124,-0.03103864,0.0029690617,0.025522683,-0.015904473,-0.09980824,0.096193925,0.0024993808,-0.07909687,-0.06376848,-0.024628539,-0.059291057,-0.06336645,-0.0007373585,-0.06903989,-0.085569724,0.0067945477,-0.07560568,-0.098370776,-0.036398847,-0.04105269,-0.054697525,-0.10616297,-0.030533548,-0.04520699,-0.060409132,-0.005269794,0.06449979,0.06512661,0.032874756,-0.02867638,-0.03205856,0.042587485,0.014724119,-0.11085907,-0.10032734,0.07109004,-0.012665646,-0.11475304,-0.069302276,0.06332028,0.07204138,0.014638127,-0.034006566,0.0008518797,-0.019223083,0.07453867,0.056720953,-0.054474857,-0.021141632,0.025640115,0.06814917,-0.03356771,0.0014653394,0.14398725,-0.014639321,-0.0198017,0.0018413397,-0.055001833,-0.019305093,-0.022981042,-0.039680474,-0.029450517,-0.03213551,0.021320097,-0.02324143,-0.023104375,-0.016439127,-0.053175382,-0.022512786,-0.040348932,-0.054511994,-0.056572,0.015958587,0.03480672,-0.016895669,-0.02894362,-0.00227056,0.05606652,0.011450283,-0.024458125,-0.061881587,0.086984314,0.06669727,-0.061543122,-0.07411255,0.025404882,0.09072047,-0.016341293,-0.024024133
3,0.019889437,-0.015111959,0.021214893,0.027936433,-0.052131996,-0.021128364,0.038732674,0.0032519612,-0.0018567933,-0.0059568617,-0.0427636,0.0043506203,0.002167517,0.013397027,-0.100729406,-0.08376516,-0.019883242,0.04543552,-0.03574164,0.009025094,-0.032347452,0.043258183,0.017278679,0.054593813,-0.066153154,-0.0029226746,0.026740773,-0.054755736,0.051874377,-0.031728383,-0.0008442745,-0.07212304,0.043471523,-0.045583237,0.003905874,0.040363286,0.008418815,0.0062341923,-0.024072064,-0.008610985,-0.03924744,0.045050204,-0.025944173,0.04276895,-0.0036403355,-0.02892836,0.025870917,-0.019586705,-0.02472123,-0.0021224625,0.021117203,0.00053783774,0.008166296,0.023134863,0.04241106,0.026946472,-0.05621725,-0.058332883,0.013051595,-0.069015965,0.056472708,0.059613835,-0.061442632,-0.091388844,-0.07855207,0.008032546,-0.002111786,-0.034402154,-0.001758936,-0.054573067,0.00259072,0.03661998,0.038925003,0.017394193,-0.01594077,0.08766785,0.06479003,0.09946134,0.13396715,0.030418906,0.034084078,-0.018839568,-0.034958474,-0.0015381831,0.016913079,-0.021965822,0.02420926,0.030617999,0.074089654,-0.015893327,0.0002011494,0.018073993,-0.036849678,0.06167066,0.016297622,-0.023104737,0.064649746,0.06848538,0.00843581,0.05554922,0.085182264,0.051926553,0.024432577,0.0057719066,0.03193862,0.07248699,0.040302336,0.06404605,0.011712669,-0.031927668,0.04047082,0.02968673,-0.007930038,0.070423454,-0.025879487,0.053884566,0.009313711,0.021309402,0.033338293,-0.02449832,-0.03762452,0.001845552,0.012564562,-0.0666829,-0.0219593,-0.010979071,-0.09727132,-0.08751172,0.053479895,0.08251757,0.048870392,0.03199497,0.015055177,0.01173128,-0.052570775,-0.043279633,-0.02292396,0.013337643,-0.0045413445,-0.025691051,-0.037620958,-0.06652964,-0.08196531,-0.067422524,-0.021580284,-0.046417218,-0.00719616,-0.005401582,0.024189036,0.008749223,0.029812394,0.042925794,0.023052616,0.024810553,-0.082275264,-0.020685397,-0.00897726,-0.07919866,0.024773264,0.013638039,0.02347253,-0.0076767327,-0.031995323,-0.014915118,0.0043685012,0.02030335,0.016987683,0.015156898,0.021809986,-0.07544252,0.012459462,-0.02497967,-0.02352059,0.08714583,0.048585236,0.066033475,0.02769967,0.03636095,0.04188918,-0.020363353,-0.050752766,-0.037111405,0.023197101,-0.029569289,-0.035425473,-0.015977174,0.040828504,0.023715746,0.008671435,0.013218326,-0.0434718,-0.06335398,-0.008608976,-0.0455947,-0.05049533,-0.08869982,-0.013100367,0.0014234197,-0.06833878,-0.014840818,-0.08638791,-0.0967815,-0.06818764,-0.0926453,-0.013342263,-0.054238174,-0.07125297,0.0018354192,0.016440237,0.03990938,0.037369844,-0.014614185,0.018710207,-0.0022070135,0.038876075,0.042802226,-0.04279913,-0.0630751,-0.024939181,-0.016969696,-0.01545846,-0.03652204,-0.05409075,-0.03607695,0.07477993,-0.0005152342,0.017766546,0.00071265997,0.051591817,-0.021852069,-0.0075234934,-0.0074693467,0.0007544756,0.059156265,0.02540358,0.016440751,-0.02107468,0.028014101,-0.07289586,-0.0069870753,0.001954883,0.009823088,0.048223376,0.06310875,-0.0505123,-0.06186549,-0.068817385,-0.039843883,-0.02744221,-0.03379782,-0.065740496,-0.008263014,-0.012150069,-0.06652192,-0.013662601,0.016860731
4,0.019453492,0.041181855,-0.0067066895,-0.03407261,-0.032143597,-0.02161979,-0.051166277,0.004334447,-0.00044617878,0.05032627,0.03891661,-0.049191482,-0.007491901,0.0628234,0.019814946,-0.007842722,-0.050499335,0.011827115,0.028642844,0.018371249,0.015162889,0.012655622,-0.041877024,0.033584565,-0.02633698,-0.0054972125,-0.049411695,0.042558983,-0.030476635,0.0011717796,0.041069485,-0.06644259,0.024449082,-0.05971986,-0.039349552,-0.038122177,0.020886963,-0.029113647,0.015208412,-0.07841669,-0.042857647,-0.060772765,0.027680438,-0.007481698,0.008612774,-0.059232704,0.041782767,0.026690414,0.021419898,-0.05358182,0.031091254,-0.05965118,-0.042452708,-0.0010371195,0.03321592,-0.002742859,-0.052608974,-0.048509188,-0.056285493,-0.014602325,0.00021627342,0.04989247,0.018775178,-0.041205402,-0.036823884,-0.07004446,-0.03750839,-0.007102333,-0.06190883,-0.02312375,-0.05425554,-0.045119833,0.015854513,-0.019917266,0.006182354,-0.024761358,0.08427336,0.0041006845,0.08966631,0.08575245,-0.011697814,-0.063475296,-0.054561567,-0.027754273,-0.021618504,0.0074695917,0.024260873,-0.043653913,-0.04127282,-0.044311337,0.054491594,0.006569548,-0.056575384,0.027016222,0.04019307,0.04099492,-0.024071641,-0.0069216476,-0.021719575,-0.0021827414,0.06699899,-0.035519596,-0.05523957,-0.020765241,0.03214217,0.04820311,0.0501484,0.047326885,0.023914348,0.07978318,0.077487655,0.13297765,-0.03398883,-0.01203788,0.048608948,0.004193874,0.01915778,0.042583928,0.017594261,0.05149787,-0.007941436,0.029298192,-0.068341866,-0.007598186,-0.0027736428,-0.010951603,-0.035680026,-0.061696365,0.026565062,-0.0026323034,-0.051441163,-0.059496183,-0.08585068,-0.08007556,0.003586007,-0.08825305,-0.02215997,-0.06552626,-0.10868241,-0.0925387,-0.06560616,-0.011678581,-0.0074207014,-0.05772564,-0.047035057,0.036124516,0.016437832,-0.031074109,0.041081414,0.033478655,0.015522259,-0.0064607393,0.052070256,0.020343304,-0.06516956,-0.07335389,0.031694263,0.015280181,0.021530095,-0.0071779625,-0.04614983,-0.04317323,0.006329424,0.0023783923,-0.012201328,-0.084064335,-0.03456882,-0.018803565,-0.06521605,-0.059101637,0.031932432,-0.061963018,-0.0025818443,0.024723712,0.005598826,-0.022665514,-0.045206394,-0.018985009,-0.082344696,-0.07275837,0.012278667,0.016017715,-0.0706177,-0.029914651,0.0013111299,-0.021547081,0.03214879,-0.01053349,0.043489102,0.07888138,0.09363093,0.067988016,0.022472404,-0.05659123,-0.04131518,-0.06435978,0.029894527,-0.023702662,-0.0030921982,-0.013762616,0.044986974,0.035653815,0.03747023,-0.06852475,-0.039739203,0.05441609,0.0035113469,0.07361931,-0.0031773667,-0.03899899,0.01349468,0.014548134,-0.048592113,0.035257038,0.051229306,-0.04791078,-0.022074776,-0.055649653,0.030054824,-0.026083626,-0.007139801,-0.032777697,-0.024470787,-0.011414623,-0.033518024,0.0030006566,0.027226068,-0.013326557,0.045184676,-0.017449819,0.01585212,-0.069619946,0.00018676605,0.07824899,0.07239724,0.0895176,0.061275154,-0.049267966,-0.014755914,-0.007748113,-0.08167622,-0.0680779,-0.0019663377,-0.08509856,-0.007804585,-0.077630244,-0.10033795,-0.052035183,0.012674876,-0.08153035,-0.05174652,-0.0020566096,-0.025062554,0.009222299,0.05964253,0.035656594
5,-0.0005212678,-0.042991634,-0.023428181,-0.04105405,-0.061023094,-0.007824982,-0.022718383,-0.047635242,-0.041860394,-0.045251355,0.022571519,-0.0014577016,-0.014604715,-0.09496482,-0.07129217,-0.061547052,0.02966654,0.029207971,-0.009029389,-0.0026041109,-0.037515093,0.014441075,0.0053180344,-0.013992188,-0.039028402,0.030420432,0.0544607,0.041068558,-0.03329894,0.011957618,0.011735305,0.018585252,0.021394512,0.012580729,-0.051078282,0.032980956,0.0155428015,-0.01481097,-0.0389749,-0.0046554664,-0.014699404,-0.06752181,-0.033667263,-0.019902559,0.016944109,-0.09264137,-0.10423591,-0.058527764,-0.019250253,0.04880487,0.06169777,0.032094404,-0.0006166658,0.054600656,0.048246417,-0.012952269,0.03018704,0.07664117,0.08306341,0.056018118,-0.09402768,-0.0853208,-0.029527228,-0.050899263,-0.024846105,-0.06765673,-0.07700655,-0.047235332,-0.038213424,-0.001725669,-0.015442533,-0.05813797,0.014246421,0.07405007,-0.030127738,-0.017728595,0.007921309,-0.034416016,0.04320383,0.020487336,-0.040182628,0.02961139,0.016061723,-0.017499238,0.010168113,0.02151369,0.032970797,0.01506691,-0.09800053,0.028944502,-0.014142501,-0.042522755,-0.06264793,0.004027794,-0.0073491554,0.013915622,-0.007291463,0.005331411,-0.02337128,-0.028814295,-0.04768714,-0.026295148,-0.0024280772,0.07273267,0.043705117,-0.015346602,0.082983054,0.08343318,0.058063183,0.018125279,0.07401728,-0.011166156,0.0618122,0.074646965,0.06544582,0.10517237,0.048866,0.10907925,0.004580662,0.053860247,-0.02399592,0.02326037,-0.0047176196,-0.04677604,-0.03505546,-0.08605525,-0.113504544,-0.14599338,0.026654292,0.11820434,0.0632134,0.0838816,0.017849337,0.10615168,-0.035413418,0.07267288,-0.12254353,-0.07996234,-0.047230337,-0.018949527,-0.10565179,-0.16460171,-0.13331804,-0.08371299,-0.029759414,0.046737723,0.04710343,0.066974044,0.041577008,0.011531182,0.07091055,0.03609401,-0.00640278,-0.0030778009,0.031908337,0.05385685,-0.017556448,-0.021200167,-0.09711925,-0.13590775,0.013463496,-0.05356588,-0.08120354,-0.040086385,0.008850407,-0.010901095,-0.012963153,0.007533156,-0.081694774,0.027081069,0.03609672,0.03480038,0.022725673,-0.003399968,-0.058210738,-0.13085449,0.08649308,0.04032286,0.029705882,0.010202619,0.06585325,-0.046771754,0.01758959,0.029851822,-0.03190107,-0.023245187,-0.012191913,0.0502709,-0.030803267,-0.027069356,-6.525605e-05,-0.0009298083,0.090415254,-0.08047629,0.15136409,0.071103126,0.097587466,0.017817307,0.10551047,-0.060845822,0.061540842,-0.019326426,-0.030034922,-0.042474788,-0.17315185,-0.13804546,-0.14507367,-0.20428833,-0.03464339,0.026304945,-0.00045256555,0.017310223,-0.011552295,0.003967295,0.04451575,0.060836527,0.048258275,0.05687021,0.06628048,0.007831612,-0.12335997,-0.013134035,-0.07559155,-0.05485338,0.060939252,0.02230569,-0.03017125,0.017741831,-0.065190345,0.049987096,-0.03283611,-0.041094583,0.023064097,0.047049597,0.006464681,0.0093260035,0.0068057706,0.011841983,-0.007671763,-0.030511701,-0.060651235,0.05906234,-0.014084676,0.070278265,-0.0323439,0.005622217,-0.00087474956,0.031956732,-0.069951035,-0.06925965,-0.030982763,-0.06377185,-0.073730044,-0.009521989,-0.03741638,-0.08266866
6,-0.026731003,0.010384852,-0.06372745,-0.034239918,-0.04819153,-0.01359578,-0.062137634,-0.013878955,-0.008345197,-0.037316274,-0.058761798,-0.052730255,0.055540863,0.031920157,-0.06644024,0.024067061,-0.04978702,0.033967003,0.038920935,0.02144585,-0.041381575,0.017407393,-0.037461832,0.03160435,-0.006587751,0.06505784,0.06514956,-0.019640625,0.05307306,-0.04059446,-0.023889577,0.05019534,0.023271097,-0.05661007,0.015002629,0.020452434,-0.06464207,-0.018380197,0.01496604,-0.005697988,-0.08202292,-0.058406167,-0.036715273,0.020105904,0.011653397,0.02000533,-0.019011494,-0.03813382,0.00840067,-0.04719523,-0.05412077,-0.017962178,-0.064207315,-0.03996927,-0.028591739,-0.04331434,0.040655028,-0.04719987,-0.028121619,-0.01720571,0.045042522,0.026274875,0.033840142,0.0346084,0.07617882,0.020722635,0.033419732,-0.018705115,-0.04037817,0.047381457,1.725237e-05,0.038033478,0.036189046,-0.016494699,-0.03913919,0.013072665,-0.016211031,0.043117892,-0.066970445,0.05459597,-0.057940986,0.04480197,-0.005184098,0.008332044,-0.045607567,-0.005461535,0.0096593965,-0.06966111,-0.058344882,-0.04930192,0.014242408,0.026741486,0.050429955,-0.063995734,0.04677512,-0.024294922,-0.005705155,0.026532287,-0.04666829,-0.05569497,-0.030284261,-0.0345674,-0.003671589,-0.049732804,0.01714496,0.01972312,-0.09733425,-0.029501848,0.007109868,0.021712817,-0.068609856,-0.07457786,0.03550576,-0.06995623,-0.045812976,-0.06174371,0.033732686,-0.00013357033,0.014740197,-0.04831198,-0.06671806,0.03857094,0.049810506,0.05183886,4.3858276e-05,-0.033142153,0.007034363,-0.016718904,-0.07171081,-0.035415184,0.059343867,0.03673772,-0.07771192,-0.027461544,0.039668422,-0.0035014744,-0.049608752,0.015276456,-0.0015496548,0.06035081,-0.029185055,-0.00021470229,-0.041338887,0.052422494,-0.035198353,-0.009285903,-0.014897752,0.0057024816,-0.005197071,-0.064094715,-0.03826738,0.027855728,-0.005297339,0.0042306064,0.02124831,-0.059133522,0.039717074,-0.04147267,0.0460773,0.020852618,-0.066833146,-0.09028874,0.0034119613,-0.009337064,-0.029147713,-0.060551047,-0.049882755,0.026593974,-0.03009862,-0.07018461,-0.010124803,0.02697407,0.015130431,0.021607017,0.018247297,-0.037642367,0.0064739194,-0.008560122,0.024341356,0.024708347,0.0033220048,0.052657694,0.026036283,-0.03813322,-0.016093321,0.06113554,-0.016037263,0.013837098,-0.011040475,0.025424182,0.06641358,-0.015461226,-0.088289514,-0.011133414,0.059935242,0.040997155,-0.082423754,0.052960075,0.015824983,0.037446782,-0.016531907,0.020795677,0.08330516,0.02308652,-0.021379884,0.06576784,0.060508654,0.054098323,0.009866675,0.016067846,-0.055953164,-0.08331295,0.004704885,0.007718251,-0.051686946,-0.03516365,0.0068593523,-0.035138577,-0.08978208,-0.07405738,-0.003665207,-0.04194934,-0.04019627,-0.07027349,0.040055547,-0.019769967,-0.02770421,-0.012478339,-0.002906061,-0.0408496,0.0058538266,-0.07700937,-0.050221384,-0.058356315,0.01783651,0.012222319,0.021002337,0.018668884,-0.056490533,-0.07945555,0.026006693,0.009300998,-0.03197437,0.0670582,-0.05017827,-0.04584933,0.03693396,0.07456837,-0.08164595,-0.043988295,0.053550374,0.017300328,0.013129008,0.0014946705,0.031857055,-0.046119183
7,-0.031111384,-0.047043078,-0.07982148,-0.06413514,-0.018451704,-0.017332707,0.048140332,0.05366881,-0.0068013947,0.047868434,0.051549822,0.10096282,0.07750291,0.024485033,0.058919642,0.027267354,0.0142437685,-0.0329595,0.00074745005,0.0019053309,0.014565959,0.022271993,0.034357347,-0.0072336635,0.048283968,-0.0033308167,0.012326533,0.078099936,0.020193707,0.035962388,0.044419292,0.056370918,0.048570562,0.063119546,0.051936302,0.0005957842,-0.015020706,-0.048751105,-0.059699666,-0.04082619,-0.013759054,0.0037349039,-0.048190247,-0.024117107,-0.051045198,-0.0378919,-0.03687634,-0.013220374,0.0008865498,0.05308578,0.004315158,0.050475,-0.010294838,0.0663266,0.09484345,0.09931976,0.052064486,-0.030760834,-0.048667137,0.0051022475,0.05693095,-0.00555025,0.03727638,0.02543651,-0.019204114,-0.07963916,-0.0010555454,0.015964042,0.00543165,-0.043488357,-0.015671875,0.012013976,0.030367173,-0.037837975,-0.029330704,0.018942209,0.056818586,0.039353102,-0.020031862,-0.022688609,-0.08771376,-0.007999374,-0.03931446,-0.015964245,-0.043044504,0.023101157,-0.029539645,-0.07442962,-0.036574315,-0.059570722,-0.03841771,0.018256638,-0.088049464,-0.045304995,-0.053321827,-0.025008418,-0.028159844,-0.01579865,0.013434878,0.053884313,0.04453892,0.018183086,-0.005229476,-0.022206945,0.04094764,0.02212692,0.04366721,0.050015353,-0.032601725,0.04680816,-0.010445924,-0.0119241895,-0.026455745,0.01235948,-0.023309074,0.033077322,-0.02019876,-0.0013806376,-0.05186454,0.055571776,-0.007817732,0.00565591,-0.0400623,0.051376935,0.016168592,0.025198434,0.049465403,-0.029228576,-0.016885301,-0.02777264,0.1027336,-0.0060184877,-0.04088219,0.03815945,-0.029428823,0.023666684,-0.08440118,0.014639069,-0.00948678,0.019239483,-0.037620783,-0.045078445,0.06378696,-0.053757824,-0.05246709,-0.076007634,-0.0507908,-0.009618172,-0.026879014,0.069219306,-0.044099543,0.0045433277,-0.04729925,-0.0076131993,0.026646,0.00900083,0.055640444,0.08522447,0.067809805,0.06246975,0.06483038,0.075851314,-0.015574613,0.038517676,0.0015805075,0.035465654,0.04297791,-0.03330973,-0.06288117,-0.041309267,-0.08806552,-0.014438023,-0.030780543,0.0027515749,-0.04549362,-0.07330952,0.042258628,-0.009168027,0.010182422,-0.072325476,0.0053298236,-0.0029099085,-0.026747968,-0.001889159,-0.028893944,-0.014673672,-0.04420825,0.011754356,-0.016226426,-0.046393376,0.05898526,0.05296678,-0.1509964,-0.11691638,-0.031792656,0.043755054,-0.12207667,-0.11753762,-0.051755935,-0.05643556,-0.052634437,-0.025287224,-0.022480221,-0.043826047,-0.12526596,-0.024342742,-0.009531291,-0.027094996,0.006084688,0.03989125,-0.0130788,-0.016387712,-0.0392861,0.01232935,0.018048603,-0.005972186,-0.012672596,0.054610822,0.0650061,-0.028577862,0.09267387,0.033532586,0.026792895,0.028483503,0.020115416,0.03476232,0.08998419,0.045971524,0.06843951,0.08724778,0.034887884,0.05571421,0.033106197,0.09050644,0.028798895,0.02809337,0.05789213,-0.021449542,-0.022278337,0.04591516,-0.07740112,0.040737577,0.048851863,0.014855313,0.006384498,-0.049851015,0.07088156,-0.03234413,-0.11364483,-0.088010035,-0.05861795,-0.06305729,-0.073895514,-0.04768875,-0.00048731448,-0.0017323301
8,0.09386411,0.07270538,0.01588472,0.0013153466,-0.0031580357,0.07103862,-0.07851137,-0.035215795,-0.024682017,0.03207972,-0.09683487,-0.033642273,-0.05789025,-0.0524874,-0.06581052,-0.02129784,0.017930698,-0.018776938,0.006001036,-0.061447885,-0.054615494,0.003552906,0.03942308,-0.01829148,0.023018764,0.059840173,0.024781961,-0.101586506,-0.06630929,-0.05148258,-0.06163659,-0.025511788,0.008073343,-0.088099696,-0.014139484,-0.07375897,-0.07411487,-0.022915702,-0.08126904,0.03689266,-0.06117234,-0.055578828,0.014896273,-0.012412667,-0.037128065,-0.10073932,-0.029420888,0.013986792,0.011817271,0.024497863,-0.029724421,0.045061313,-0.008521313,-0.03315187,-0.04656867,0.06597529,-0.030464564,-0.020133158,0.04085333,-0.04579467,-0.0017297377,-0.06757447,-0.025685873,-0.033842646,0.06218676,0.03230766,-0.077737994,-0.028163482,0.07478712,0.062916115,0.007382396,-0.11032928,-0.08062526,0.0014261325,0.027101306,-0.09297214,-0.02226291,-0.002141098,-0.025003819,-0.10018386,0.053431656,-0.02245957,0.058023196,-0.07866261,0.055343937,-0.016949335,0.027466618,-0.030236479,-0.030956697,-0.07364354,-0.06267877,-0.05026718,0.014073864,-0.03252874,-0.07112592,-0.050165743,0.10057877,0.08766603,0.023906942,0.024779087,-0.029799113,0.048824318,-0.047737803,-0.04326704,0.027882935,0.02060496,-0.08204938,-0.07906914,0.030416861,-0.020215308,0.00021395148,-0.10963965,0.020915538,-0.052383512,-0.01090533,0.09030003,-0.002558257,0.015896644,-0.005572775,0.071610816,0.026755486,-0.08103461,-0.0749495,0.06631287,-0.07543818,0.027140835,-0.03504993,-0.041425183,-0.043539003,-0.071655355,0.030097147,0.033068676,-0.039514113,-0.11142544,-0.071208104,0.055070575,-0.012379458,-0.020854888,-0.03893651,-0.016293142,-0.04917275,0.010998157,-0.04158131,-0.04581756,-0.009074649,-0.019032191,0.022687819,-0.061603475,-0.0010288772,0.050750744,-0.054451175,0.030306857,0.060150903,0.048350997,0.038375635,0.012042827,0.044863284,-0.06208802,0.02785467,0.026921548,-0.03672634,-0.0018664916,-0.015575769,0.04745554,-0.044788335,0.055045456,-0.023467394,0.017610257,0.03474827,0.019354736,0.037357297,0.05190467,-0.016097162,-0.07483679,-0.015292305,-0.028604861,0.05086724,-0.041336656,-0.03753054,-0.056264386,0.05059932,0.031821642,-0.04952015,0.051305227,-0.03490713,0.012000876,0.029061802,0.038849372,-0.07853238,-0.032827247,0.040179167,0.02694071,-0.07522296,0.00480564,0.19780155,-0.039284535,-0.09608531,0.018047642,0.12837699,0.061681382,-0.13630259,-0.09713041,0.06647445,0.09706989,-0.12320367,-0.0038833725,0.072931394,0.10334186,0.059336938,0.028994918,-0.016483001,0.0016622673,-0.031972352,-0.04251074,0.0009337939,0.058258876,-0.046432704,-0.04116149,-0.04643901,0.04062009,0.041585926,0.03991662,-0.044863246,0.010831228,0.039826162,0.06612761,0.045896944,-0.034740165,-0.030634101,-0.011136009,-0.035627794,0.009387139,0.011881763,0.040153876,-0.0558624,-0.0018810143,-0.057473544,-0.048623204,-0.057886377,-0.03661527,-0.08303823,-0.10243463,-0.033584666,0.07366451,-0.07320413,-0.016913617,-0.079499125,0.0063719684,-0.022687944,-0.045716964,-0.010773962,-0.03178433,0.06047681,0.0077802967,-0.0045263395,-0.033346314
9,-0.017642256,0.007880878,-0.087626465,0.0023300415,-0.027084744,-0.031394474,-0.07413807,-0.009920579,0.0065881684,-0.07437319,-0.030940488,-0.022043422,-0.07003494,0.008218832,-0.033405777,-0.09917499,-0.059142165,-0.022124084,0.014938554,0.010383662,-0.016378608,0.021533495,-0.024553668,-0.026766986,-0.00860838,-0.058282856,-0.057869304,-0.06550778,-0.08174107,-0.05994255,0.008972933,0.01866528,-0.03355863,0.08256821,0.056811262,0.037710533,0.01837855,0.06956419,0.031763997,0.03823328,-0.045532227,-0.039310474,-0.1186222,0.0250517,-0.058578786,-0.032499157,-0.08088996,-0.015959531,0.0171515,0.032179773,0.04773979,-0.05789351,-0.025540607,0.04658628,-0.051332448,0.03013045,-0.09225201,-0.08290656,-0.041858587,-0.07863427,-0.02379658,-0.0072668353,-0.082744755,-0.04794612,-0.058626827,-0.066400535,-0.018896258,-0.118362926,-0.027539132,0.05512367,-0.010713707,-0.062447876,0.08395431,0.022449927,0.061221346,0.04885647,0.012417789,0.0035810978,0.042569,0.0026558149,0.018286226,-0.041617326,0.026753072,0.008915071,0.006578131,0.063236944,0.063218534,-0.006017445,0.041175425,0.026864583,0.05272172,0.061630055,-0.0073240763,-0.021614509,0.059363384,0.024359541,-0.020338912,0.025666555,0.02102248,0.036507186,0.08351454,0.0997015,0.09928191,0.076039575,-0.03357148,0.034955926,0.018694336,0.0499855,-0.058017757,-0.075958796,-0.081692696,0.019036293,0.15372004,0.04650744,0.050519835,0.07484457,0.055292882,0.020365644,0.015055081,-0.010191849,-0.014272647,-0.041418586,-0.019184912,-0.0039272774,-0.015951358,-0.06738477,-0.06696761,-0.06564218,0.11021713,0.044263396,0.13302986,0.07888318,-0.028901119,-0.034428313,-0.0062197815,0.044945356,-0.04009564,-0.10727799,-0.10776215,-0.07820825,-0.0721994,-0.01964021,-0.06728558,-0.05004326,0.04295784,0.06393308,-0.03913834,0.0033791405,-0.055740632,-0.045063596,0.039729495,0.025317978,-0.033889584,-0.016138501,0.0059382645,-0.020595679,-0.03831086,-0.05080995,-0.08466927,-0.039664514,0.08522527,0.027522389,0.0829574,0.06755792,-0.0035778082,0.0023888412,0.030607134,0.0213959,-0.05211042,-0.10544153,-0.031212367,-0.09457484,-0.06718086,-0.08633943,-0.09187046,-0.04787212,-0.02342473,0.008965013,-0.015214107,0.065801576,0.03447447,-0.028705643,-0.0015682667,0.059954762,0.026276082,0.026936242,0.046672497,-0.02170524,-0.0665289,0.008013236,-0.0762789,-0.005286931,0.035834007,0.08107847,-0.018075973,0.12571251,-0.012030001,0.015971117,-0.03767343,0.086880244,-0.033217438,-0.107146025,-0.057202086,-0.02703861,-0.15160485,-0.17392424,-0.16503178,-0.12882698,0.0313082,-0.008928508,0.10501761,0.07598856,-0.020357687,-0.014248518,-0.01768257,-0.030983046,-0.010813601,-0.043354977,0.052574296,-0.035973936,0.021563567,-0.024734057,-0.06374835,0.022907494,0.05206153,0.049742647,-0.02435557,-0.034571286,0.08007953,0.05397758,0.08368378,-0.031624034,-0.060744256,-0.047485404,0.021102475,-0.027589329,-0.086818635,-0.033715192,-0.03887905,-0.056899868,0.13701561,0.014625261,0.048709333,-0.021270074,0.049950555,-0.034268513,-0.02610477,-0.03877214,-0.08137997,-0.10387851,-0.08774732,-0.094480015,-0.06208216,-0.1613692,-0.09135155,-0.06508344
10,-0.068269566,-0.056040052,-0.033350244,-0.06547853,0.009491725,-0.06478479,-0.050359573,0.018270163,-0.0021304016,0.021738097,0.033580553,-0.06704397,-0.068043165,-0.03903824,-0.055287294,-0.063360475,0.018803455,0.016085532,-0.041781664,-0.04466123,-0.07551151,0.02676292,-0.07161492,-0.08985646,-0.07399568,0.030130118,-0.01553107,0.004260943,-0.005461694,-0.08286688,0.018790595,-0.032389525,0.045364942,0.027462808,-0.031598732,0.052124925,-0.03765837,0.022629457,-0.03974807,-0.003190643,0.0019318849,-0.030840488,0.013748499,0.009195604,-0.072850846,-0.057018906,-0.10019523,-0.07151602,-0.04524471,-0.053016886,0.026697095,-0.060924277,-0.015709497,-0.05909954,-0.009354329,-0.01852212,-0.0133870905,-0.0846389,-0.08761529,-0.088235185,-0.04603499,-0.03432044,-0.004005153,-0.057921708,-0.075529054,-0.002154566,-0.027426738,-0.061991777,-0.0651088,0.013920757,0.00068813824,-0.08574273,0.0033519072,-0.0728454,0.00028101634,0.03310866,0.00018786392,-0.009325778,-0.037229583,-0.045622125,0.028157948,-0.009808497,0.03563116,0.014591856,-0.011638874,0.012009105,0.046325717,-0.03596277,0.027636828,0.067073144,0.079320006,0.018364532,0.053433023,0.06760982,0.055749174,0.046420828,0.0030023223,-0.011283345,0.014342415,-0.019675106,-0.03182298,0.01600749,0.006435868,0.008176457,-0.040235087,-0.024681073,-0.053763844,-0.04488803,0.0010152995,0.04016099,-0.018348677,0.033014163,0.04881697,-0.0036560716,0.031055119,0.07038508,0.086001106,-0.034079593,0.07933103,-0.00079881336,0.0031653123,-0.002705551,0.09706609,0.03408949,-0.0016859715,-0.06573551,-0.02201269,0.004820908,0.0649717,0.05623504,0.120099105,0.007774403,0.032780208,-0.089048035,0.02146682,-0.022354223,0.027946431,-0.0035525912,0.07423214,-0.013832379,-0.098838665,-0.0870074,0.04083037,-0.04800849,-0.011782906,-0.012598122,0.055680096,0.076912396,0.0040136683,0.079866774,-0.04209431,0.039008275,-0.020234505,-0.048367653,-0.056280576,-0.058810428,-0.08613552,-0.050607726,-0.03626356,0.033730436,0.03445511,-0.04286685,0.026760763,-0.052999206,0.04482293,-0.032229688,0.028568156,-0.028237252,-0.10780787,-0.0101526575,-0.07960803,-0.045658905,-0.0076713874,-0.040936958,-0.01098446,-0.11142818,0.008240776,0.0060163517,-0.024154043,0.06346384,0.015148984,0.046713896,0.061286435,0.00018138402,0.06167781,-0.040786386,0.0010609388,-0.005109208,-0.01790676,0.022706997,0.047059257,0.012786988,-0.105317675,0.097526416,-0.06440017,0.13016081,-0.14911084,0.12893943,-0.048505604,0.11871388,-0.074894674,0.0362399,-0.09359575,0.12682348,-0.16439892,-0.003835011,-0.10449987,0.0072198086,0.060838368,0.067750946,0.03782663,-0.01902275,-0.0327019,0.078559704,0.08852444,0.022308009,0.0028757197,0.028501725,-0.014363813,0.06460913,-0.060912326,-0.06212427,0.025453303,0.009529663,-0.002289757,0.0116350325,0.048784226,-0.03793899,0.0068875477,0.010022929,-0.008529252,-0.026807023,-0.026520304,0.031889487,0.019944208,0.003121097,-0.02693213,-0.027463194,0.023320014,0.0034517562,-0.019235333,-0.0016237966,0.043434877,0.011118219,-0.005518235,-0.1025353,0.02439486,-0.057381712,-0.008523642,-0.10346234,0.013183801,-0.04575085,-0.11154509,-0.101371005,-0.011925372,-0.06576722
11,0.08542761,0.0390195,0.1014993,0.073341854,0.06777921,-0.0011556504,0.0063008503,-0.0081635425,-0.009593682,0.023537697,0.05568785,-0.051665384,-0.12730809,-0.10697319,-0.055110965,-0.097631276,-0.006569842,0.054813407,-0.028765809,0.054165516,-0.03727476,-0.03214862,-0.051990844,-0.00897027,-0.024465611,0.012888061,-0.06166955,-0.07739026,-0.033024553,0.0013497361,0.005499715,-0.020824311,-0.024350436,-0.035586935,-0.078003876,-0.09151592,0.03841372,0.015386737,-0.045023263,-0.037292544,-0.033301577,0.028910208,0.022865396,-0.052281704,-0.04146558,0.06638964,-0.023984088,0.07052562,0.0505171,0.026565986,-0.0059323274,0.056711204,-0.08775017,0.052325327,-0.027052943,-0.06467694,-0.041434404,0.08260579,0.07469101,-0.0085441815,-0.01447892,0.014315878,0.033947825,-0.015379423,-0.01157795,-0.0068880655,0.033379123,-0.07094476,-0.03451884,-0.0018841488,-0.04789239,-0.014494328,-0.08491723,-0.055512168,-0.102449715,-0.053443007,-0.0656376,-0.1116361,-0.12553428,-0.1339416,-0.0008236896,-0.0003289429,0.012841629,-0.007638697,0.001929986,-0.08017172,-0.04496325,-0.027655225,0.0008141095,-0.104826786,-0.08219593,-0.042177733,-0.09198534,-0.053020842,-0.03632112,-0.05732201,0.08050376,0.054202236,0.07475778,0.098365314,-0.06309313,-0.0111370245,-0.037867293,0.030476889,-0.07533677,-0.004596704,-0.05558713,-0.07136256,-0.051342376,-0.0029540814,0.016307024,0.008511208,-0.067612894,-0.08522375,-0.14084972,-0.028192941,-0.07694376,-0.0919703,-0.09976353,-0.10593549,-0.09283067,-0.054612964,0.034463108,-0.072563395,0.040033493,0.012381353,0.06817258,0.0009922239,-0.089712135,-0.08910331,-0.06491135,-0.09748361,-0.03433766,-0.0073024402,0.0117679145,-0.03606915,-0.037592374,0.04646635,0.052737363,-0.0767478,-0.037191868,0.10260279,-0.040982608,-0.03827287,0.04098184,-0.00041283356,0.041713547,-0.02975629,-0.06854139,-0.015490035,-0.010069656,-0.053879086,0.04715219,0.03147393,0.044279,0.027023464,0.066938214,-0.0056332047,0.07978912,-0.022949401,0.071872376,-0.013891427,-0.007803486,-0.020792868,-0.05632385,0.07845612,0.10108028,0.06396177,0.038214568,0.02481647,0.1348565,0.05044989,-0.055375554,0.0020293996,0.020381466,0.05337517,0.042226277,0.0059434967,0.04686452,0.004864303,-0.029682387,0.054623455,-0.044444036,-0.055864062,0.03306733,0.04856991,-0.056032974,0.030740028,-0.032679725,-0.05693874,0.082050614,0.06400437,-0.04440752,-0.08913803,-0.09563698,0.0067627854,-0.006953689,-0.12760301,-0.09398883,0.097595856,0.14725164,-0.042839117,-0.064917,0.12383214,0.20466445,0.015251099,0.07578003,0.010964239,-0.0067958273,-0.029246077,0.033212975,0.034769237,-0.058206353,0.03929861,-0.03887857,-0.07824873,-0.06596358,-0.026287984,0.043304343,-0.10594978,-0.035316154,0.031078579,0.019162757,0.0009981655,0.031625494,0.036245678,-0.056609172,-0.046922248,-0.057677113,0.011757522,-0.003076725,-0.05702677,-0.029594926,-0.07473563,-0.07631926,-0.010443536,0.0325058,0.037681364,0.07501545,0.050767478,0.098850034,0.028447367,-0.059555095,-0.07168417,-0.005681164,-0.020938722,0.023971215,-0.008725821,0.09717386,0.06683571,0.09364885,-0.02110853,-0.02195106,0.038234375,-0.06682101,0.031709127
12,0.057164628,0.048672374,0.055806074,0.11469163,-0.015268191,0.05452346,0.052199617,0.0018782065,0.04031634,0.018036705,-0.038297165,0.055788256,0.06616896,-0.035123862,-0.010601307,0.05023327,-0.0034723047,0.059027646,0.0021064403,0.049417894,0.042135853,0.020151334,-0.024379902,0.039798636,-0.004236075,0.022434495,-0.04893104,-0.0424078,-0.07027022,-0.0121243615,0.01957941,-0.013379928,-0.045445904,-0.04723564,-0.025553674,0.0049128816,-0.034339063,-0.024042718,-0.0343667,-0.049090054,0.0331723,-0.08939873,-0.050848983,0.032940917,0.0051528774,0.02463463,-0.08186467,-0.08874827,0.032900836,0.009413521,0.05587461,0.03917392,-0.027091695,-0.051564626,-0.05801261,0.026253467,0.015316009,-0.03157402,0.012752887,-0.021502161,-0.09018354,-0.018243542,-0.06807093,-0.08514845,0.09432285,0.1472529,0.017337393,0.106417544,0.068071924,0.05420278,0.05263787,0.0015788664,0.038417574,0.0044092364,-0.030265652,-0.01730845,-0.02845575,-0.07502452,-0.045217127,-0.055324633,-0.06804044,0.03768569,-0.026257215,-0.04515007,0.02566311,-0.012956604,-0.002042452,0.02406759,-0.059044845,-0.059690267,-0.022203919,-0.0479659,0.018431222,0.032792978,0.0074883862,0.005345442,0.0498066,-0.051409587,-0.030046526,-0.046082076,0.0010290785,0.0051696445,-0.0019238105,-0.028222354,-0.0144070415,-9.031645e-05,0.04456812,0.036490083,-0.022140076,0.014815466,-0.06970334,-0.00037305293,0.018730659,0.014230002,-0.066926055,-0.049749468,-0.014163032,-0.040436473,0.024563158,-0.08587712,-0.008230239,0.027567172,-0.069244444,-0.0033872244,0.008149267,-0.054778118,0.01766372,-0.055639587,0.027895855,-0.04080847,-0.0064206524,0.035539933,0.017903617,-0.04262323,-0.06887372,-0.021057254,-0.07651073,0.031382065,-0.03380479,-0.07630976,-0.072882615,-0.017067827,-0.0739297,-0.055754256,0.005084826,-0.03196515,0.009283118,0.059773434,-0.032121513,-0.03685583,-0.029043755,0.03270911,-0.07391395,-0.0129561685,-0.03049695,-0.057040077,0.013550403,-0.036814343,-0.07305407,0.034056667,-0.05333342,-0.03739033,-0.041602544,0.0015191335,-0.046659227,-0.020183409,-0.05858634,-0.07120592,-0.056588527,0.016481714,-0.020407673,-0.048624497,-0.08153058,-0.059191193,-0.0017681199,-0.019661043,0.041878164,-0.017690951,0.008125775,-0.013639968,0.017312808,-0.017481856,-0.026529558,-0.05821576,-0.076543644,0.018819364,0.045715284,-0.040194612,-0.08349627,-0.031298723,-0.008089422,0.006551241,-0.03641673,0.041102402,0.05818561,0.02201897,0.033328768,0.0032241908,0.0017946734,0.051967572,0.010078057,-0.021892237,0.008906853,-0.050075643,-0.007897222,0.011202254,-0.00981727,-0.03673328,-0.036242682,-0.06979168,-0.023565523,-0.013365612,-0.0062920437,-0.016911596,0.027198348,-0.064203896,-0.05987807,-0.005902599,-0.003406944,-0.082500175,-0.015334858,0.020430634,0.006711552,0.004526922,0.013413196,0.027155066,-0.009945219,-0.009474942,0.05917298,-0.012512704,0.027266502,-0.043644167,-0.049609315,0.025568144,0.01157028,-0.019351209,-0.07144863,-0.015849663,-0.066811495,-0.0064327773,-0.0060062576,-0.06303495,0.0053827106,0.04267488,-0.08181773,-0.029122235,-0.064662,0.039133597,0.032510117,0.009572867,-0.006553637,-0.0019522149,-0.03857404,0.034480095,-0.09411576,-0.013524326
13,-0.0031194326,-0.090288684,0.01675452,0.035624962,-0.05928492,-0.045918725,0.064687416,-0.048000585,-0.002607348,0.020893617,0.006005894,0.020726793,-0.008764732,0.012995506,-0.049460873,-0.0085299285,-0.032556064,-0.014251434,0.05825168,0.010948287,-0.037150394,0.008998655,-0.0415677,-0.016416026,-0.06555623,0.08074801,-0.07121071,-0.098105736,0.00076670473,-0.05660357,-0.064341046,0.018788546,0.11941416,0.12717931,-0.046796545,-0.026735246,0.16932814,0.0027224289,0.06827356,-0.04893667,0.005728465,0.016061014,0.04204779,0.049635448,-0.02175164,0.03352249,0.0005968662,0.025099022,0.021083577,0.034152903,0.008120845,-0.02053206,-0.04973018,-0.060287304,0.03507551,-0.016628264,-0.09646744,-0.009840292,-0.049477134,-0.061021186,-0.054380503,-0.07281092,0.007254508,-0.025417948,-0.08957938,-0.050967656,0.05232231,-0.016536962,-0.10162052,0.054644015,-0.03506757,0.015127191,0.022569507,-0.028036729,0.031529117,-0.0099247685,0.043129638,0.061717562,0.0065603037,0.027856404,-0.04963963,0.08423375,0.021530753,-0.020142002,0.063812405,0.050891,0.0016954107,-0.11677373,-0.01628243,-0.025932338,-0.02314162,-0.0065187244,-0.026599985,-0.011372916,-0.052082665,-0.05114672,-0.062979974,0.08109215,0.0641869,0.025140721,0.010212128,0.056856547,-0.086772256,-0.07264722,0.044263016,0.042783223,-0.03459319,0.01277213,-0.031985242,-0.030245624,0.03692659,-0.035968386,-0.055066913,0.05278361,0.023285273,0.020173065,-0.004191707,0.024437692,0.011730831,-0.04096408,-0.06115065,-0.027450088,-0.06521643,-0.008259535,-0.084576376,0.004903671,0.0027753725,0.012975215,0.05713165,0.159506,-0.042142827,-0.0636654,0.0547222,0.0606435,-0.08403403,-0.038860332,0.06242105,-0.11839434,-0.065969676,-0.047136176,-0.13995114,-0.13712582,-0.07274103,0.012653556,0.07514354,-0.0580493,-0.045399193,0.036123488,0.025305206,0.0040771477,0.03382034,0.046844352,0.01329811,0.012743565,0.030759512,0.010810634,-0.08892519,-0.027088167,-0.047884885,0.029815422,-0.0038645472,0.025904441,-0.04436702,-0.029110035,-0.040786706,-0.05289412,-0.0632348,-0.05809859,0.013920061,-0.052529104,-0.033692274,0.038324162,0.011042537,-0.029653842,-0.06949241,0.03018696,0.029500168,-0.024163354,0.0096605,-0.009564953,-0.015541385,-0.003215072,0.031708874,-0.0641863,-0.07190625,-0.017674217,-0.048267614,-0.09018282,-0.061219748,-0.017949695,-0.09091282,-0.1038835,0.14808209,-0.042267475,0.06449306,0.02900063,-0.0018139079,-0.07924385,0.064385414,-0.0043986617,-0.100781985,0.023575205,0.05422268,-0.039272934,-0.05470666,-0.0018851898,-0.06749154,-0.10249552,-0.0078399,-0.040544894,-0.024897018,-0.0012723515,0.017230421,-0.04484331,0.029403439,0.064791285,0.018037014,0.036470838,0.025310274,0.0031709315,0.025618415,-0.016701005,0.023246486,0.01671489,-0.07549978,-0.0036654565,0.042479154,-0.064640336,0.05506748,-0.012805772,-0.0116070155,-0.073687404,0.0063826405,-0.0272913,-0.053202193,-0.051454637,0.040447213,0.03276772,0.059838388,-0.058055267,-0.0360288,0.14865756,0.09217686,0.0099979,0.12689443,0.09136938,-0.083107784,0.0009411782,0.1017671,-0.019934747,-0.11202549,0.0020081387,-0.09905349,-0.17118493,-0.02061072,-0.00070536934
14,0.05307566,0.01328264,0.01823501,-0.04293357,0.019629302,-0.016114278,-0.036545046,-0.030620763,0.032500785,-0.012601937,-0.02758488,0.0015646047,0.022010414,0.03191823,-0.0791589,-0.018513463,-0.03547028,0.021723531,-0.011292418,0.047384612,-0.051147792,0.052007098,-0.013584034,0.027150203,-0.0022500767,0.0020438249,-0.022739006,-0.04724594,0.027629813,-0.011932556,0.020271335,-0.044914883,-0.049127255,-0.015079476,-0.022825196,-0.07154638,-0.0714402,-0.015379234,-0.053106572,-0.018162148,-0.0762288,-0.047732633,-0.028966488,-0.03874809,-0.055889197,-0.0637036,-0.008628831,-0.0036324242,-0.04823631,-0.008282434,0.012104248,0.04015245,0.025035813,0.020959534,0.029062694,0.031323697,-0.040624216,-0.014608815,0.02140604,0.04646707,-0.014387806,-0.014069285,-0.05408815,-0.0405712,0.014518667,0.07087632,0.099878035,-0.02538695,0.02790138,0.05600178,0.008633366,-0.024214474,-0.0763402,-0.028052669,0.05070364,0.039128724,-0.05117941,0.03589447,0.010964664,-0.037374597,-0.031144178,-0.039869573,-0.017252339,-0.071686745,0.04191668,-0.03449526,-0.10075499,-0.038023043,0.02397184,0.057124417,0.0092660375,0.03400223,0.072684035,-0.00018927452,-0.046510383,0.03135932,0.048373535,0.026483962,-0.01510674,-0.06303428,0.031022634,-0.04254618,-0.0142170405,0.055319034,-0.0060999924,-0.007554376,-0.06370069,-0.04343342,0.035606656,0.025986753,-0.0051087937,0.0147662945,0.039975155,0.011337612,-0.10383785,-0.08685937,-0.014281804,-0.042279977,-0.039525,-0.06642844,-0.021020869,0.00037291445,-0.056444034,0.018348912,-0.088075005,-0.04040223,-0.07946555,-0.0011013392,-0.04238389,0.023208044,-0.017526018,-0.027918126,0.014678212,0.028695216,-0.06615484,-0.057332523,-0.026564738,0.03169735,-0.02581895,-0.020803422,0.03708685,-0.008711509,-0.022763673,-0.014489859,0.0401781,-0.012182422,0.024554381,-0.019651078,0.016838549,-0.03982889,-0.018182553,-0.08021038,0.004864139,-0.07132467,-0.034789063,-0.07200188,0.0057536904,-0.0024932479,-0.07790779,-0.014769037,-0.027954482,0.021267526,-0.025724974,0.019214908,0.003963442,-0.052845713,-0.081846386,-0.06110941,-0.0773017,-0.0680466,-0.05932874,0.012538008,-0.07917664,-0.056023292,0.028785137,-0.018811153,0.033365194,0.049579818,0.012320523,0.021065453,-0.023019325,-0.06425908,0.045393582,-0.034270223,-0.0039123287,0.022257868,-0.011722092,-0.01518061,-0.0383493,-0.020308403,-0.0044117253,0.042421497,-0.06882205,0.02345969,0.10504869,0.047655664,-0.07834591,0.07001004,0.12382489,-0.041586198,0.013943847,0.055180017,0.04277156,0.0107486,-0.013830344,0.099072196,0.07909324,-0.003986617,0.060856536,0.06498255,-0.02528347,-0.08460912,-0.0056191916,-0.05301803,-0.0019593376,-0.08368643,0.048276924,-0.06327174,-0.06287158,-0.07690733,0.0053094644,0.0010520085,-0.00857914,-0.0608002,0.002404992,0.010930839,-0.08351637,-0.07544708,-0.048041854,0.007828182,-0.019537045,-0.018541634,-0.04476719,0.014507348,-0.030463424,-0.05351704,-9.536868e-05,-0.07542221,-0.0850694,-0.03715502,0.089989424,0.14070326,-0.056448314,0.007962618,-0.015451934,0.10235376,-0.007796657,0.028938156,0.031175338,0.055472203,-0.00081078976,-0.038470726,0.0634166,0.044668168,-0.024507439,0.037421282
15,-0.039722357,-0.0035105718,0.037486155,0.005487141,-0.019013008,-0.042687546,-0.038138084,-0.01518108,-0.01879572,0.007848865,0.0470655,-0.007443627,-0.073524155,0.011778428,-0.06512438,0.005401674,0.0034820517,0.06882917,0.09632749,0.033925727,-0.035152867,-0.054216933,-0.0343567,-0.005080387,-0.0076095345,0.07732966,0.082644135,0.0052935784,-0.062148478,-0.008319821,0.04176841,0.050937742,-0.0141066555,-0.025106357,-0.0124966875,-0.012884997,-0.013005456,-0.0035187276,-0.053483468,0.028509134,0.010862938,0.03467321,-0.036145795,-0.05006804,0.0071998234,-0.028834658,-0.008287999,0.054206353,-0.048494928,0.014049319,0.082460925,0.07330872,0.003164183,-0.050331604,0.025205718,-0.015879443,0.050870903,0.0727465,0.056917667,0.064353496,-0.033523835,0.02686192,0.004528344,0.06983578,-0.09638935,-0.008737309,-0.037904043,-0.042403087,-0.111448325,-0.08368976,-0.06424571,-0.084837936,-0.0047438354,-0.05120002,-0.04443181,-0.050839793,-0.016674263,-0.041676477,-0.053860374,0.0148823,-0.023222476,-0.0303071,0.024441281,-0.047852736,-0.068654485,-0.041913744,0.008158751,0.056265928,0.036526095,-0.03861677,-0.06997893,-0.070407294,-0.05901287,-0.0663127,0.014961952,0.036000412,-0.0018135709,-0.041799758,-0.06466644,-0.019701293,-0.08616755,0.019483242,-0.061787937,-0.003203135,0.053701054,-0.0035979778,-0.031815868,0.0050078337,-0.041831523,0.030908803,0.08224923,0.020173822,0.00695597,0.006540453,-0.009463929,-0.034639247,-0.016381346,0.0020751588,-0.015755562,-0.012841046,0.08446701,0.009220776,-0.04985793,0.0037913274,-0.039136566,-0.012538956,-0.026950993,0.05720316,0.07625136,0.027373502,-0.031306546,-0.048204616,0.026176533,0.103267424,-0.044228777,-0.056791577,0.008614987,0.08109378,0.050672732,-0.005105434,-0.031214561,-0.024666376,-0.028346218,-0.03731184,0.026083637,0.03406597,0.06174856,-0.009920598,-0.0178475,-0.056731507,0.020793052,-0.0545282,-0.01753651,-0.01555137,-0.015480211,-0.0048326035,0.021197014,0.057847433,0.018180272,-0.06750959,0.036871817,-0.050704435,0.0073754136,0.068578914,-0.050619848,-0.021752274,-0.042621493,0.045821834,-0.014369529,0.029700294,0.03209793,0.02256511,-0.051466946,-0.034590114,0.05651349,0.029575212,0.030388854,-0.02830889,0.032148447,0.11053346,0.061318263,0.0770222,-0.024746614,0.05820269,0.048689034,0.076843224,0.014969841,0.10665184,0.055363685,0.07787318,0.02535621,0.051984657,0.007804473,-0.00155171,-0.0051358566,0.02318208,0.074988574,-0.060940467,0.067872204,-0.01828192,0.10311051,-0.040461134,0.05206479,0.0020143008,0.06282168,-0.036425564,0.0358826,-0.060387485,0.02698534,0.034188844,0.040081974,-0.040518254,-0.02240434,-0.06858468,-0.07626058,0.03272407,0.011804804,-0.026315784,-0.04653301,-0.041803643,0.038886786,-0.0068941624,0.0625442,-0.033026543,-0.08005945,0.02352818,-0.071787104,-0.037959922,-0.061219174,0.05786131,0.005180437,0.013076857,-0.021286948,-0.052050494,0.009021803,-0.046800673,0.01908241,0.01632877,0.041764215,-0.026471648,-0.022759909,-0.03256859,0.00010714995,0.051339567,0.01271424,-0.0014921388,-0.024795847,0.012915345,-0.064923994,-0.038092617,0.019535985,0.014889853,-0.014397947,-0.06792683,-0.014597464,-0.015778832
16,-0.012956987,-0.08249383,-0.111097455,-0.0115620475,-0.04851328,-0.120680906,-0.093792096,0.0025297701,-0.027738484,-0.037866868,-0.09386325,-0.0046822876,0.0615518,-0.012513502,-0.037887745,-0.048478805,-0.10549801,-0.072316945,-0.103997596,-0.10725437,-0.07812523,-0.00817834,-0.10933652,-0.09025154,0.0079865875,-0.10101285,-0.01954505,-0.013527773,-0.045977816,-0.09710711,-0.050411824,-0.08870499,0.069550835,0.013689781,-0.05769021,-0.118655,0.10129861,0.05720238,-0.10631685,-0.105415195,0.031536426,-0.049211808,-0.13467222,-0.16379113,0.016031204,-0.060301077,-0.10399075,-0.075685054,-0.09133385,-0.08850582,-0.08147035,-0.0842038,0.016641326,-0.034806162,-0.07061382,-0.052749146,-0.068996914,-0.008847153,-0.117806524,-0.08860884,0.0777057,0.031720027,-0.070778,-0.08928623,-0.09813541,-0.06633704,-0.07776195,0.027493658,-0.082416505,-0.047027767,-0.010952857,0.03059626,-0.010416755,-0.014541797,-0.053990442,0.0017795919,0.0079000015,0.021559456,-0.029369794,0.046015315,-0.039753,0.015670702,0.04454629,0.02509289,0.015624381,-0.024739662,-0.016464883,-0.026716648,0.028578673,0.02564747,0.030785585,0.0226879,0.01928529,0.029055785,-0.01745982,-0.03265441,-0.06765548,-0.05245946,0.021202238,0.013940789,-0.039534554,-0.10697705,-0.090744436,0.01192834,-0.039880432,-0.08274996,0.019343477,-0.06905367,-0.053594112,-0.055972222,-0.08658498,-0.036907457,0.097492464,0.05395239,0.00760795,-0.06741667,0.025585648,0.038722582,-0.039489716,0.021081494,0.07535254,0.09512375,-0.075206175,-0.1092187,0.023481058,0.041910753,0.00924642,-0.026627725,0.12206233,-0.0060943966,0.03433291,-0.11351164,0.18693374,0.05937476,0.024475517,-0.12369768,0.07631162,0.062822096,-0.042972416,-0.013790586,0.1400472,0.11857781,0.05262277,-0.031052,-0.059961643,-0.01106677,-0.025558738,-0.07543336,-0.042606663,-0.07198909,-0.07792303,-0.060106255,-0.035219602,-0.042692892,-0.046029434,-0.02748413,0.020629654,-0.086065486,-0.06846977,-0.044555258,0.044852536,0.04946375,-0.055880718,-0.0130432695,0.062376734,-0.015824197,-0.08803653,-0.09469539,0.04713476,0.033582732,-0.097588606,-0.097929694,0.043383233,-0.0019049866,-0.02283383,-0.1339779,-0.022481717,-0.028784622,-0.06311733,-0.06490176,-0.06252554,0.047174755,0.006531135,0.0015081755,-0.028681668,-0.030376704,-0.023259576,-0.07620467,0.05662386,-0.0108284205,-0.07223795,0.06751388,0.1531542,0.0026733074,-0.093674414,-0.100612745,0.18634185,0.0121325515,-0.077304855,-0.19764885,0.12543812,-0.029501688,-0.1369768,-0.15188923,0.20114006,0.060180634,-0.06304365,-0.14086659,0.12517627,0.030083446,-0.018787257,-0.03577656,0.08573546,0.032653514,-0.11679781,-0.08807222,0.043904193,0.017440397,-0.036634494,-0.14225186,0.09584528,-0.07320823,-0.080366336,-0.040909838,0.044661306,0.008700855,-0.042927556,-0.030990109,0.059539735,-0.06644177,-0.08200835,-0.023750974,-0.06420706,0.020643204,-0.08122207,0.0029725553,-0.016474007,-0.038361676,-0.047006544,-0.12131924,0.050404925,0.072345324,0.103265,-0.043035857,0.056591973,0.03237986,0.06039638,-0.07728975,0.17780684,0.11421868,-0.052574955,-0.07641608,0.17096828,0.044180278,0.01353181,0.0092665795
17,0.068979695,0.06817826,-0.050419077,-0.12372814,0.044281814,-0.04688955,0.011785712,0.018369393,-0.018337192,0.008383395,-0.050092362,-0.03763382,-0.030878121,-0.043468073,0.034806192,-0.029111877,0.052686863,0.027001368,-0.07571987,-0.06551078,0.044714507,0.02658882,-0.08708686,-0.082737304,-0.010756519,-0.018042319,-0.0021571633,-0.036717493,-0.046569966,-0.06545448,-3.3251614e-05,-0.03860855,0.011689351,0.10675008,0.15126,-0.027965913,0.15477253,0.1875641,0.067982614,-0.045292396,0.15551147,0.09714757,-0.004134451,-0.048741814,0.03515014,-0.04637724,-0.047072705,-0.16556665,-0.050421167,0.016951805,-0.03760884,-0.1286621,0.025979163,0.028012162,-0.1258646,-0.099368975,0.030161014,-0.064663514,-0.0016108587,-0.10448766,-0.044075903,-0.0642475,-0.042983785,-0.07306336,0.01853902,-0.012930763,-0.011945463,-0.09652392,-0.07689506,-0.04924377,-0.020127382,0.07349561,-0.013105831,-0.037343953,0.067045,0.0028933953,-0.067838065,-0.010198905,-0.015142873,0.011090054,0.018194819,-0.023100343,-0.04274514,0.018847454,-0.055619065,0.039577797,-0.016347053,0.06782528,0.00785285,0.013702986,0.084012195,-0.056996174,-0.0096955085,0.0028754966,-0.10828493,-0.1483879,0.025314944,-0.014766231,-0.038828023,0.052988496,-0.062013127,-0.01869247,0.025316378,0.06778113,-0.019159175,-0.013105827,0.031229435,0.017827908,-0.07062207,-0.022838112,-0.036651198,-0.048464492,0.003364717,-0.08607353,0.031521983,0.0038970623,-0.026973603,0.009580261,-0.06234648,0.010475354,-0.0047661136,0.03153908,-0.005408134,-0.114049464,0.04869024,0.025658783,-0.0062090354,-0.038364347,-0.02566427,-0.054613024,0.07991895,0.09368474,-0.021859769,0.059707083,0.038784415,-0.030152218,0.037245333,0.049165625,-0.052319344,-0.0832966,-0.010757529,-0.00025294418,-0.1377932,-0.047829825,0.10151918,-0.016785324,-0.012310753,-0.057024155,0.031115403,0.04638818,-0.03725762,-0.10289368,0.076635145,0.046796273,-0.06789738,-0.082597695,0.035745688,0.0056917826,-0.088860095,-0.01785999,0.003142286,0.057520036,0.045459732,0.026737146,0.059621602,0.056077406,-0.047300365,-0.047529228,0.061961975,-0.028001372,-0.12784265,-0.10620017,-0.09471966,-0.11214584,-0.076898165,-0.065348655,-0.042256303,-0.022002267,-0.018003333,-0.09610673,-0.08106829,-0.02238154,-0.014659544,-0.074503295,-0.054006875,-0.09879274,-0.08018288,-0.091062725,-0.12561788,-0.06049614,-0.12711132,-0.028512295,-0.014824562,-0.0065550534,-0.006462205,-0.11342464,-0.0110193165,-0.11986589,-0.20699851,-0.066102974,-0.114048995,-0.19556062,-0.14299682,-0.065786175,-0.1768276,-0.18219022,-0.10132611,-0.041958243,0.00038998653,0.06388555,0.045610525,0.032221902,0.0801965,0.11582407,0.0424795,-0.048447974,0.12713474,0.009160485,-0.033221655,-0.047866862,0.050952967,0.070192255,-0.010229693,-0.060495682,-0.017898483,-0.025538158,-0.038593445,0.024206568,-0.05056444,0.039698444,0.082161516,0.001443061,0.084830485,0.0007460729,0.04269038,-0.0019164139,0.102626756,0.0481101,-0.077325255,-0.042644728,0.028615473,-0.099863224,0.025994465,0.17581104,-0.04494534,0.040895306,0.15200087,0.15511598,-0.054959152,0.013183347,0.0743119,0.033499446,0.061737478,-0.015010401,-0.03936733,-0.10374749
18,0.093089245,0.09865216,0.004375733,0.015791483,-0.044958133,0.0028918658,0.03320894,0.037394058,-0.050720837,-0.055757295,-0.037423167,-0.07524378,-0.02421841,-0.08772076,-0.034408227,-0.09986393,-0.01281668,0.048125215,0.09025296,0.03336953,-0.044308618,0.063958585,0.05000334,0.067438945,0.029566286,0.08919165,-0.0032327152,0.0017956886,0.009900641,-0.004240794,0.004419801,0.008585958,-0.015737277,-0.07163925,-0.01745484,-0.038058024,0.061318435,0.017953012,0.005935315,-0.055971846,0.053700473,0.07545039,0.0676927,0.07247792,0.07209596,-0.018345768,-0.008984586,0.030318981,0.10107243,0.09799392,0.03493727,0.04127474,-0.0026669526,-0.02537822,0.06461243,0.06298893,0.056117035,0.049411025,0.12604636,0.10218893,0.012487987,0.037000913,-0.0063926238,-0.034745604,0.0128515735,-0.046250444,-0.01950274,-0.009512413,-0.080662355,-0.08159657,-0.09507751,-0.06770968,-0.05935523,-0.09383952,0.0010646774,-0.027096797,-0.015998727,-0.029177597,-0.03880486,-0.017919192,-0.054885108,-0.026458215,-0.008167518,0.06856341,0.04978285,0.045277365,0.048654027,0.04494236,-0.013819323,-0.054150157,-0.10213302,-0.00478454,0.035507306,0.010162795,-0.054363146,-0.0091938805,-0.025190432,0.02574227,0.04699279,0.02720083,-0.019639233,0.064612314,0.042522267,0.06017805,0.02548973,0.028031727,-0.021699997,0.06556887,0.09326235,0.013557851,0.085183814,0.005460572,-0.041557964,0.013802011,0.005682115,0.04363201,0.07891496,0.046315946,0.04357932,0.05726369,0.046336856,-0.025037907,0.00089362834,0.048097286,-0.056383517,0.012912688,-0.06280011,-0.034276336,-0.0097998595,0.0126375975,-0.045157813,0.008985424,0.080018625,-0.054720376,-0.020798897,0.053200405,0.016759204,-0.063994125,0.02814141,-0.05393828,0.06301426,-0.10131549,-0.07440229,-0.03530737,-0.026203694,0.028994868,0.057694554,0.0066119134,-0.039191417,-0.057092644,-0.07378749,-0.06163458,-0.0014650882,-0.031481847,0.03543469,-0.0034976837,-0.089973815,-0.035670813,-0.048340626,-0.061339535,-0.083592154,0.0059998822,-0.011790418,-0.09985048,-0.016268488,-0.035859276,-0.07965072,-0.044739503,0.0024973836,-0.016169956,0.009674325,0.040333185,-0.048880722,0.033042867,-0.045638584,-0.02436922,0.06274795,0.04278256,0.109351695,0.09710667,0.017088387,0.0071563325,0.03958921,0.07736507,0.12743334,0.035769496,0.06484626,-0.0018482379,0.05003446,0.049674556,0.059407692,0.0025223158,-0.025438933,-0.08171774,0.1487273,-0.008356457,-0.030410571,0.00040160283,-0.06555464,0.020486664,-0.032562464,-0.043903984,-0.020773625,-0.014508298,0.05048068,-0.0061851377,-0.035663866,-0.089411095,-0.01772006,-0.09970912,-0.046545893,-0.00016760525,0.0078053903,-0.036390137,-0.0767155,-0.08874729,0.03451253,0.010195115,0.009007478,-0.049200993,-0.06781843,-0.086317435,-0.04264843,-0.09762419,-0.026692912,-0.0687933,-0.02524214,-0.012128103,-0.0007810479,0.057826452,0.033973403,0.067107946,-0.05944069,0.000731434,-0.028128805,-0.04861727,0.044081885,0.08174952,0.024540734,0.012242824,-0.041155882,0.019182693,-0.10274952,0.041813217,-0.048094817,-0.06479048,0.008571669,-0.06311826,0.033433087,-0.064978644,-0.011799672,-0.028848004,0.05669802,0.060549553,-0.005690309,0.024938485
19,-0.07855095,-0.15606153,-0.13441248,-0.024142934,-0.13782772,-0.041865803,-0.10253427,-0.09331179,-0.024986148,-0.1425722,-0.06799519,-0.04437972,-0.07929533,-0.05901913,-0.10038681,-0.03406177,-0.07974825,-0.016651172,0.050993025,0.023004694,-0.0074891127,0.0043315757,-0.035349846,0.054685228,-0.036380585,-0.042358126,-0.090669625,-0.012910889,-0.007471633,0.011838103,-0.053860873,0.05617037,-0.021748127,0.043607343,0.059487555,0.10061917,0.0072206906,-0.002568149,-0.045563076,0.061107628,0.03482798,-0.018873116,0.028008837,0.002578019,0.04607459,-0.03217188,0.036638815,-0.037132274,-0.079412505,-0.0833893,-0.064041026,-0.025355505,-0.048205696,-0.022700384,-0.080536745,0.039304566,0.021705752,-0.027503692,-0.013094405,-0.0845369,0.04467364,-0.06790602,-0.05369193,0.058669616,-0.06986968,-0.018322848,0.0048793624,-0.0499257,-0.033819027,-0.072894,-0.011698894,0.042589046,-0.0595287,-0.052100744,-0.05112336,0.08608592,-0.033513222,0.042532224,0.04423739,0.009109293,0.051766608,0.015106619,-0.0065830904,0.056925602,-0.04489233,-0.021846676,-0.0023698048,-0.034413807,-0.03396813,0.048385873,-0.040946852,0.0418092,-0.010118253,0.0026754867,0.007801102,0.0074396115,-0.10126958,-0.048394546,-0.03515995,-0.102664895,-0.05411861,-0.08308225,-0.06444307,-0.04357583,-0.13401453,-0.11614263,-0.054907866,0.02588212,-0.07836091,-0.1241287,-0.07223864,-0.04017239,0.014361929,0.06161162,-0.0027578126,-0.048403423,0.025267757,0.021550713,-0.024157804,-0.027217232,-0.03882653,0.0071499106,0.0013095073,0.059720214,0.08202265,0.052441686,0.012543078,0.04786312,-0.028133629,0.09996929,-0.029593265,0.042745557,0.0035939112,0.13836408,-0.036442854,0.021397537,0.048222672,0.08818051,-0.04890161,-0.009043103,0.030986924,0.01746731,-0.019689443,0.041642714,0.023573583,-0.061562564,0.011994524,-0.009395815,0.03793455,0.038244866,0.0103243375,-0.04846197,-0.01562034,-0.03943383,-0.06618282,-0.023789974,0.033189446,0.019827604,-0.024707943,-0.08082477,-0.038510356,0.06588797,0.054958303,-0.010091016,-0.040459383,0.010218433,-0.042686515,0.029161775,-0.022401525,-0.007199916,0.0059074545,-0.03984187,0.028177839,-0.03023244,-0.013435742,-0.057172447,-0.02990412,0.08046591,0.08194266,-0.029371738,0.04701739,0.022793725,0.004598062,0.029970523,0.08635492,-0.01539727,0.11382546,0.070015855,0.07122225,0.06944722,0.10799944,0.07117226,0.022213845,0.065114364,0.10267123,0.037221033,0.042779822,-0.10643214,0.0285017,-0.040624283,0.072772115,-0.10317904,0.13879763,-0.0146105215,-0.048651073,-0.042219155,0.024006592,-0.0014019489,0.05753328,-0.06409571,-0.013172169,0.054686412,0.06298678,0.018138215,0.006178329,0.026743604,-0.0104804775,-0.042993575,0.0005709958,-0.021945698,-0.036622606,-0.028987195,-0.013967863,-0.12623191,0.06306676,0.035705503,-0.04141556,0.095066585,0.007134397,-0.0029501305,-0.003723571,0.04186967,-0.10258439,-0.026125338,-0.035786126,0.046796683,-0.03376959,-0.026766887,-0.07038374,-0.055027883,-0.07025931,0.084308445,0.05921266,0.05480681,-0.06057209,0.15418456,-0.10155855,0.0053538373,-0.0010631385,0.1554945,-0.0983685,0.09761797,0.040698152,0.087519445,0.088270456,0.06103551
20,0.04704677,-0.00053450133,-0.041943125,-0.016083615,-0.04041751,0.060211405,-0.0064934166,-0.047024194,-0.034624655,-0.029033724,-0.030558465,0.039657194,0.041286107,0.052026678,-0.0077387774,0.018976353,-0.04145109,0.05931942,0.017294902,0.034252465,-0.020918472,0.0013103554,-0.05960109,0.02679205,0.031400662,-0.035872202,-0.015116834,-0.011987944,-0.023579122,-0.06317888,0.030442074,-0.03906312,0.035902184,-0.028963579,0.0023712148,-0.047156997,-0.06832345,0.025512088,-0.0030188276,0.047845185,0.047501277,0.012683244,0.036270455,-0.054003973,-4.3511507e-05,-0.030937355,-0.004288828,0.0330066,-0.055099946,0.007295641,-0.0129353935,-0.032997075,0.041329548,-0.0467492,0.019822353,-0.035788443,-0.021131888,0.0053297714,-0.02318085,-0.045509417,-0.07601944,-0.045167815,-0.0754709,-0.03847423,0.008807877,0.0047759586,0.063820556,0.062407307,0.086078435,0.101052806,0.0502503,0.045209825,0.09776198,0.063004375,0.09226945,-0.0028792587,0.076638006,0.05141258,0.019993853,0.0663254,-0.011832572,0.04189375,-0.057222087,0.025369152,0.015308388,0.015847113,-0.024795834,-0.03819885,-0.05427927,0.046285946,-0.0021199202,-0.015421419,0.00586274,-0.032248702,-0.03550324,-0.05006965,0.059017137,0.05379941,0.03385743,0.031566136,0.012916922,0.010956928,-0.0009890829,-0.019693896,-0.05219286,-0.03162492,0.06450148,0.025485205,0.056421235,-0.02750538,-0.011352332,-0.008076541,0.003094547,-0.0010983968,0.004206357,-0.03442994,0.008683038,-0.01025971,0.018028291,0.0069313175,0.013452827,-0.05866798,-0.015634859,-0.009959132,-0.024228545,-0.04937855,-0.05122228,-0.061322317,-0.05693445,0.030990535,-0.066020004,-0.038408093,-0.009164293,-0.006702617,-0.04077486,-0.007862403,-0.07702975,-0.0781463,-0.018684737,-0.07543668,0.010167386,0.017979762,-0.029997997,-0.058337644,-0.036146313,-0.056657095,-0.067685455,-0.026553381,0.025851196,-0.008987905,0.044064574,-0.036953084,-0.044662032,-0.058456637,-0.0709382,-0.042816903,-0.0022575855,-0.03591814,0.010903996,0.042073227,-0.0279128,-0.023741797,0.054389127,0.0024881063,0.025643317,0.0024317857,-0.06826573,0.03610296,-0.06308086,-0.01006359,-0.050631758,-0.05896658,-0.039906904,0.01613458,-0.019444846,-0.062158644,-0.050485056,-0.038680628,-0.052022625,-0.007172597,0.016908549,-0.0557741,-0.055937823,-0.020141762,0.018573508,-0.030982222,0.038861807,0.0032816234,0.03590584,-0.02514081,0.045924887,-0.025585992,0.004265465,-0.035315447,-0.016415197,-0.046604287,0.018827416,0.014657487,-0.05697259,0.017476562,-0.0019850484,0.0035168503,-0.010343138,-0.08239799,-0.0059001828,-0.0028440803,0.0015137733,-0.06899997,-0.030347172,0.013434852,-0.05363457,-0.018929038,0.016861446,0.050141092,-0.04872288,-0.06561596,-0.054189537,0.025073942,-0.029342502,-0.068680875,0.025273608,-0.06541078,0.005588645,0.029451221,0.05054843,-0.021359129,0.011661685,-0.0643709,-0.037749194,-0.07759385,-0.06437891,0.00030584264,-0.04987273,0.02502802,-0.06222456,0.033183776,0.0363851,0.003003999,0.04948353,0.03898741,-0.051111322,0.04433642,-0.013574408,-0.01884331,0.0014623953,-0.0053873663,-0.016055968,0.039124772,-0.027576888,-0.026831372,-0.025143035,0.0070663597,0.0044478183,-0.07392188,-0.035615258,0.041077536
21,-0.03991011,0.033704564,0.00051726913,-0.008226583,0.044914838,-0.005069289,-0.013391658,0.0242451,-0.062737055,-0.003671972,-0.038431615,-0.08383476,0.005881755,-0.012569754,-0.09028843,-0.08838219,-0.045151982,0.021329844,0.0016800588,-0.04250234,0.056508698,0.021624008,0.021752302,-0.05552518,0.066368505,0.0069366065,-0.018648744,-0.013743045,-0.046994742,-0.08125424,-0.035060328,-0.0030265623,-0.014448302,0.046074934,-0.01067074,0.040950283,0.06324502,0.026218092,0.03435525,0.07567553,0.056292016,0.024280354,-0.009967413,0.0077688904,0.03079261,-0.08346396,-0.03187037,-0.020680545,-0.030205546,0.016576553,0.009628434,-0.047202855,0.05030007,0.06275168,0.05926675,0.0014785336,-0.041438736,0.0080817845,-0.06424958,-0.003499361,-0.03158961,-0.10789538,-0.021737834,-0.07274289,-0.012772273,0.010954445,-0.06816162,-0.083155535,-0.017790377,-0.051124077,-0.0023779182,-0.025963776,-0.030427963,0.06306849,0.089836,0.01894906,0.023070153,-0.0070343884,0.034421332,0.087996624,0.011976622,0.002446083,-0.015230251,0.049904205,0.042714473,-0.029629562,-0.030137638,0.07039285,0.012987092,0.0031278916,0.027323788,0.034227017,0.034213934,-0.059009816,-0.074542016,-0.023778798,-0.023491045,0.013652219,-0.05228121,-0.044397507,-0.032968186,0.066538036,0.06808896,-0.009725586,0.01459851,0.08557885,0.09415108,0.08414101,0.07702572,-0.060172237,-0.059226286,0.03137602,0.08761026,0.009512248,0.06791153,0.07073512,0.012742032,0.039315343,0.061099026,0.04846115,0.081298895,0.041057277,-0.05943635,-0.04061394,0.0028825286,-0.01725411,-0.070726074,-0.002536927,0.07004664,-0.009359529,0.07276788,0.034246486,0.07750408,0.019385183,0.005380235,-0.04753221,0.11079799,-0.07804742,0.009244894,-0.04150704,-0.044783868,-0.10240385,-0.062896274,-0.10054996,0.04577683,0.003346303,0.052159,0.029158428,-0.023169829,0.07197753,0.061023824,0.05229525,0.024680475,-0.04195037,-0.032573633,0.0067429543,0.029101955,-0.03867172,-0.017289717,-0.027304795,0.07248296,0.020601355,0.02643105,-0.019430147,0.040675376,0.0017836334,0.06288154,0.0052165342,-0.042263713,-0.07472969,-0.0491023,0.015832048,-0.011018002,-0.040615145,-0.05418755,-0.033665143,-0.004228533,-0.055607423,-0.018160524,0.015272705,-0.011289966,0.030702868,0.05689067,0.053494964,-0.050241757,-0.021560742,0.016942456,0.036905807,6.322718e-05,0.039645515,-0.038745232,-0.024131235,-0.037946295,-0.08811826,-0.084813446,-0.06620013,-0.06814391,-0.06765333,-0.087894194,-0.07726093,-0.060913306,-0.062433697,-0.077532426,-0.028166775,-0.066760376,-0.10559406,-0.1189033,-0.06017999,0.008319891,0.082862094,-0.013664531,0.023025269,0.008114511,0.02405688,0.06507867,-0.008337665,0.033298872,0.061894897,0.017702635,0.019127103,0.05421508,-0.017125819,0.0061142133,-0.049235344,0.059010927,-0.03543312,0.01722326,-0.035376884,0.037735358,0.005117492,0.011532011,0.08068387,0.023157082,0.049577616,0.069416724,0.079462744,0.010201499,0.060504418,-0.015752403,-0.03190089,-0.015213459,-0.06648286,-0.05898244,-0.06790107,0.0026914775,-0.0027940026,-0.08100661,-0.029638175,0.09423821,-0.009172075,-0.088070184,-0.030651134,0.058408476,-0.0075437883,-0.07736337,-0.016767645
22,-0.01410656,0.03675323,0.07804474,0.0024145069,0.030800873,0.019798748,-0.068724856,-0.11646291,0.029720396,-0.019266346,-0.07623997,-0.09350202,-0.023013059,0.078592665,0.057236288,-0.029959526,-0.02099283,0.05744705,0.011131475,-0.014835891,-0.07022449,-0.07616206,-0.08283339,-0.07244991,0.023648037,0.00035466003,0.01083069,-0.06896663,-0.06394891,0.02642365,0.016275559,-0.04221858,-0.07767941,-0.053194735,0.03452513,0.058377605,0.023912027,0.05978003,0.060178865,-0.035459246,-0.011398911,0.05572468,0.098184355,0.01750471,0.042004373,0.089780055,-0.027611684,-0.044288155,-0.084501036,-0.05369774,-0.022656849,0.019060774,0.0005094406,-0.02962018,-0.0769476,-0.033568773,0.006163923,-0.08450307,-0.08324731,-0.0014415869,-0.031810984,0.03702483,0.042537414,0.019181177,0.0048763976,-0.0011545573,0.0049082357,0.041344397,0.007412672,-0.07413996,-0.07510797,-0.08444354,-0.025555536,-0.016852155,-0.043115456,-0.10636943,0.022411304,-0.051133122,-0.063231684,-0.11019636,-0.025929734,-0.04419007,0.0076691904,0.012661584,-0.08709182,-0.06510091,-0.08660152,-0.08673929,-0.10934753,-0.027322883,-0.07330102,-0.037837412,-0.08594155,-0.07727009,0.01649662,0.023966305,-0.022306738,-0.025288165,0.009824899,-0.029196102,-0.017964954,-0.07927623,0.017788423,0.023109209,-0.06002964,0.03599124,-0.019096095,-0.017604457,0.015278239,-0.038740497,-0.061271805,0.057481114,-0.11084052,-0.053326104,-0.13194516,-0.041384283,-0.05626358,-0.031387705,-0.12445324,-0.022082632,-0.0074606575,-0.08940755,0.004579971,0.0005576918,0.009004844,0.00849892,-0.024595045,0.020054292,-0.093567945,-0.080034114,-0.12434217,-0.041400526,-0.027771551,-0.07545103,0.010849921,0.007981365,-0.083995506,-0.025318613,-0.053728104,0.08030673,0.012455917,0.015552644,0.031751886,-0.009972317,-0.062228967,-0.048272625,-0.06902963,-0.0038198698,-0.0034572568,-0.07178088,0.014657013,-0.021060646,0.003467099,-0.013031048,-0.06109888,0.046031862,-0.04102153,-0.005729353,0.0050498736,0.053715054,0.044578616,0.08191531,0.074084595,0.11773043,0.0867762,0.12860619,0.14766058,0.12865534,0.040043734,0.06686829,-0.005161231,0.09018169,-0.021839663,-0.006171804,-0.03946683,0.029005043,0.06069525,0.033958774,-0.06881973,-0.03100902,-0.004747293,-0.039099153,0.013400661,-0.017563168,0.055108085,0.04737725,-0.058298793,0.04939388,0.007979912,0.048396844,-0.04089586,-0.0143333655,-0.020172497,-0.00024169155,-0.03693205,0.009174612,-0.05968349,0.032038383,0.002753683,0.0041955668,0.0130361635,-0.007135362,-0.05689444,-0.0045166304,-0.046197247,0.003432063,0.004968189,-0.0063818637,-0.03655838,-0.06744015,0.0012143196,-0.019090893,0.0048739854,-0.10758174,-0.0024299945,0.0114324745,-0.025465697,-0.037658833,0.016701005,-0.05949816,-0.041891184,-0.050340697,0.027054332,-0.040394593,-0.02292709,-0.010678222,-0.08348993,-0.011500397,-0.06573025,-0.031905863,-0.05073201,-0.044013903,-0.030247869,-0.0037604892,0.058760982,-0.029756933,0.031895064,0.04013896,0.063683964,0.020906575,0.053779285,0.025787128,0.023222065,0.03175188,0.07980353,0.06365239,0.028539035,0.09541797,0.008782647,0.059136886,0.048996203,0.07113612,0.037863746,-0.019970072,0.011570375,0.0049937624
23,-0.016561767,-0.024766311,0.005797446,0.04453982,-0.01325325,-0.029704627,0.0027361773,0.012876425,-0.08699303,-0.054355122,0.015841536,0.035091314,-0.050642617,-0.107562594,-0.07244141,-0.0016945886,-0.04366897,-0.002376259,0.05788085,-0.0056546107,0.027740244,0.045114275,0.03969317,-0.007528122,0.014459764,-0.003658054,-0.009847469,-0.023978708,0.025337927,-0.039794177,0.03295251,0.027121402,0.106559455,0.07615478,0.042938385,0.06221895,-0.042289015,-0.020719115,0.13433023,0.07748607,-0.0026480886,0.12803799,0.099971674,-0.048743278,0.044073857,0.082451634,0.021779135,0.048649974,0.040225454,-0.08801193,0.026363848,0.0030516982,-0.08421759,-0.023148792,0.0137613425,-0.03423884,-0.07106307,0.016289467,0.010335894,0.055162277,-0.011156188,-0.07008295,-0.023552833,-0.047786072,-0.045556363,0.037885647,0.08813307,0.020374557,0.06307075,0.08363041,0.017285235,0.036343053,0.06624357,-0.023674628,-0.07588349,-0.023183294,-0.045909777,-0.045509204,0.016778728,-0.08965845,-0.041205674,0.052205075,-0.07245531,-0.04669051,0.05174393,0.019976614,-0.032355253,0.027760092,0.075575344,-0.0875353,0.07373857,0.073218465,0.00054816063,0.057888605,0.07325906,-0.026239483,0.011931408,0.08558673,0.053194996,-0.0008917669,0.06467178,0.012706502,-0.0098369,0.030879194,-0.010906948,0.025531,-0.007036081,0.0034404423,-0.04194842,-0.019296022,0.043654375,-0.005292221,-0.07188747,-0.056393813,-0.084974214,-0.039075565,-0.083317205,-0.038569506,-0.028511297,-0.029235702,-0.052904073,-0.08802143,0.039524425,0.017605979,-0.044382118,0.0014906193,-0.09548651,-0.061373062,0.04968106,-0.028265469,-0.10068157,0.039764967,-0.018227404,-0.100363545,-0.021687834,0.009399521,-0.04817361,0.0075897,0.09881313,-0.039972626,-0.00756127,0.06487252,-0.009528719,0.004749534,-0.016069414,0.046322413,-0.03636046,0.042607218,-0.04564679,0.029625958,-0.036656816,-0.040324476,-0.04520935,-0.027913561,-0.06575832,0.035105847,-0.09662431,-0.03640535,-0.02313264,-0.03376313,0.01607784,-0.06378873,-0.046152066,-0.009292774,-0.1424095,-0.09883617,-0.0052031474,0.06043428,-0.120560154,-0.03193043,-0.02701445,-0.052196737,-0.010463121,0.012007514,0.008651699,0.01111369,-0.011975271,-0.013893282,-0.029242443,-0.07341241,0.076303065,0.031383764,-0.093765944,-0.037850026,0.04446897,0.029357698,0.028651202,-0.05253271,0.03225593,0.0029639609,-0.033054,0.022715082,-0.04952477,-0.070767626,0.030107427,-0.03835629,-0.126169,-0.022885252,0.010279291,-0.0934131,-0.022287339,0.078852005,-0.07366206,0.041594446,0.05809997,-0.038357,0.017125344,-0.0031579237,0.013963806,-0.015589682,-0.0015491418,0.048966672,-0.07957276,0.013694931,-0.055659633,-0.02387807,-0.12683508,-0.001593268,-0.06787686,-0.014055049,-0.08708408,-0.031935513,-0.09965318,-0.034409273,0.049542777,0.00059703813,-0.021809677,-0.05542671,-0.003541852,-0.029061638,0.018386718,0.037899025,-0.086478055,0.03452232,-0.010897254,0.04388156,-0.028123138,0.05685246,-0.0006827512,-0.027495073,0.08228979,0.07987901,-0.05304363,-0.054019816,0.1021002,-0.008631035,-0.008996261,0.035282016,-0.015246751,-0.10635678,0.116001144,0.08215107,-0.030219428,0.10942873,0.079331234,0.072306216
24,-0.043719705,-0.019044364,-0.021361178,0.007853688,-0.084501766,-0.053821545,-0.0318637,0.00897435,0.09042626,0.048370104,0.010992771,-0.06601945,-0.09498948,-0.054241188,-0.022391371,-0.04773499,0.08721741,0.05053253,0.025638558,0.06830338,-0.01793362,0.04341335,0.002805464,0.06364131,0.08250392,0.098665826,0.09223828,0.014820396,-0.015447925,-0.040627636,0.037763663,0.07219905,-0.022409264,0.07580043,0.04375183,0.13806397,-0.048909105,-0.0624258,-0.023938812,0.09849304,0.032225363,0.06525556,0.09093284,0.0596426,-0.09024255,-0.05133138,-0.07188006,-0.061679166,0.077908866,-0.030501382,0.0025990414,0.036236025,0.044136792,-0.011102773,0.011139434,0.0115138795,0.16869456,0.116251156,0.08185655,0.092395276,0.006282442,0.03700572,-0.024560055,0.020404588,0.046018437,0.0112829935,-0.007263206,-0.0952305,-0.034436706,-0.028925724,0.034927625,-0.0842141,-0.025041848,-0.04481917,-0.047305122,-0.06645041,0.0049825506,0.05699724,0.044614412,-0.0051161726,0.05303803,0.11477814,0.07115905,0.116288856,0.051566903,0.011209179,0.031299446,0.079105645,-0.09171737,-0.106898986,-0.011912781,-0.08259424,-0.058997203,0.0041148057,0.0017749349,-0.087056905,0.04138854,0.0033061015,0.025495512,0.032882914,0.06453682,0.00038127223,-0.04180966,0.07991771,-0.014990712,-0.051805425,-0.0072915526,-0.038706835,0.06108711,0.041795965,-0.019278238,0.009131404,-0.048549607,0.012212436,0.010495376,-0.049060166,0.011730721,-0.09500544,-0.061456118,-0.03964626,-0.033364464,0.015493598,0.0009932677,0.02174323,0.0112300115,-0.029256716,0.022783889,0.012173253,-0.036203213,-0.023378432,-0.039853524,0.0030727724,-0.09152763,-0.082814455,-0.087977774,-0.06675526,0.0055666883,-0.04787926,-0.031949498,-0.049879108,-0.12049949,-0.08830853,-0.108401224,-0.06647962,-0.060982775,0.011156984,-0.00221543,-0.019660719,0.012303501,-0.03264669,0.037511498,0.060497943,0.014574907,0.06703989,-0.003206652,0.014104764,-0.055788733,0.029381752,-0.0043259556,-0.04120739,0.06841673,0.079239056,0.104065605,0.014694457,0.071413726,-0.024863444,0.04073896,0.09174775,0.111462794,0.1393464,0.13510731,0.084916376,-0.0903602,-0.08397015,-0.010265145,-0.07429182,0.070314996,0.02970327,0.07112693,0.075320154,0.032151654,0.107260846,0.042310107,0.028712314,0.0639434,0.006549858,0.095578216,0.084841415,0.06284397,-0.015950015,0.014232659,0.00075256056,-0.0510276,0.06967079,-0.03488064,0.03696623,-0.14502501,-0.09188217,-0.0476203,-0.034188773,-0.071554914,-0.13114515,-0.12260861,-0.069202304,-0.105587535,-0.122402355,-0.1057002,-0.09416217,-0.0632427,-0.016944269,-0.026342789,0.039476983,-0.039838914,-0.0875046,-0.00676303,0.030525148,0.04405716,0.06066776,0.079849586,0.08824394,0.015489112,-0.02283805,-0.020341165,-0.03079895,0.023331113,-0.02591395,0.052024893,0.054737266,0.06309003,0.07329308,-0.010371562,0.025741711,-0.05494245,0.03929351,-0.0037384138,0.010999219,0.0992207,0.08617457,0.08381515,0.05753437,-0.017674409,0.07962434,0.045930345,0.08886133,-0.05694844,0.019706648,-0.03180503,-0.03810102,-0.10065088,-0.090780325,-0.04953832,-0.049277157,-0.10599407,-0.16916005,-0.094737485,-0.067929216
25,0.00095601904,-0.072032675,-0.009611573,0.008776311,0.064490035,0.0025830884,-0.038269896,-0.04537269,0.10070603,0.0024096568,0.01454066,-0.06607259,0.0320995,0.036087636,0.028057028,-0.049209125,-0.009565714,-0.013882584,-0.01850416,0.076947,0.06890504,-0.026947893,-0.036967628,0.051130753,-0.0010492827,0.008786978,0.028675275,-0.006950032,-0.056864183,-0.018787554,0.07754214,0.043504924,-0.029493121,-0.07188102,0.021093527,-0.042069465,0.0067702457,-0.03261254,-0.042601377,-0.07741192,0.02714172,-0.03917472,-0.008616887,-0.055293895,0.039661948,-0.025305726,-0.041049138,-0.05394978,0.040376015,-0.045149174,-0.007356241,0.048966948,0.0076018423,0.07382104,0.001034602,0.005387818,-0.039853822,0.0706294,-0.014038205,0.0076263133,0.0052878475,0.035456188,0.046142396,0.052056547,0.039313074,-0.045161713,-0.015382735,0.050623894,0.011664301,0.0074304156,0.03559214,-0.020157173,-0.08269638,0.015737548,0.0023755438,-0.021829978,-0.008801037,-0.076083094,-0.03599895,-0.036422644,-0.014313351,-0.029825175,-0.014062721,0.019397322,0.009953621,-0.046424873,-0.022383746,0.060097046,-0.04689517,-0.021216964,-0.040364116,0.022533026,-0.04191017,0.0035348875,0.023641737,-0.02685579,0.061752968,0.066589795,-0.02845545,-0.030201145,0.004188999,0.052965004,0.046624064,-0.07189612,0.029647496,-0.064548135,0.03871599,-0.031026946,0.049243532,-0.007999028,-0.07015136,-0.064739354,-0.025930062,0.011062707,-0.027297197,-0.007893966,0.06875441,0.029975383,0.031158917,-0.033501178,-0.023159478,0.057647306,-0.04337843,0.005141685,0.07401948,0.011016139,0.086902246,-0.026539622,-0.07199689,-0.01154193,-0.034067165,0.016237922,0.020818686,0.0139243305,-0.07154814,-0.0010307867,-0.034903765,-0.02552593,0.029732745,0.005390896,0.050667234,-0.049884412,0.013393432,0.06795577,-0.009344263,-0.06261632,-0.010943992,0.05380776,-0.017504733,-0.040147703,-0.034366153,-0.07324006,-0.027242724,0.038847204,-0.009378364,-0.062429607,0.0086131925,-0.0430916,0.02996501,-0.05283964,-0.06397726,-0.03317519,-0.022170227,-0.006725958,-0.023592792,-0.035349343,0.011368498,-0.0046375296,-0.00044398563,0.082777366,0.0492807,-0.00750181,0.016644133,-0.037455395,0.094329774,0.005113669,0.06916162,-0.024295196,-0.016522653,0.020026287,-0.019096399,-0.02356657,-0.04423572,0.016477963,-0.032278843,0.013249072,0.07837261,0.014017515,0.0022780788,-0.02500104,0.027448133,-0.033109136,-0.091370724,0.01661328,-0.0652887,0.06357288,-0.051580384,-0.011216687,-0.047924858,-0.016883874,0.034909807,-0.018027335,0.042208415,0.05052473,0.16141048,0.12861764,-0.014413186,0.011320911,0.021289084,-0.09096422,-0.01481858,0.00404333,0.08066455,-0.06807053,-0.0012490839,-0.0027287174,0.11403131,0.067787826,-0.057933815,-0.08212949,0.11034755,0.0877955,-0.010212039,-0.07948883,-0.023553008,0.06425554,0.0007909484,0.014099812,0.049391884,-0.028112307,-0.020773977,0.05382526,-0.008819979,-0.03142311,-0.026247097,0.036146153,0.07857424,0.084777415,0.006526233,-0.05622202,-0.0254136,-0.10983416,-0.07677112,0.015713187,-0.074547,-0.021076538,-0.08231698,-0.010412277,-0.019778674,0.042154383,-0.022434203,-0.046121098,-0.02239032,-0.043811,0.015936049,-0.005905944
26,-0.075050786,-0.078874566,-0.07150644,-0.0077733016,0.06939338,0.077566184,0.053668853,0.058843333,0.015698953,0.00496873,-0.018387698,-0.06554699,-0.07676222,-0.002338425,-0.06968158,-0.05288746,0.0063945567,-0.0029403367,0.045434564,-0.030286465,0.020246191,0.097203806,0.0026381954,0.05406769,-0.03481235,-0.046639826,0.040394664,-0.043300387,-0.059869997,0.036345337,0.04299484,-0.013776526,-0.03212985,0.01439351,0.02475139,-0.046162847,0.028151197,0.08132956,0.053748075,0.07239325,-0.001555048,0.003534991,0.013501043,-0.0025070293,-0.06337086,0.016938917,-0.010630351,-0.024942948,0.027168866,-0.007133092,-0.03332298,0.060736407,0.09075906,0.087846585,0.094577,0.012829674,0.006388633,-0.011218279,-0.040537003,0.020135507,-0.05069746,-0.06715031,-0.045374144,-0.08351577,0.041582536,0.022300767,0.03897826,-0.0396256,0.019216858,-0.016759023,0.044538073,-0.03718463,-0.052234173,-0.052072845,-0.03851397,-0.061731283,-0.034070864,-0.035407197,0.030790221,-0.05600176,0.03293761,0.017391087,0.01551204,0.010040799,-0.058206372,-0.011363246,-0.060087673,-0.056702048,0.00030194357,0.034269337,-0.060355783,0.03521545,-0.008212431,-0.015500806,-0.044203054,-0.061188024,-0.05391768,0.027404413,-0.026953585,-0.01974581,0.02577263,0.018477652,0.03702834,0.035688855,0.0459509,0.06476004,-0.047532223,0.042105865,0.018634817,-0.048745252,-0.02917,-0.036093354,-0.008442898,0.017256493,-0.018382782,-0.06375402,-0.037808634,-0.048952572,-0.004346124,-0.019937767,-0.018289676,0.010559131,-0.014266652,-0.009034864,-0.054894652,-0.0038212,0.03539431,0.006091896,-0.015683586,-0.07628015,0.018889029,0.035868533,-0.020163782,-0.0028601282,0.046476588,0.05636289,-4.5749453e-05,-0.04937596,0.05195977,0.066514485,-0.06219904,-0.047715437,0.025647808,-0.046145648,0.036638215,0.02021142,0.0060285022,-0.0054820366,-0.013306816,0.053193826,-0.0049224873,-0.036964998,0.034787577,0.022065282,-0.06395363,-0.016122943,-0.048642598,0.021484917,-0.06218824,-0.06917096,-0.031496447,0.022348015,0.0069838283,-0.021716334,0.09524795,0.011626305,0.061794635,-0.018780207,-0.034752563,-0.06237225,-0.042205043,0.020987147,-0.05721581,-0.03962065,-0.056074426,-0.085290775,-0.01482491,0.03097111,-0.020771805,0.035276316,0.021915074,-0.009877159,-0.025447734,0.033500034,-0.004847684,-0.049346495,-0.029178238,0.048489507,-0.06513445,-0.027335795,-0.06982604,-0.04813109,0.021139726,-0.039086234,-0.03236147,-0.028966961,-0.058038272,-0.08649924,-0.02801512,0.027011916,-0.04323506,-0.07686043,-0.018055476,0.0041244533,-0.0048082136,0.033969544,0.009469005,0.033452373,-0.08326419,-0.021296134,-0.039076928,-0.017506234,0.07418167,0.05998597,0.012570795,0.038127054,-0.054886073,-0.0004966763,0.0755482,-0.017378828,-0.036461197,-0.018189818,-0.029547162,-0.013691519,0.00040339457,-0.055969086,-0.02951346,0.00044408673,-0.017176058,0.0024248275,-0.045357775,-0.019589964,0.049988218,0.022842346,-0.041298047,0.08246913,-0.038985457,0.033340022,-0.03514127,0.049193885,0.022214428,-0.0013412592,-0.054578796,0.050342422,0.031517614,-0.021603443,-0.010258893,0.052118476,-0.04805121,0.019944055,0.022234287,-0.024145214,-0.034554236,0.011805967,-0.055670444,-0.05318414
27,0.06466866,0.073366925,0.101323746,0.064478464,0.055054832,-0.020504389,0.014651044,-0.024508346,-0.012010575,-0.079230465,0.014278953,-0.0028605238,-0.067668326,-0.028086979,-0.08181887,0.006917945,0.06265967,0.046686333,-0.0069814348,0.037985846,0.050819803,0.07387206,0.069518395,0.08759184,0.040251948,-0.015258329,0.046541993,0.05194265,-0.006426058,-0.06503007,-0.024054779,0.049763925,0.032291234,0.030592417,-0.0071757683,-0.019379767,-0.005831288,-0.036747724,0.059626214,-0.0025789598,0.056357685,0.08245017,0.044896875,0.011387381,0.0069404966,0.02536373,-0.022313934,0.046077345,0.045508016,-0.012481702,0.046166956,0.040824424,0.053266246,0.0133124655,-0.0392528,-0.030585306,-0.032378923,0.0606342,-0.015727866,0.018175017,0.02316035,-0.017709335,-0.04431603,-0.008640518,0.036182903,0.01922573,-0.038224548,0.06587001,-0.037215192,0.03327596,0.029968329,-0.019398954,0.07759879,0.031167073,0.048899353,-0.060120143,0.011669013,-0.016608171,-0.038701523,-0.090008065,-0.0055775656,-0.04991326,0.03582286,0.044079002,0.03246278,0.010093937,0.043616593,0.055812668,-0.019211143,-0.023829067,0.009286737,-0.03359266,0.019909734,-0.057307284,-0.04357794,0.030959224,0.04952074,-0.020928236,0.017958116,-0.011762847,0.0018217106,0.0150589235,-0.05660216,-0.008501644,-0.0067415624,0.0336696,-0.021126527,-0.038619384,-0.07843755,-0.0660064,-0.066503346,-0.07946645,0.014387648,0.053714804,-0.061704233,0.06223923,-0.0012465175,-0.03548418,-0.034052525,-0.004180631,0.054450735,-0.048769258,-0.0062442534,-0.033709932,-0.05373583,0.05050311,0.015215635,0.02643187,-0.013622653,-0.027742485,-0.03085503,-0.064749196,-0.022843016,-0.04033944,-0.05441387,-0.010717307,-0.031861644,0.05052419,0.019657575,-0.057546396,-0.010658412,0.045707226,0.02844468,-0.05753522,-0.033014655,0.07413992,-0.002002179,0.06493374,0.07340801,0.07087166,0.008228177,0.07850178,-0.019400558,0.06075399,0.001455915,0.012365428,0.025916494,0.021057067,0.023338828,-0.02947047,-0.09615469,-0.069098264,-0.075832464,0.019706534,-0.08932136,-0.043111794,-0.085325815,0.0038136586,-0.083581924,-0.06909041,-0.08285377,-0.070351005,-0.05382913,0.040898345,0.013230505,-0.005654874,0.016646001,-0.03242562,0.0124678025,0.0010906624,0.03598853,-0.030367048,0.019276602,0.025112368,-0.0025529773,-0.00389084,-0.04395907,-0.030976914,-0.024022993,0.029146716,0.010312261,-0.02442681,-0.03156712,-0.077549994,-0.033752963,-0.022997357,-0.014753207,-0.058524124,0.0024961769,-0.02142743,-0.021718832,0.031639,0.09220307,0.060475618,0.05946494,0.06553837,0.06953437,0.017954132,-0.019087156,-0.009516438,0.031226298,-0.015040453,-0.021386983,-0.02010061,-0.03935844,0.035793304,0.0042079454,-0.052405957,0.039807796,0.038295016,-0.026486153,0.041583996,0.06725559,-0.03324126,0.018705908,-0.0013400675,0.012559038,-0.0520835,-0.0378774,-0.038913764,0.0051411325,-0.021419683,0.003828477,-0.069556616,0.043124918,0.04199261,0.015861195,-0.05171642,0.032109287,0.037898395,-0.07505995,-0.00061203574,-0.06724643,-0.09582778,-0.064919166,0.006538421,-0.046780623,-0.019291725,-0.05915084,0.05190751,-0.06571255,-0.054606836,-0.033861954,0.011461602,-0.0024407115,-0.04509247
28,0.10072295,-0.030135462,-0.081400916,-0.023725187,0.03143759,0.02744588,-0.06000289,-0.055749383,0.055125356,0.026182067,0.025234353,-0.03417146,0.09029427,0.010006573,-0.068483695,-0.06354122,0.028303124,0.009585533,-0.007652971,0.022101833,0.0063435338,0.056722723,0.05152936,0.100415364,-0.0043258523,0.038774602,0.05160827,-0.0052649537,-0.014123379,-0.014128254,-0.021328053,-0.05517932,0.088846944,0.040621113,0.03828498,0.06055923,0.102209315,0.0646554,0.06566356,0.061631244,0.0518097,0.045401193,0.046755623,0.13326612,0.09033202,0.072500095,0.087514676,0.053975392,0.042464525,0.010800416,-0.0017766348,0.064828895,-0.077994734,0.0009723412,-0.048147142,0.03131803,-0.115332045,-0.088688664,0.022687504,0.0020779977,-0.03431404,0.058555152,0.029143378,-0.055383377,-0.028344844,-0.09625047,-0.025596887,-0.06873578,-0.10558027,0.0189942,0.06427793,-0.0116244545,-0.015663952,-0.02134857,0.009652637,0.04826495,-0.019336555,0.037314635,0.08309333,0.011255528,-0.015505422,0.0065064095,0.11760407,0.1317768,-0.048288126,0.101539515,0.015786873,-0.012776969,0.024160365,-0.03890802,-0.04548385,0.044702157,-0.07263778,-0.029940465,0.007271138,0.097690895,-0.03580905,-0.0310853,0.025217716,0.035760574,0.024955578,-0.0114710005,0.01091877,-0.0020700314,-0.03996799,-0.05616473,-0.07337754,-0.0026452127,0.00550686,0.049374267,-0.018994931,0.074531995,-0.09900257,-0.10512936,-0.013649438,0.032091156,-0.07390452,-0.016701251,-0.0888656,0.033912044,0.01533551,-0.080444016,-0.012512438,-0.033423264,0.0021166198,-0.0496707,0.02715691,-0.039138105,-0.0045824256,0.0027755352,0.008603545,-0.033994265,-0.051920608,-0.016587906,-0.060957137,-0.10081242,0.024293754,-0.056708384,-0.0054163067,0.0346589,0.016351905,-0.055075265,0.052112646,-0.022773137,0.08014434,-0.011027029,-0.051904507,0.03533039,0.039382707,-0.04271094,0.0031952944,-0.064433776,0.043180928,0.055814482,0.011363506,-0.033522576,0.04912705,-0.0026856773,0.00047557242,-0.074804,-0.049963318,-0.0057935584,-0.06815246,-0.016750244,-0.070551395,-0.072842434,-0.046535168,0.0015188591,-0.0750472,-0.04946878,-0.047040682,0.06128284,0.070291154,-0.0021097006,0.017997568,-0.0040185596,-0.0016470195,-0.025700945,-0.040537942,-0.011364657,-0.04837025,0.029161926,-0.016354412,0.05086528,-0.02704649,-0.027585832,0.044583715,-0.014506642,-0.058544926,-0.058313325,0.055485196,-0.037101936,-0.052972216,0.022743195,-0.0022867648,-0.07248474,-0.045468982,-0.053414803,-0.038199846,0.02940669,0.02258922,0.048250627,0.005053722,-0.012254354,-0.011480547,0.004536232,0.009058622,-0.028904555,0.027085215,-0.015730072,-0.014640548,-0.12439744,0.03535431,0.036635686,-0.04819916,-0.03504658,-0.05876541,-0.024347022,0.025169697,0.013297789,0.023288155,0.016105026,0.019611876,0.03882587,0.03413248,-0.033826202,0.021489877,-0.035960715,0.07162765,-0.041155003,0.013078412,-0.06468562,0.037184175,-0.037988845,0.03171145,-0.013343701,-0.010997165,0.008315035,0.04861231,0.03386745,0.009309331,-0.0122214435,0.06208622,0.044891365,-0.055583388,0.031070223,0.019449046,-0.0690814,0.026107546,-0.04892179,-0.11858221,0.030125393,-0.06327492,-0.016431155,0.022128228,0.06757839
29,0.06381544,0.039401133,0.010916331,-0.047566373,0.0035172636,-0.023512488,-0.0109690735,0.0027312343,-0.010990167,-0.01770088,0.014022522,-0.0334046,-0.02937939,0.05514253,0.020231573,0.024164284,-0.0050132205,0.10534457,0.06746045,0.00644933,0.032247365,0.07819085,0.032066986,0.07852687,0.011898535,0.0777188,-0.012944423,0.017857686,0.019894022,0.0974544,0.06959772,0.03610063,0.067407966,-0.022312153,-0.05313747,0.044767007,0.08727888,-0.024262851,0.030327108,-0.04532855,0.012076458,0.045135375,-0.059753586,0.024503637,-0.018082242,0.025456058,-0.041713208,0.011916599,0.06700752,0.08866647,0.076277345,0.06751657,0.052654114,0.0768773,-0.00029764426,0.015259324,0.060677305,0.04348036,0.05520673,0.052307006,-0.010575358,-0.0028220788,0.031687114,0.025331479,0.0014048994,-0.043005284,-0.009045795,0.02859494,-0.07867932,-0.06025709,-0.091973364,-0.1128691,-0.054076377,-0.07955946,-0.085529365,-0.055677645,0.041896034,-0.06254516,-0.07524798,-0.07606953,0.15018415,0.09534658,0.067458436,0.08068735,0.048079427,0.030893512,0.05431408,0.04781238,0.08092291,0.07568713,0.017272746,0.08746548,0.13344225,0.059523556,0.09196338,0.067272425,0.040893313,0.08041491,0.03392472,0.0951278,-0.06252767,0.022515198,0.039561994,0.024715729,-0.0013159052,0.0815653,0.017559966,0.029426156,0.07150182,-0.02060607,0.012813056,0.029104345,0.010304359,-0.08385179,-0.02611482,-0.001016684,0.052573606,0.035512775,0.021294823,-0.009702552,0.04316263,0.0019426962,-0.000591478,-0.008276079,0.0057769055,0.029943058,0.0014261903,-0.07751991,-0.028317533,-0.03557842,-0.004957404,-0.072789475,0.030411756,-0.050050512,0.015101919,-0.07033479,0.06534569,-0.01035816,0.007457567,0.01974029,0.045202717,-0.023105344,0.021064494,0.035992995,0.051591106,0.07442267,0.008718409,-0.040038604,0.035263058,0.043869022,0.03623846,0.02511915,-0.018576762,0.033664867,-0.02221571,0.053903382,0.00017359007,0.056540262,0.00058019324,-0.0039754356,0.010833584,-0.06542089,-0.09733466,-0.028782222,0.020544143,-0.1045646,-0.05434727,-0.038240075,0.00017536651,-0.041931644,-0.019730533,-0.047450174,-0.021988,-0.030584345,-0.053929668,-0.108520746,0.108269416,0.062171806,0.059524763,0.11569946,0.14503776,0.042694546,0.022694295,-0.010435204,0.024434928,0.09913516,0.08027738,0.101849645,0.06800951,0.019071927,0.059809793,0.076958165,-0.023800056,-0.026891045,-0.08714143,-0.0446354,0.03727652,-0.086936496,-0.1037633,-0.07526515,-0.0073181307,-0.061417002,-0.06106376,-0.062831156,0.07020594,-0.050166324,-0.09073762,-0.059445154,-0.10644703,-0.06580969,-0.04209691,-0.059171308,-0.08262397,-0.056211967,-0.04210166,0.023933783,-0.05044597,0.04707124,-0.02446262,0.05824589,-0.052649934,0.028407136,0.022086045,0.02642729,0.059238102,0.065139845,0.009495349,0.11504728,-0.017703526,-0.016829168,0.00989946,0.038315915,-0.015003193,0.05355536,0.056809455,-0.0013206856,0.032084905,0.047138497,0.03245151,0.040573705,-0.021788014,-0.06166113,-0.08989104,-0.08771812,-0.095740914,-0.09535691,-0.14315654,-0.037424475,0.018944547,0.015502269,-0.15186343,-0.09272938,-0.047552995,0.0028637385,-0.08423922,-0.11257787
30,-0.01659988,-0.042932957,-0.117502734,-0.07892072,-0.0026128124,-0.07819634,-0.08028027,-0.07135762,0.067018144,0.0087564085,-0.09626015,-0.09274101,0.027890336,-0.027107043,0.0512476,-0.12459707,0.00052604324,-0.049011674,0.0759363,-0.00980503,-0.015624956,0.00024046416,0.01887108,0.08090942,0.039244268,-0.010254909,0.031073952,-0.03442113,-0.0044666594,-0.024748117,0.023657516,0.009444849,0.055769995,-0.040251397,-0.018468885,-0.07530587,-0.000436251,-0.020541897,-0.012304455,-0.005987486,-0.08844703,-0.08824205,-0.04019348,-0.1006323,0.027634509,-0.057361852,-0.047105182,-0.042398974,-0.014068728,-0.07558455,0.085739955,0.034861065,0.08260234,-0.027247578,-0.07715425,0.08801297,-0.019305028,0.1011354,0.022412894,-0.07583508,0.029833393,0.034689337,0.123410426,0.0104671735,0.0024301047,-0.036306944,0.012742272,-0.07283264,0.06406612,0.031630557,-0.025664032,-0.005771099,-0.012686422,0.014882715,0.008897403,0.01563186,-0.0008459413,-0.022792459,-0.0075115315,0.121637985,-0.035364643,-0.020031527,0.055617567,0.034560278,-0.060546864,-0.07990915,0.0660588,0.018143779,0.034986835,-0.029217146,-0.051994834,-0.034538336,-0.08152929,0.056195594,-0.08365111,0.01512499,0.05418482,0.016477538,-0.07966323,-0.101914436,-0.03505587,0.024913847,0.04940834,-0.0045251534,0.0112828845,-0.03269816,-0.01731977,-0.032949075,-0.033142246,0.049437027,0.0050527644,-0.029977005,-0.037497588,0.027091341,0.09974688,0.031102963,0.06864852,-0.015156398,0.00904591,0.07047404,0.00677859,0.04407563,0.009954962,0.014200382,0.0808032,-0.003722948,0.05994732,-0.038130894,-0.06641143,-0.006351334,-0.054055125,0.052276287,-0.046162523,0.014624985,-0.10121223,-0.05029071,0.03560567,0.010950592,0.051011108,-0.009292353,-0.01359259,-0.010353892,0.038685348,0.07130773,0.041567594,0.015139974,-0.07406058,-0.056961372,-0.051579554,-0.041227285,-0.066795014,0.0065867063,0.06921922,-0.023439847,0.006321606,-0.061589494,0.0379877,0.0035247945,-0.034005817,-0.054824375,0.0640384,0.016421184,0.09079873,0.052765418,0.057366777,0.04542443,-0.094891645,-0.020154495,0.030958675,0.09177207,-0.019931251,-0.047955763,0.042202197,0.064527,0.12934126,-0.020642586,-0.031447448,-0.021066632,-0.05162351,0.043618504,0.038466733,-0.033311434,-0.0113271205,0.027708031,0.02313754,-0.053074706,-0.019843876,0.022174813,0.045246676,-0.07463087,-0.053013798,0.020742105,-0.010066158,0.054550193,0.02413612,-0.06322169,-0.12801172,0.03474873,0.13465312,-0.014670551,0.08862703,-0.0837203,-0.0054173674,0.05246033,0.023433462,0.086726405,-0.01219496,0.002871749,0.089589566,0.04927403,-0.047567062,-0.107906684,0.01435456,0.033696294,0.018721242,-0.04383833,0.09285172,0.088706486,-0.01203971,-0.15188774,0.0948825,0.056377403,0.037259664,-0.119574584,0.03240463,-0.012468172,0.01938961,-0.0868389,0.011271999,0.022556424,0.03042515,-0.070800774,0.0033808558,0.0323819,0.023719264,0.056940768,0.06860969,0.06424055,-0.021556662,-0.031089883,-0.02381795,-0.07811925,0.0024703708,0.02127763,-0.041777246,-0.019056454,-0.0898981,-0.02743323,0.011240905,0.023799764,0.0059328917,-0.072850876,0.0073642326,-0.031407654,0.09308428,-0.0027700772
