,0,1,2,3,4,5,6,7,8,9,10,11,12,13,14,15,16,17,18,19,20,21,22,23,24,25,26,27,28,29,30,31,32,33,34,35,36,37,38,39,40,41,42,43,44,45,46,47,48,49,50,51,52,53,54,55,56,57,58,59,60,61,62,63,64,65,66,67,68,69,70,71,72,73,74,75,76,77,78,79,80,81,82,83,84,85,86,87,88,89,90,91,92,93,94,95,96,97,98,99,100,101,102,103,104,105,106,107,108,109,110,111,112,113,114,115,116,117,118,119,120,121,122,123,124,125,126,127,128,129,130,131,132,133,134,135,136,137,138,139,140,141,142,143,144,145,146,147,148,149,150,151,152,153,154,155,156,157,158,159,160,161,162,163,164,165,166,167,168,169,170,171,172,173,174,175,176,177,178,179,180,181,182,183,184,185,186,187,188,189,190,191,192,193,194,195,196,197,198,199,200,201,202,203,204,205,206,207,208,209,210,211,212,213,214,215,216,217,218,219,220,221,222,223,224,225,226,227,228,229,230,231,232,233,234,235,236,237,238,239,240,241,242,243,244,245,246,247,248,249,250,251,252,253,254,255,256,257,258,259,260,261,262,263,264,265,266,267,268,269,270,271,272,273,274,275,276,277,278,279,280,281,282,283,284,285,286,287,288,289,290,291,292,293,294,295,296,297,298,299,300,301,302,303,304,305,306,307,308,309,310,311,312,313,314,315,316,317,318,319,320,321,322,323,324,325,326,327,328,329,330,331,332,333,334,335,336,337,338,339,340,341,342,343,344,345,346,347,348,349,350,351,352,353,354,355,356,357,358,359,360,361,362,363,364,365,366,367,368,369,370,371,372,373,374,375,376,377,378,379,380,381,382,383,384,385,386,387,388,389,390,391,392,393,394,395,396,397,398,399,400,401,402,403,404,405,406,407,408,409,410,411,412,413,414,415,416,417,418,419,420,421,422,423,424,425,426,427,428,429,430,431,432,433,434,435,436,437,438,439,440,441,442,443,444,445,446,447,448,449,450,451,452,453,454,455,456,457,458,459,460,461,462,463,464,465,466,467,468,469,470,471,472,473,474,475,476,477,478,479,480,481,482,483,484,485,486,487,488,489,490,491,492,493,494,495,496,497,498,499,500,501,502,503,504,505,506,507,508,509,510,511,512,513,514,515,516,517,518,519,520,521,522,523,524,525,526,527,528,529,530,531,532,533,534,535,536,537,538,539,540,541,542,543,544,545,546,547,548,549,550,551,552,553,554,555,556,557,558,559,560,561,562,563,564,565,566,567,568,569,570,571,572,573,574,575,576,577,578,579,580,581,582,583,584,585,586,587,588,589,590,591,592,593,594,595,596,597,598,599,600,601,602,603,604,605,606,607,608,609,610,611,612,613,614,615,616,617,618,619,620,621,622,623,624,625,626,627,628,629,630,631,632,633,634,635,636,637,638,639,640,641,642,643,644,645,646,647,648,649,650,651,652,653,654,655,656,657,658,659,660,661,662,663,664,665,666,667,668,669,670,671,672,673,674,675,676,677,678,679,680,681,682,683,684,685,686,687,688,689,690,691,692,693,694,695,696,697,698,699,700,701,702,703,704,705,706,707,708,709,710,711,712,713,714,715,716,717,718,719,720,721,722,723,724,725,726,727,728,729,730,731,732,733,734,735,736,737,738,739,740,741,742,743,744,745,746,747,748,749,750,751,752,753,754,755,756,757,758,759,760,761,762,763,764,765,766,767,768,769,770,771,772,773,774,775,776,777,778,779,780,781,782,783,784,785,786,787,788,789,790,791,792,793,794,795,796,797,798,799,800,801,802,803,804,805,806,807,808,809,810,811,812,813,814,815,816,817,818,819,820,821,822,823,824,825,826,827,828,829,830,831,832,833,834,835,836,837,838,839,840,841,842,843,844,845,846,847,848,849,850,851,852,853,854,855,856,857,858,859,860,861,862,863,864,865,866,867,868,869,870,871,872,873,874,875,876,877,878,879,880,881,882,883,884,885,886,887,888,889,890,891,892,893,894,895,896,897,898,899,900,901,902,903,904,905,906,907,908,909,910,911,912,913,914,915,916,917,918,919,920,921,922,923,924,925,926,927,928,929,930,931,932,933,934,935,936,937,938,939,940,941,942,943,944,945,946,947,948,949,950,951,952,953,954,955,956,957,958,959,960,961,962,963,964,965,966,967,968,969,970,971,972,973,974,975,976,977,978,979,980,981,982,983,984,985,986,987,988,989,990,991,992,993,994,995,996,997,998,999,1000,1001,1002,1003,1004,1005,1006,1007,1008,1009,1010,1011,1012,1013,1014,1015,1016,1017,1018,1019,1020,1021,1022,1023,1024,1025,1026,1027,1028,1029,1030,1031,1032,1033,1034,1035,1036,1037,1038,1039,1040,1041,1042,1043,1044,1045,1046,1047,1048,1049,1050,1051,1052,1053,1054,1055,1056,1057,1058,1059,1060,1061,1062,1063,1064,1065,1066,1067,1068,1069,1070,1071,1072,1073,1074,1075,1076,1077,1078,1079,1080,1081,1082,1083,1084,1085,1086,1087,1088,1089,1090,1091,1092,1093,1094,1095,1096,1097,1098,1099,1100,1101,1102,1103,1104,1105,1106,1107,1108,1109,1110,1111,1112,1113,1114,1115,1116,1117,1118,1119,1120,1121,1122,1123,1124,1125,1126,1127,1128,1129,1130,1131,1132,1133,1134,1135,1136,1137,1138,1139,1140,1141,1142,1143,1144,1145,1146,1147,1148,1149,1150,1151,1152,1153,1154,1155,1156,1157,1158,1159,1160,1161,1162,1163,1164,1165,1166,1167,1168,1169,1170,1171,1172,1173,1174,1175,1176,1177,1178,1179,1180,1181,1182,1183,1184,1185,1186,1187,1188,1189,1190,1191,1192,1193,1194,1195,1196,1197,1198,1199,1200,1201,1202,1203,1204,1205,1206,1207,1208,1209,1210,1211,1212,1213,1214,1215,1216,1217,1218,1219,1220,1221,1222,1223,1224,1225,1226,1227,1228,1229,1230,1231,1232,1233,1234,1235,1236,1237,1238,1239,1240,1241,1242,1243,1244,1245,1246,1247,1248,1249,1250,1251,1252,1253,1254,1255,1256,1257,1258,1259,1260,1261,1262,1263,1264,1265,1266,1267,1268,1269,1270,1271,1272,1273,1274,1275,1276,1277,1278,1279,1280,1281,1282,1283,1284,1285,1286,1287,1288,1289,1290,1291,1292,1293,1294,1295,1296,1297,1298,1299,1300,1301,1302,1303,1304,1305,1306,1307,1308,1309,1310,1311,1312,1313,1314,1315,1316,1317,1318,1319,1320,1321,1322,1323,1324,1325,1326,1327,1328,1329,1330,1331,1332,1333,1334,1335,1336,1337,1338,1339,1340,1341,1342,1343,1344,1345,1346,1347,1348,1349,1350,1351,1352,1353,1354,1355,1356,1357,1358,1359,1360,1361,1362,1363,1364,1365,1366,1367,1368,1369,1370,1371,1372,1373,1374,1375,1376,1377,1378,1379,1380,1381,1382,1383,1384,1385,1386,1387,1388,1389,1390,1391,1392,1393,1394,1395,1396,1397,1398,1399,1400,1401,1402,1403,1404,1405,1406,1407,1408,1409,1410,1411,1412,1413,1414,1415,1416,1417,1418,1419,1420,1421,1422,1423,1424,1425,1426,1427,1428,1429,1430,1431,1432,1433,1434,1435,1436,1437,1438,1439,1440,1441,1442,1443,1444,1445,1446,1447,1448,1449,1450,1451,1452,1453,1454,1455,1456,1457,1458,1459,1460,1461,1462,1463,1464,1465,1466,1467,1468,1469,1470,1471,1472,1473,1474,1475,1476,1477,1478,1479,1480,1481,1482,1483,1484,1485,1486,1487,1488,1489,1490,1491,1492,1493,1494,1495,1496,1497,1498,1499,1500,1501,1502,1503,1504,1505,1506,1507,1508,1509,1510,1511,1512,1513,1514,1515,1516,1517,1518,1519,1520,1521,1522,1523,1524,1525,1526,1527,1528,1529,1530,1531,1532,1533,1534,1535,1536,1537,1538,1539,1540,1541,1542,1543,1544,1545,1546,1547,1548,1549,1550,1551,1552,1553,1554,1555,1556,1557,1558,1559,1560,1561,1562,1563,1564,1565,1566,1567,1568,1569,1570,1571,1572,1573,1574,1575,1576,1577,1578,1579,1580,1581,1582,1583,1584,1585,1586,1587,1588,1589,1590,1591,1592,1593,1594,1595,1596,1597,1598,1599,1600,1601,1602,1603,1604,1605,1606,1607,1608,1609,1610,1611,1612,1613,1614,1615,1616,1617,1618,1619,1620,1621,1622,1623,1624,1625,1626,1627,1628,1629,1630,1631,1632,1633,1634,1635,1636,1637,1638,1639,1640,1641,1642,1643,1644,1645,1646,1647,1648,1649,1650,1651,1652,1653,1654,1655,1656,1657,1658,1659,1660,1661,1662,1663,1664,1665,1666,1667,1668,1669,1670,1671,1672,1673,1674,1675,1676,1677,1678,1679,1680,1681,1682,1683,1684,1685,1686,1687,1688,1689,1690,1691,1692,1693,1694,1695,1696,1697,1698,1699,1700,1701,1702,1703,1704,1705,1706,1707,1708,1709,1710,1711,1712,1713,1714,1715,1716,1717,1718,1719,1720,1721,1722,1723,1724,1725,1726,1727,1728,1729,1730,1731,1732,1733,1734,1735,1736,1737,1738,1739,1740,1741,1742,1743,1744,1745,1746,1747,1748,1749,1750,1751,1752,1753,1754,1755,1756,1757,1758,1759,1760,1761,1762,1763,1764,1765,1766,1767,1768,1769,1770,1771,1772,1773,1774,1775,1776,1777,1778,1779,1780,1781,1782,1783,1784,1785,1786,1787,1788,1789,1790,1791,1792,1793,1794,1795,1796,1797,1798,1799,1800,1801,1802,1803,1804,1805,1806,1807,1808,1809,1810,1811,1812,1813,1814,1815,1816,1817,1818,1819,1820,1821,1822,1823,1824,1825,1826,1827,1828,1829,1830,1831,1832,1833,1834,1835,1836,1837,1838,1839,1840,1841,1842,1843,1844,1845,1846,1847,1848,1849,1850,1851,1852,1853,1854,1855,1856,1857,1858,1859,1860,1861,1862,1863,1864,1865,1866,1867,1868,1869,1870,1871,1872,1873,1874,1875,1876,1877,1878,1879,1880,1881,1882,1883,1884,1885,1886,1887,1888,1889,1890,1891,1892,1893,1894,1895,1896,1897,1898,1899,1900,1901,1902,1903,1904,1905,1906,1907,1908,1909,1910,1911,1912,1913,1914,1915,1916,1917,1918,1919,1920,1921,1922,1923,1924,1925,1926,1927,1928,1929,1930,1931,1932,1933,1934,1935,1936,1937,1938,1939,1940,1941,1942,1943,1944,1945,1946,1947,1948,1949,1950,1951,1952,1953,1954,1955,1956,1957,1958,1959,1960,1961,1962,1963,1964,1965,1966,1967,1968,1969,1970,1971,1972,1973,1974,1975,1976,1977,1978,1979,1980,1981,1982,1983,1984,1985,1986,1987,1988,1989,1990,1991,1992,1993,1994,1995,1996,1997,1998,1999,2000,2001,2002,2003,2004,2005,2006,2007,2008,2009,2010,2011,2012,2013,2014,2015,2016,2017,2018,2019,2020,2021,2022,2023,2024,2025,2026,2027,2028,2029,2030,2031,2032,2033,2034,2035,2036,2037,2038,2039,2040,2041,2042,2043,2044,2045,2046,2047,2048,2049,2050,2051,2052,2053,2054,2055,2056,2057,2058,2059,2060,2061,2062,2063,2064,2065,2066,2067,2068,2069,2070,2071,2072,2073,2074,2075,2076,2077,2078,2079,2080,2081,2082,2083,2084,2085,2086,2087,2088,2089,2090,2091,2092,2093,2094,2095,2096,2097,2098,2099,2100,2101,2102,2103,2104,2105,2106,2107,2108,2109,2110,2111,2112,2113,2114,2115,2116,2117,2118,2119,2120,2121,2122,2123,2124,2125,2126,2127,2128,2129,2130,2131,2132,2133,2134,2135,2136,2137,2138,2139,2140,2141,2142,2143,2144,2145,2146,2147,2148,2149,2150,2151,2152,2153,2154,2155,2156,2157,2158,2159,2160,2161,2162,2163,2164,2165,2166,2167,2168,2169,2170,2171,2172,2173,2174,2175,2176,2177,2178,2179,2180,2181,2182,2183,2184,2185,2186,2187,2188,2189,2190,2191,2192,2193,2194,2195,2196,2197,2198,2199,2200,2201,2202,2203,2204,2205,2206,2207,2208,2209,2210,2211,2212,2213,2214,2215,2216,2217,2218,2219,2220,2221,2222,2223,2224,2225,2226,2227,2228,2229,2230,2231,2232,2233,2234,2235,2236,2237,2238,2239,2240,2241,2242,2243,2244,2245,2246,2247,2248,2249,2250,2251,2252,2253,2254,2255,2256,2257,2258,2259,2260,2261,2262,2263,2264,2265,2266,2267,2268,2269,2270,2271,2272,2273,2274,2275,2276,2277,2278,2279,2280,2281,2282,2283,2284,2285,2286,2287,2288,2289,2290,2291,2292,2293,2294,2295,2296,2297,2298,2299,2300,2301,2302,2303
0,-0.059200022,-0.0092133,-0.036979973,-0.06587311,-0.027882202,-0.035127755,-0.045094993,-0.008534689,-0.043908358,-0.04151008,-0.056165416,-0.039116815,-0.016014474,0.004066313,-0.0074378895,0.0017223412,-0.009178663,-0.013873901,0.007930073,-0.004038947,0.01261063,-0.03104294,-0.009856977,-0.01052961,0.011323764,0.033219643,0.02655446,0.012344567,-0.020524306,-0.048167117,0.013245291,0.03529181,0.022543242,-0.005433488,-0.0211089,-0.024635004,-0.022545172,-0.02252391,-0.028385792,-0.03857146,-0.09524613,-0.14636178,0.0025361555,0.015476631,0.019753959,-0.03200866,-0.031034993,-0.103896596,0.044407655,-0.013982548,0.022433551,-0.006549778,-0.029623698,-0.015423616,-0.035646837,-0.07471525,0.0011704541,0.06804557,-0.025597483,-0.07251705,-0.12573636,-0.028763892,-0.026258174,0.049704257,-0.00022886191,-0.06854739,-0.1594217,-0.010009373,-0.010688296,0.007511442,0.030082252,-0.02132307,0.029537626,0.039816096,0.019501276,0.017339384,0.025781695,-0.008899279,0.02584205,0.092161186,0.04538224,0.029567853,0.025791565,-0.012800045,0.012947523,0.0432897,0.0019333588,0.021316297,0.034953,-0.033390015,-0.061048552,-0.044121027,-0.038100902,-0.02895815,-0.010414192,-0.033922173,-0.04225498,-0.023018545,-0.0006266297,0.016030638,-0.042151257,-0.02231578,-0.05035973,-0.031561244,-0.0049273316,0.0085944515,0.0203784,0.028068634,0.017328275,0.030777996,0.005260593,-0.00066267885,-0.0061854054,0.009584419,0.023564344,0.02571972,0.016448712,0.046367615,0.030211564,0.035323408,0.026601499,0.061480317,0.02469641,0.04435432,0.05790549,0.041057814,-0.008023406,-0.039795708,-0.0055592456,0.04410676,0.03712913,0.048219632,-0.027867172,-0.07231934,-0.023716219,0.0050014323,0.01298672,0.05024485,-0.043265924,-0.032584768,-0.019881362,-0.008208416,0.014110398,0.022768373,0.06428666,0.011211004,0.011933923,0.0020829167,-0.016245624,0.013769033,0.039521895,0.07038085,0.037021566,0.029340455,0.02088055,-0.021282755,0.054669656,0.04936659,0.07415813,0.08786356,0.032719932,-0.039360575,-0.020388834,0.010372542,0.008471943,0.04882886,0.04920347,0.0111135375,-0.03647368,0.013106331,0.0128637105,0.049454156,0.027997803,0.055126987,-0.066485114,-0.042047337,-0.008213324,0.011285617,0.025670722,0.03371633,-0.018769836,-0.045559045,-0.046950426,-0.0647374,-0.07576164,-0.051953703,0.028915433,-0.02862294,-0.019149024,0.003260199,-0.04107606,-0.015734632,0.09353813,0.024082681,0.0030427403,-0.0152327465,0.013054627,0.038586248,0.036604956,0.022407552,0.057699,0.058846246,0.018624369,0.045524273,0.014957806,0.021621801,0.086769864,0.07405122,0.016632244,0.018896408,-0.028311715,-0.013729323,0.07400491,0.09232778,0.05801942,0.0110982545,0.03014195,0.034826946,0.0019618536,-0.007902201,0.03907952,0.033410136,0.014121957,0.03214769,0.008090815,0.02335722,0.038063217,0.052311223,0.011856503,-0.006552555,-0.03034081,-0.008365852,0.032774158,0.06328271,-0.020003274,-0.07398302,-0.05709958,-0.030167485,-0.026494341,-0.0070158984,0.003243417,-0.050532307,-0.057276476,-0.013268853,-0.023128083,-0.027274169,-0.0019951893,-0.0031644006,-0.005692528,-0.002734015,-0.026018158,-0.044812355,0.060449872,0.036488116,0.016906317,0.012013451,-0.017767878,0.049846895,0.0064447694,0.04339439,0.06591694,0.058228932,0.04077395,0.006797895,-0.016926311,0.026851809,0.07034398,0.06628967,0.04147332,-0.050894972,0.010045512,-0.012286269,-0.022614151,-0.03210771,-0.018472055,-0.025765765,0.016781349,-0.012924694,-0.027692169,0.012250235,-0.014919675,0.005592478,0.020705516,0.00653271,0.0044385768,0.0137448395,0.009744914,0.023945855,0.0049474034,-0.013287631,-0.0017332257,-0.038274888,-0.06246426,-0.047591742,0.0193504,0.028183104,0.0073538264,-0.060763292,-0.031508878,-0.03689645,0.06188077,0.030516706,0.046344843,-0.0293736,0.0031407848,-0.015324206,0.0037087274,-0.06414671,0.04584251,-0.031227576,0.015947292,-0.010372758,0.028419182,-0.050225075,0.010281571,0.018593082,-0.0069658505,-0.02377168,-0.011250396,-0.0077175787,0.002168412,0.010938713,-0.010811038,-0.028516553,0.020348325,0.00048773026,0.01432846,-0.029606825,-0.021992961,-0.005840678,0.017580753,-0.020694062,0.012541391,0.009650539,-0.002605818,0.024349462,0.009605557,0.019077938,0.019680327,0.02270552,0.004608112,0.021344922,0.051677093,0.056766946,0.059669238,0.02159986,0.05542182,0.0386424,0.0025675013,-0.01995716,0.0034197224,-0.011307729,-0.025984414,0.011871658,0.002401223,0.0005708486,0.032631185,0.068343185,0.046119824,0.09234845,-0.027017191,-0.026071481,-0.055549283,-0.054367606,-0.05487828,-0.055950124,-0.010743045,0.0068441126,-0.015891446,-0.031705383,-0.010392998,-0.0414213,-0.04056142,-0.008185911,0.023786824,-0.020264752,-0.011411628,-0.033751786,-0.028094968,0.019564286,0.02681882,-0.025836999,0.0069436147,-0.023949048,-0.005686714,-0.00078537007,0.045247093,-0.0001175283,-0.016546784,-0.039637093,0.023509843,0.044344977,0.040421296,0.033169426,-0.013930049,-0.02417333,0.1013228,0.035487093,0.03066145,0.02586132,-0.03214585,-0.023192888,0.122910894,-0.012125846,0.010757792,-0.016320698,0.008180493,0.030763943,0.04931001,0.0053623766,-0.014722397,0.002144866,0.0059274323,0.03571114,-0.021735618,0.0038149203,-0.017491898,0.0016448087,0.009061103,-0.014013258,-0.07848881,-0.022696441,-0.014806801,0.01292949,-0.03786974,0.007171531,-0.10607016,-0.051473483,0.0039397883,-0.013316732,-0.0104488395,0.013480888,-0.02586567,-0.0056263288,0.012020386,-0.011017785,0.0076562995,0.026706684,-0.03555076,-0.03621851,-0.018996412,-0.021095227,0.011704278,0.0013818542,-0.036549173,-0.01044265,-0.024543384,0.009572565,-0.0023028376,0.02048972,0.023910502,0.03683602,0.028479727,0.062167507,0.05122871,0.034968298,0.08651357,0.035551623,0.012980595,-0.006669423,0.021826401,0.020756051,0.035680525,0.046234094,0.06532424,0.0605827,0.020761767,0.0068783285,-0.096449405,-0.09597734,-0.065407686,-0.047964342,-0.024235373,-0.0038139094,-0.096540414,-0.07254555,-0.04824448,0.009261275,0.017258374,0.11739705,-0.037977077,-0.07200608,-0.022704193,-0.032022536,0.037645917,0.036419872,0.078453384,0.019663287,0.0085070785,0.011743554,0.041534986,0.022561088,0.017417934,0.043686036,0.07330953,0.06425677,0.024077127,0.021785146,0.05384778,0.03565828,0.106201366,0.04828849,0.06626187,0.021763965,-0.015747458,-0.014663594,0.035080455,0.0022809545,-0.007314153,0.016269246,-0.04185319,-0.020670092,-0.009872581,0.029441409,0.014631618,0.03704029,-0.038399413,-0.036612146,-0.019485962,-0.002143348,0.0070163095,0.009538754,-0.049853973,-0.07851048,-0.041375667,0.013507548,-0.00950415,-0.028079411,-0.049551524,-0.045431767,-0.032840054,-0.0031994716,0.010466986,-0.00068134,-0.003381647,-0.046307527,0.008975003,0.0260996,0.008640451,-0.029790744,-0.0076664574,-0.018966187,-0.03170755,-0.035190005,-0.04123493,-0.047314227,0.01521676,-0.025291406,-0.010290421,-0.02803979,-0.015741616,-0.0094204405,0.050434478,-0.017312236,-0.017361028,-0.0089995265,0.011856216,0.028969599,-0.004805222,-0.009534834,-0.012059277,0.021944508,0.046202444,0.016783357,-0.034879234,0.006251726,0.027663039,0.0515887,0.02596128,0.027300017,-0.09634448,-0.043230876,-0.03472191,-0.0074208844,0.003608564,0.006020497,0.054172337,0.02052611,0.056330927,0.061803486,0.09293881,0.052198127,0.035779525,0.02490108,-0.0018106918,-0.025042787,0.06693547,0.06998173,-0.021539727,-0.015344865,-0.07331454,-0.03270116,-0.011811958,0.025330337,-0.0323724,-0.020228274,-0.07695143,-0.023703253,-0.100477695,-0.02053248,-0.041561715,-0.0033191408,-0.021630354,0.012723785,-0.0017848286,-0.017881956,-0.02802725,0.008140852,0.05805023,0.06488899,0.034131564,0.043496646,-0.11736144,-0.06860597,-0.06283676,-0.022064669,0.021103032,0.09238482,-0.12712643,-0.09445714,-0.028580898,0.024899054,0.15335044,0.12478177,-0.11284251,-0.053083997,0.0104945665,0.029513126,0.036327906,0.09020186,-0.076341994,-0.014044453,0.0026503813,0.08838319,-0.021618724,0.011591541,-0.012555645,0.009490884,0.052957434,0.0015642015,-0.014737713,-0.0834327,0.063927755,0.065736935,0.043383077,0.023632934,0.010585371,-0.15439613,0.022814607,-0.01961137,-0.041646156,-0.053526018,-0.046692517,-0.003725704,0.032221764,-0.0035833372,-0.049609788,-0.06537892,-0.012554373,0.036428414,0.073306955,0.032797232,-0.04156695,0.0034555348,0.0069921757,0.07535864,0.079228796,0.06415357,0.04957978,0.05994951,0.10596764,0.1186627,0.021535141,-0.008449325,0.01566862,0.016507633,0.051691156,0.058906663,-0.020878943,-0.055116933,-0.009681818,0.011853433,0.036759008,-0.015087563,-0.1091651,-0.11846761,-0.06774584,-0.076769456,-0.08881376,-0.03849493,-0.09804457,-0.05033815,-0.06172444,-0.076580144,-0.02910414,-0.0026581741,-0.048896533,-0.026125604,0.00075625954,-0.04532202,-0.07680636,-0.037313998,-0.04789191,-0.015700173,-0.0083006,0.018448344,-0.048988286,-0.042449918,-0.067835234,0.020540908,-0.022844564,0.019489925,-0.012375511,-0.032150723,-0.016259247,0.020527167,-0.0024843866,-0.051332776,0.024070874,-0.049895518,-0.016442016,0.009165888,0.010371198,0.013695413,0.043269522,0.029573258,-0.012359089,0.020395942,0.028700685,0.031483628,0.046889022,0.03650497,0.00013776643,0.005766996,0.009344988,0.022040678,0.016024895,0.02407994,0.0031397874,0.04434539,0.017961692,0.005266521,0.0341276,0.039869174,0.047005933,0.014637846,0.008151192,0.03125147,-0.008949131,-0.001273289,0.0009906322,0.016799372,0.01320485,0.00094237766,-0.028658457,0.025337499,-0.050793372,-0.046007093,-0.0317101,-0.021566495,-0.0015125847,0.028833367,-0.0254778,-0.020819161,-0.0014054463,0.011807749,-0.0018652866,0.025697201,-0.008483078,0.017509066,0.019347433,0.06447102,0.05742822,0.041075397,-0.044481695,-0.041775133,-0.04403357,0.031505153,0.026814545,0.05674325,-0.013462473,-0.06235468,-0.03172694,0.023716897,-0.026581127,0.03557259,0.0126715945,-0.044989172,-0.016369335,0.045554668,0.015454827,0.022027172,-0.010440732,0.011555006,-0.016656265,0.0031646057,-0.0039501,0.024652973,-0.026985552,0.0014989855,-0.013953162,-0.013968848,0.018052904,0.049371332,-0.0087731425,-0.022993734,-0.03661244,-0.04921744,-0.014930894,0.06798724,0.027023703,0.020505188,-0.010877204,-0.012937734,-0.0033611555,0.00824234,0.023320494,0.010384797,-0.018350847,0.000121572964,-0.01616644,-0.01883406,0.018930836,-0.002554703,-0.036631335,-0.021842005,-0.013030357,-0.044776734,-0.07460364,-0.059491068,-0.07416068,-0.03371306,0.015507751,0.07604047,-0.050136212,-0.0947618,-0.041772336,-0.049206965,0.009815712,0.08344252,0.0038411561,-0.036334526,-0.048021354,0.0031005878,0.040188726,0.11260385,0.064953856,0.06808292,-0.0018589165,-0.0013842221,-0.012241106,0.037732854,0.025083637,0.036534064,-0.015459394,-0.06765274,-0.018681172,-0.011121684,-0.026493695,0.03871021,0.039188724,-0.020617215,-0.050211813,-0.06786118,0.04834909,0.02353224,0.009593143,0.007143769,0.007648713,0.020384546,0.04080397,0.0030492272,-0.00780534,-0.019777553,0.0028740864,0.06549276,0.052201375,0.03364727,-0.001889964,-0.024951452,0.07177847,0.08959685,0.14999911,0.028219558,-0.017420784,-0.038818747,0.0783028,0.13557242,0.14356628,0.037907805,0.022739321,0.0061732437,0.03365806,0.07844568,0.11978257,0.032096133,0.026264748,0.012215993,0.060158964,0.05483312,0.08796229,0.031936835,-0.019282827,-4.7430603e-05,-0.041056138,-0.051412962,0.060928334,-0.0023138302,0.007833643,-0.02008729,0.0013694542,-0.021918254,0.054587428,-0.01900447,-0.006448978,0.03893481,0.024174826,-0.040656753,-0.016498907,0.027995588,0.0050075077,0.07255158,0.04732333,0.00028703458,-0.0771517,-0.0032595072,-0.0027781911,0.058213387,0.009038297,0.006177598,-0.088922024,-0.081415966,-0.013539406,0.008142424,0.007945252,0.027126707,0.010962989,0.0018871016,-0.007778569,-0.0141092725,0.0004895401,-0.038524985,0.0103320815,0.007213842,0.031904597,0.024239281,-0.0151608605,-0.0069271512,-0.0022758362,-0.0066793556,0.011429163,-0.0011445051,-0.0053171604,0.03186571,0.02509242,0.032213423,0.009064584,0.02365921,0.00921602,0.0008257456,0.02241749,0.023142658,0.010871183,0.0030108786,-0.018861752,-0.015377522,0.035772286,0.029237282,0.03776785,0.027922042,0.006095177,-0.001432382,0.01832664,0.015974635,-0.032590598,-0.04738796,0.016361833,0.068156205,0.0035585929,0.0017305273,-0.014201244,-0.056119405,0.02179522,0.03860866,-0.04477557,-0.008686871,0.03691677,0.041722395,0.0051726177,-0.058650576,-0.0038001952,0.0046136566,0.036525056,0.02895366,0.018760337,-0.023715459,-0.0036059902,0.0059734723,0.013428312,-0.031849843,-0.026263209,-0.018983856,-0.018314613,-0.015022879,0.023707092,0.014339013,0.019328423,-0.0029004137,-0.07575024,-0.09067348,-0.057854854,-0.019808277,0.006338583,0.010066105,-0.03691023,-0.03876571,-0.08022081,0.024133377,0.0476979,0.09453795,0.006142795,-0.032758042,-0.013625956,0.010508661,0.030629218,0.05195367,0.025154438,0.027265381,-0.010892244,0.004382602,0.04084255,0.018846301,0.012756251,0.021082822,0.03278984,-0.010387415,-0.027760278,-0.026801253,0.0654742,0.046385407,0.011067317,-0.011626927,-0.025642294,-0.077502064,-0.018235534,-0.045523636,-0.06179323,-0.034554422,-0.040782496,-0.010475142,0.013454856,0.04540385,0.020650974,0.010752255,0.0078106076,-0.011572029,0.012516184,0.03860385,0.051282443,0.020207506,0.057551112,-0.0026100539,0.03108182,0.07508694,0.07694039,0.052213464,0.079325005,0.037952207,0.006336288,0.02413855,0.026446061,0.02920681,0.02506831,0.027118297,-0.0011357961,-0.019603096,-0.004485912,-0.027748207,-0.02731609,-0.00081136404,0.0263994,-0.027550384,-0.027408957,-0.032619372,-0.04146389,-0.076285824,0.042144064,0.019386807,-0.03684782,-0.05525905,-0.060867384,-0.06342393,0.032970317,0.009100707,-0.040979285,0.001080164,-0.05458412,-0.049557433,-0.0071734875,-0.051666852,-0.01274323,0.0013161491,-0.0063839895,0.02090268,-0.048381813,-0.020348249,-0.01794506,0.045124855,0.06317827,0.046484794,-0.0877023,-0.059898566,-0.044052765,0.009922316,0.05019807,0.017895997,-0.032258995,0.002374215,-0.0024543398,-0.020681754,0.0014540289,-0.013871873,-0.009097843,0.02270037,0.0022252223,-0.022866694,0.041773934,-0.032693796,-0.013481844,0.019297466,-0.017690612,-0.010166332,0.006871808,-0.06811154,-0.014345872,-0.015982926,-0.03004703,-0.017410416,-0.07889584,-0.059872907,-0.02898939,0.014832266,0.0045549725,-0.0483255,-0.03601243,-0.036184758,-0.06324963,-0.043470368,-0.040157348,-0.035921592,-0.045050103,-0.08890477,0.021034429,-0.009001118,-0.00026420975,-0.0064631174,-0.03383956,-0.02410983,0.0024981834,-0.014594944,0.005261078,-0.009847125,-0.01668454,-0.006931351,-0.005670626,0.00085084204,-0.006636986,-0.03913463,-0.020564731,0.012843037,-0.017365795,-0.04397785,-0.04400855,-0.020211285,-0.032670505,-0.011710265,-0.037769824,-0.009995993,-0.025219332,-0.021733716,-0.017666299,-0.054444615,-0.029365147,-0.018225504,-0.0040781815,0.030738693,-0.021787994,-0.061675407,0.008478163,0.013273855,0.015066156,-0.007812239,0.026934605,0.0065597207,-0.049409147,-0.008605203,0.02437304,0.030580394,-0.0075446507,-0.018606044,-0.045612704,0.005237829,0.013684272,-0.022872232,-0.017777145,-0.008085474,-0.027810095,0.003459499,0.011801052,0.0075310487,0.004962193,0.014252528,0.025601922,0.03504332,0.050954994,0.03786192,0.008816819,-0.0146664865,0.016756173,0.05037383,0.040498715,0.054111786,-0.005567136,-0.022580558,-0.023947328,-0.020674491,0.0108199585,-0.02878274,-0.040548377,-0.07016092,0.05291179,0.040914167,0.03305718,0.0043283994,-0.05019031,0.005358185,0.09737037,0.053417843,0.037012476,0.05215495,-0.03734133,0.0102063725,-0.018487245,-0.04120062,0.01003716,0.041661862,-0.041570604,-0.04962693,-0.108564086,-0.038617756,-0.014817143,0.011770388,-0.026658632,-0.06158237,-0.15120141,0.028545575,0.027364401,0.028596235,0.025566349,-0.043832485,-0.12527388,-0.12602018,-0.108732745,-0.115766406,-0.12834512,-0.104597524,-0.10264054,-0.03902185,-0.022087023,-0.06921375,-0.03927476,-0.09193569,-0.055411305,-0.01759279,-0.04441228,-0.01612568,-0.07462121,-0.014619956,-0.054432947,0.0014672935,0.02838904,0.0028976807,-0.032100044,-0.04539097,-0.05172981,-0.014236087,0.035178576,-0.0021669085,-0.030112443,-0.063422754,0.0122589525,0.03530014,-0.007712654,-0.025152162,-0.015546773,-0.0067899297,-0.034013044,-0.0064105536,-0.017499115,0.006221278,0.04002721,-0.0037413645,0.0036939676,0.005940515,0.03201918,0.036614265,0.0012958272,-0.022565717,-0.007085783,-0.002746109,-0.01686333,0.04723133,-0.0040895646,-0.01587097,-0.02031322,-0.02403878,0.0090922555,0.001636334,0.025714919,0.022255382,-0.038462445,-0.010913565,0.036912687,0.042538892,0.043310497,0.021677464,-0.0147138275,0.048879713,0.038875107,0.026746737,0.012995311,-0.018523589,0.034799375,0.029902643,0.002690096,0.025058703,0.021084443,-0.0072440817,0.03779144,0.07102818,0.0047442024,0.011581367,-0.029940715,-0.037863985,0.06397219,0.11068604,0.08748201,0.073814,0.04885799,-0.018912865,-0.02725245,0.037754573,0.02485983,0.027761672,0.049362738,-0.008016255,-0.026472334,-0.01730129,0.0036207067,0.024808252,0.0181519,0.032565963,-0.06625086,-0.04335818,-0.04437802,-0.04130665,-0.0007912415,0.024937283,-0.08035434,-0.030339323,-0.04485335,-0.06666204,-0.080140136,-0.07845468,0.00022107158,-0.0034318543,-0.0042996574,0.016292017,-0.024576336,-0.067375876,-0.009377646,0.0068804515,0.013989825,-0.10118957,-0.0765567,-0.06671088,-0.03622261,-0.027363274,-0.024435185,-0.07328699,-0.07151812,-0.037206363,-0.052103218,0.0053006327,-0.0221068,-0.015495202,-0.019335883,-0.05204722,-0.07881702,0.049790554,0.0047652805,0.0037312147,0.0021793165,0.05191145,-0.0018990223,0.0054310863,0.011413491,-0.035679318,-0.0070476104,0.0014023227,0.037947424,0.026526311,-0.02043411,-0.015185587,-0.016251257,0.0043362747,0.023969589,-0.033639304,-0.03724391,-0.051177863,-0.018221576,-0.0030308003,-0.03053464,-0.024344485,-0.027137812,0.009536992,0.010467586,0.03256595,0.03285171,0.02880481,-0.033866864,-0.034199,0.0146308495,0.03377226,0.03967961,0.0011603583,-0.015410156,0.024984421,0.015373311,0.0030177135,-0.050793994,-0.00947586,0.026917247,0.020089373,-0.039695714,-0.04987557,-0.101154014,-0.031433325,0.050415635,0.03275789,-0.020636888,-0.05924632,-0.06081807,-0.03630553,-0.0048213825,0.050353047,0.007034196,-0.012199096,0.0137117,0.016292121,0.023763686,0.031731877,0.050659288,0.04533179,-0.0028383278,-0.018292496,0.02271355,0.033815622,0.0004187719,0.0062097367,0.007093105,0.06861895,0.07693667,0.101688,0.032294817,0.025963327,0.08100136,0.06571507,0.05351805,0.009541711,-0.06681088,-0.09402221,0.09354068,0.043913238,-0.017280208,0.03357633,-0.016685445,-0.06964289,0.11824436,0.10336852,0.090300195,0.038704343,-0.0092058005,-0.069259785,-0.012696139,0.006823992,0.021407196,0.046262708,0.01792717,-6.8057016e-05,-0.08813529,0.0044211126,0.0012421779,0.07883618,0.07440206,0.033618074,-0.13046512,-0.10480019,-0.04691652,0.033415653,0.08410301,0.09612894,0.06997432,0.03022904,0.013237041,0.0040022614,0.016906338,0.026003635,0.055188313,0.055985715,0.04043054,0.020654941,0.028758593,0.00021137403,0.04921132,0.038844552,0.041920483,0.06160413,0.04984912,-0.018887753,-0.013413012,-0.0021833791,0.012675053,0.016485076,-1.4936093e-05,0.024293499,-0.03596318,-0.022158524,0.015268087,0.026810432,0.01832423,0.056296438,-0.030414952,-0.0063088294,-0.020068144,-0.013105764,0.024410803,0.06317411,-0.057832256,-0.017228546,0.017685903,0.0078282105,0.032407105,0.047629066,-0.046803635,-0.00091354694,0.0073622838,-0.01941338,0.04960183,0.1238098,-0.08505637,0.01763576,0.025817068,0.05417445,0.0387594,0.018143693,-0.07212778,-0.016902674,0.018745339,-0.050070506,-0.021633286,-0.018347448,-0.020161808,0.0035373797,0.018600462,-0.036147498,-0.039670438,-0.090140015,0.026511334,0.043253984,0.0042897784,-0.02272971,-0.04049618,-0.09680483,-0.06821101,-0.032510243,-0.0540629,-0.07532544,-0.039664127,-0.0017274007,-0.028778898,-0.03834597,-0.032424897,-0.020687046,0.01973203,0.026921501,0.018806623,0.034520637,-0.009598235,-0.04783425,0.020488732,0.07160218,0.059992697,0.080424316,-0.017349442,-0.02931647,0.0134463785,0.07987098,0.08410691,0.05606142,-0.008173668,0.017595459,0.018482177,0.00038354963,0.02460862,-0.014824255,-0.024415156,-0.06324461,-0.037182584,-0.04738951,0.008358604,-0.028683392,0.011043796,-0.003619735,0.04189229,0.027170593,0.0187043,0.025625987,0.05662684,0.072681494,0.06989744,0.020274151,0.021527635,0.08653977,0.17349431,0.15666467,0.09861333,0.04373073,-0.020560186,0.00091593474,0.053200435,0.06625865,0.09056123,0.0011910292,0.019011935,0.005530547,0.07032847,0.08780604,0.041152228,0.00029505359,0.023963807,0.008257147,0.017545745,0.014647411,0.019085271,0.023443148,0.020508433,-0.009066985,-0.014221472,-0.012054213,0.029815642,0.0074943905,0.018049896,0.029203886,-0.0032998389,-0.0019273361,0.009287814,0.008100222,-0.008646114,0.022688357,0.0048549394,-0.0037998261,-0.014908717,-0.02352114,-0.03275834,-0.0054658535,0.0076934397,-0.019060971,0.019070216,-0.012620427,-0.0054268045,-0.012287074,0.011368822,0.0040448876,-0.0025024037,0.008499872,-0.017073926,0.014993654,0.007648102,0.015457563,0.005668836,-0.02528424,-0.027590077,-0.016805526,-0.04286755,-0.028329805,-0.030902207,0.0019677912,0.039442834,-0.02220916,-0.0043044393,0.0026267015,0.04519231,0.006449147,-0.002003049,0.03596377,-0.020407544,0.009895104,0.038731713,0.06019548,0.08871565,0.04369061,0.013690298,0.04913403,0.022398112,0.09552468,0.02063184,0.023807673,0.022374494,-0.02989446,-0.06648569,0.02274766,0.02538236,0.0021276567,-0.0053772386,-0.003552681,-0.037597857,-0.028731942,0.035775978,0.044235803,0.025723344,0.01349851,0.058036488,0.03783364,0.0004734656,0.049472995,0.046066374,0.06620806,0.03836148,-0.012472984,-0.015546047,0.07017741,0.07124926,0.068523034,0.033006683,-0.022724602,-0.0007795814,-0.016489469,0.022112338,-0.01280226,-0.032455057,0.03094004,0.06793913,0.036531106,-0.0054537114,-0.013536284,0.019404834,0.08830548,0.058287684,0.06187998,0.05204686,0.042745467,0.10961383,0.11243171,0.00813994,-0.01703846,0.00031668562,0.0010903691,-0.019129671,0.012511835,0.013949611,0.011705995,0.0036832578,-0.013081871,-0.013679809,-0.00018431224,0.012331034,0.020831369,-0.02050699,0.0063892924,0.012593899,-0.01604786,0.0042589344,0.028396169,0.014987411,-0.0023649398,0.0131844785,0.0012692319,-0.01690831,0.010609517,-0.008056836,0.006105498,0.011682539,-0.018265875,0.0011454726,-0.0007821236,0.012211965,0.01886209,0.027311629,-0.008997512,-0.03744364,-0.07595868,-0.024736218,-0.00915889,-0.0072176964,0.013041835,-0.02262233,-0.01719797,-0.040046483,-0.03494278,0.017452633,0.053056758,0.031025419,0.017302644,-0.0055177854,-0.003523165,0.06745268,0.06234053,0.08299311,0.05253171,0.00042971075,-0.03284845,0.025583738,0.01963462,0.05890584,0.03163656,0.0021412515,-0.032835424,0.0078070094,-0.023397611,0.064147346,-0.004643564,-0.06140491,-0.057058156,-0.07576148,-0.023298606,-0.034521025,-0.03332191,-0.017974906,0.0018972711,-0.0063534607,-0.019376494,-0.011561988,0.023587687,-0.012404387,-0.03776654,-0.005864931,0.014444588,0.0018592594,0.0015116059,-0.017333578,-0.006776188,0.024067393,0.040842887,0.026196877,0.045457587,-0.027736524,0.017389053,-0.044489805,0.01146792,0.022465542,0.038134508,0.040343612,0.002653625,-0.005674829,-0.0010220555,0.03126149,0.046240516,0.04377204,0.032921452,-0.017852418,0.007754138,-0.008395511,0.00339395,-0.010731569,0.02896484,0.02990676,0.016127247,0.013586039,0.001198803,0.0083213225,0.035486497,0.08462089,0.04805146,0.029477317,0.038320936,0.072274126,0.08178184,0.066139966,0.029858738,0.020777794,0.054455187,0.037667587,0.01905004,0.045265645,0.0025114678,0.042421162,0.012554145,0.020749565,0.0017614608,0.03704834,0.024743767,0.0011251982,-0.029892407,-0.0034525988,-0.02652206,-0.009154312,0.02357139,0.058302987,-0.01345966,-0.02755574,-0.036741767,-0.050032318,-0.025351236,0.062164992,0.030625401,-0.013440835,-0.0036543275,-0.020870231,-0.021713132,0.06176397,0.038467117,0.024894731,0.0050440575,-0.011769899,-0.018946389,0.048678443,0.041687127,0.015423804,-0.011092698,-0.0056610806,0.0073890463,0.0388336,-0.008144835,0.023873094,-0.021740966,0.0027056944,-0.0011409988,0.012227388,0.035772603,0.011200682,0.024168048,0.031807836,0.04028855,-0.0151722925,-0.019068044,-0.026866585,-0.01858677,-0.0031053622,-0.04254032,0.0028031375,-0.00473613,-0.0012637723,-0.068474,-0.009874499,-0.018329224,-0.026773132,-0.03346974,-0.021261733,0.00076950947,-0.033587623,-0.00398147,-0.06956018,-0.011972853,-0.008023628,0.02713496,0.002195638,-0.043203287,-0.06212874,-0.029578965,0.008493176,0.007749658,0.032052714,-0.010033991,-0.059825365,-0.0750839,0.018694907,-0.0036232134,0.012748023,-0.047054764,0.041462112,0.013242359,-0.0064333556,0.049136795,0.024720108,0.014134849,0.08008437,0.0230973,-0.0064228936,0.027861169,0.041314945,0.0014436919,0.04165913,0.004438773,0.0072765625,-0.006917874,0.018736769,0.044683114,0.008843293,0.008359429,-0.027343513,0.016155519,-0.0022350443,0.03277662,-0.030117188,-0.016904812,-0.0067576226,0.00895035,0.033634428,0.04364582,-0.05245086,0.007239692,-0.022407558,-0.004676415,0.034727488,0.022353172,0.022238888,0.019438135,0.0313055,-0.060172465,-0.015400075,-0.07702076,0.10062283,0.083858095,0.008133316,-0.026953772,-0.0538623,-0.020306665,0.06645752,0.028386397,0.0012315775,0.017032947,0.015267706,-0.03116023,0.034056857,-0.015435054,-0.0298313,-0.028130505,-0.010005274,-0.015713705,0.0061093573,-0.040939245,-0.02113793,-0.002827553,0.013336792,0.037625503,-0.048560053,-0.011262168,-0.0030864761,0.0014892898,0.030689782,0.038606845,0.003052286,-0.039337955,-0.008999793,0.0083953375,0.00039369715,0.041646883,-0.035356943,0.00044362122,-0.011771617,-0.027813504,0.036268003,0.031356037,-0.014769071,-0.048408758,0.024842126,0.061428845,0.06200486,0.024522137,0.04083329,0.05256529,0.07660267,0.037698515,0.04954091,0.008178963,0.037842542,0.038563736,0.052180666,0.041097205,0.022929823,-0.029217103,0.0805249,-0.00037655968,-0.0110355895,-0.011327352,0.0028722337,0.07137474,-0.025033103,-0.04456079,-0.03560563,-0.0659672,-0.08159487,-0.07873826,0.007972211,0.014557986,0.00886137,0.022349494,-0.022914393,-0.067813955,-0.011778361,0.035133183,0.079948775,0.043514095,0.032936454,-0.020201178,-0.04241392,0.0074630226,0.059057523,0.06780034,0.0024781758,-0.022964332,-0.07250064,-0.027354326,0.022380687,0.005671946,-0.069453165,-0.03719212,-0.13840029,-0.039646085,-0.007980228,-0.03451045,-0.051162165,-0.05210339,0.012696377,-0.023519045,-0.047175173,-0.025239151,-0.024164136,-0.008290407,-0.023933671,-0.04072196,-0.052142005,-0.03824057,-0.05117494,-0.0043916507,0.0034108413,-0.050127286,-0.049100816,-0.050667595,-0.029474448,0.01861182,0.016739706,-0.012993853,-0.00541586,-0.032068085,-0.0100173615,0.011201826,0.029728942,-0.0147508485,-0.009280404,-0.028197879,-0.019436102,-0.00059305155,0.040361173,0.015351396,-0.007673002,0.028104153,0.029377865,0.04755472,0.015663005,0.0076488694,-0.0376727,-0.014936215,-0.032098927,-0.023531435,0.0064882496,-0.017305419,0.031885967,0.0037021025,0.013598086,0.0019234839,0.06542711,0.038509734,0.0041535925,-0.0076061897,0.03231048,0.025412625,0.099647015,0.08303481,-0.0050776377,-0.0034112285,0.08934188,0.106412016,0.048668895,0.009957363,-0.02847496,-0.013644617,0.038088,0.110299625,0.016336957,-0.024355419,0.0060368576,0.023847524,0.07412043,0.08659015,-0.012030625,-0.004719634,0.015847376,0.01572465,-0.0081882095,0.0051838052,0.018547714,0.00021667738,-0.017316164,-0.017210495,-0.0037970166,0.0072753904,0.017510764,0.0015530762,0.0072901384,-0.024872618,-0.007473563,-0.010890558,-0.011605627,0.014342364,-0.0068241945,-0.0006611049,-0.011203879,-0.013175528,-0.014803194,0.01239852,0.0066619795,-0.0170686,-0.017101338,0.0093528265,0.00129446,0.007095966,0.0019234795,0.017338803,-0.00736459,-0.0022980364,-0.10325098,-0.12538365,-0.10660469,-0.04611973,0.05177167,0.10352289,-0.086368114,-0.09983523,-0.0071479306,0.025443088,0.0817751,0.14882632,-0.10040228,-0.019874936,-0.02943476,0.0337481,0.01723059,0.14152065,-0.02435908,-0.042696465,0.041505385,0.04934625,0.0036106107,0.057004932,0.015698576,0.052211534,0.005994257,-0.011287437,-0.015148254,-0.02782012,0.033867862,0.054813564,-0.00052530086,-0.00046731657,-0.03273513,-0.15381578,-0.032137003,-0.055335525,-0.053477112,-0.03524219,-0.02125501,0.0021091604,-0.009230236,0.010646996,-0.030471362,0.032870896,0.07469319,0.0676522,-0.0064690574,0.0037563057,-0.005742148,0.011983203,0.04996883,0.03469977,0.003751328,0.04554317,-3.6536563e-05,-0.0011343986,0.025336614,0.05533652,0.0128106475,0.02045908,0.027920356,0.0083190715,0.03847955,0.05273284,0.0020949794,-0.00026850263,0.022934418,0.0146289375,0.038452182,0.015405017
1,0.0052861534,-0.01807933,-0.004751368,-0.026526993,-0.032239646,-0.003565021,0.010400381,-0.017271066,-0.011952878,-0.00045645976,-0.016429886,0.02695752,-0.0027056648,-0.0516213,-0.0370453,-0.0060178568,-0.005842309,0.035503753,-0.023763705,-0.045572527,-0.037954222,-0.006588132,-0.008492954,0.038787935,-0.04021231,-0.024510713,0.010107162,0.027268704,0.005474198,0.03263586,-0.0670812,-0.027155431,-0.03386359,-0.014876912,-0.035367154,0.017862365,0.03661327,-0.014812273,-0.029084923,-0.0020520394,0.0018875487,0.021229103,-0.017781371,-0.023073068,-0.048308644,-0.051641986,-0.04555487,0.020429194,-0.022741493,-0.054429077,-0.10073886,-0.09170089,-0.07134592,-0.067658074,0.08108266,-0.034044746,-0.038770113,-0.045158833,0.010520154,0.027819373,0.11593553,0.06549366,0.023890615,-0.050669115,0.010406783,0.046808947,0.26820102,0.054371912,0.10156529,0.089933045,-0.0102262655,0.09446711,-0.00848538,0.017351916,-0.00713046,0.016135398,0.06833891,0.033789363,-0.06648513,-0.054875493,-0.018849459,-0.03225,-0.0025252078,-0.02468693,-0.061178826,-0.03927236,-0.04501066,-0.01193418,-0.03338964,-0.051244117,-0.046643052,-0.04769454,0.005958387,0.00702509,-0.015924988,-0.041599452,-0.05238112,-0.048511185,-0.018357487,-0.017842438,0.0040104887,-0.05138591,0.003098709,-0.0103682345,0.015314978,0.033614833,0.0034113317,-0.05441552,-0.021619862,-0.02021592,-0.053875014,-0.0018758478,0.0029654214,-0.0019046639,0.018537598,0.0354777,0.059012905,0.057146583,0.033766292,0.022071704,-0.002507181,0.0184015,0.045443,0.057897273,0.03281637,-0.038845547,-0.0094205905,0.014116944,0.041632243,0.016104886,0.0067059505,-0.007285169,-0.011844412,0.076136194,0.050952926,-0.004644635,0.022425702,-0.0058808005,-0.007397646,0.016059868,0.0015279843,0.015072071,0.028439863,0.010523852,-0.047768373,-0.033610236,-0.00513368,0.023311872,-0.03783035,-0.045317207,-0.0259619,0.00040901455,0.0012322658,0.006920441,-0.015411445,-0.006104422,-0.047902234,0.040165484,0.07872625,0.047532573,-0.025906438,0.020838471,0.03178854,0.04474129,0.035410013,0.05301254,0.008562789,-0.0283239,-0.022710372,0.045181874,0.018834908,0.024338547,0.013081105,-0.049226068,-0.029235296,-0.010656357,0.012335095,-0.029330224,-0.03518986,-0.03047025,0.03367299,-0.022278061,0.03322634,0.019198257,0.023167783,0.0075109196,0.042910233,0.06539708,0.072541885,0.08442561,0.09503728,-0.0047842213,-0.032590088,0.0725081,0.039810274,0.056312855,0.059165873,-0.04414212,0.012697084,0.020557107,0.033912353,-0.00039231707,-0.041200966,-0.03447586,0.11178407,0.053167928,0.007238351,-0.021253426,-0.041937135,0.06156076,0.15449652,0.10900205,0.05807645,0.042308636,0.033743653,0.112717815,-0.018209841,0.0009688945,-0.009756657,0.001988693,0.018098187,0.00020833369,-0.009856786,-0.03401279,-0.06353599,-0.059298214,-0.021233948,-0.037787963,-0.06546251,-0.039562244,-0.09316615,-0.031708136,-0.06538382,-0.054616123,-0.04655289,-0.02927596,-0.0677848,-0.049937617,-0.046221435,-0.030704366,-0.03354767,-0.0063513154,-0.004417371,-0.0185519,-0.006974725,0.0016481691,-0.033286322,0.0012253694,-0.027105909,-0.022429526,-0.022043157,-0.013164584,-0.10034076,-0.027243864,0.04342969,0.048145745,0.016821915,-0.07703452,-0.033140358,0.05309823,0.08352385,0.05241102,0.046520762,-0.109223224,-0.064575896,0.061269708,0.14224115,0.0811184,0.07050475,-0.052913424,-0.03908137,0.10474403,0.103837214,0.10928352,0.060190592,0.016308188,-0.07869687,0.06709295,0.05471521,0.026952362,0.04109734,-4.9230537e-05,-0.09539609,-0.001859521,0.026807146,0.04369553,0.02272334,-0.10477178,-0.028972752,-0.03556672,0.0005439985,0.03633844,0.019120423,-0.026617266,-0.09768527,-0.07938519,-0.003986542,0.015715225,0.00592954,-0.049066536,-0.12505333,-0.091695264,-0.05615144,-0.03732122,-0.07801761,-0.033405,-0.08305939,-0.07343389,-0.017942525,-0.037967496,-0.081613705,-0.068738036,0.024103377,-0.0053396216,-0.035931606,0.005773066,-0.009515818,-0.020810163,-0.01762849,0.024949385,0.010260659,-0.061576534,-0.0353777,-0.022909079,-0.006019752,-0.005095487,-0.047114123,-0.054188352,-0.010464762,-0.0007823836,0.054954685,0.050071217,0.017806424,0.056104343,0.050114833,0.036809936,0.026757749,0.077620916,0.06477226,0.06814169,0.107075706,0.044055674,0.014531725,0.051027905,0.051760443,0.06503138,0.0541606,0.019076202,0.1473595,0.124874845,0.054244854,0.039009444,0.088750124,0.11227955,0.07552112,0.092517875,0.06191928,0.04263381,0.061024185,0.05632324,0.0482121,-0.013271619,0.001220611,-0.016997665,-0.019704266,0.008202166,0.019722909,0.039521515,-0.029975623,0.0149807455,0.023792163,0.014365909,-0.015222986,0.015375632,0.008210107,-0.004539243,0.03850783,0.029186783,-0.00042437113,-0.0043030353,-0.019667646,-0.036117315,0.013637876,0.00827585,0.035736516,0.07082252,0.034191586,-0.011546853,-0.01574435,0.028871166,-0.0047113174,0.05794635,0.06159784,0.035441305,0.046726447,0.019894676,-0.043293484,-0.02004627,-0.058366105,-0.016704097,0.013212976,0.01277656,-0.0043905587,0.00011277995,-0.041084398,0.0064408323,-0.0073812185,-0.006130597,0.05815787,0.033473037,0.05063987,0.03561358,0.0031079908,0.038441636,0.10703803,0.082314886,0.078090265,0.07854129,0.04270958,0.05500101,0.15111049,0.05462701,0.066078104,0.124355696,0.045762606,0.0938172,0.12967794,0.05915118,0.039769158,0.08583928,0.042818874,-0.0057710395,-0.024024835,0.0192038,-0.009260593,-0.06522673,-0.012602675,-0.014441219,0.005506924,-0.005202222,-0.028133444,-0.055425573,-0.075025514,-0.05215141,0.043959346,-0.0034199639,-0.020407615,-0.043356627,-0.040221255,-0.046803508,-0.013520129,-0.0045967703,-0.031968053,-0.025117164,-0.023834733,-0.051246088,-0.040847935,-0.017028697,-0.036255278,-0.03707818,-0.07126272,-0.04725095,0.00024882454,-0.025521649,-0.025020877,-0.035669774,-0.01062631,-0.012482447,0.041283607,0.034934275,0.03636081,0.029587913,-0.045448203,-0.015042552,0.0065233125,0.020143464,0.029931178,0.011675406,-0.01911152,-0.0001784562,-0.020339794,0.03578291,0.024181485,0.0077187163,0.01849898,0.009281856,0.021775626,-0.05772796,-0.0011470366,-0.017847002,-0.013346985,-0.013162576,0.05056448,-0.047199145,0.0103773745,-0.02225088,-0.028644681,0.09843622,0.049467493,0.020069085,-0.029778326,-0.0057492657,0.020228289,0.03465928,0.009095923,0.00712024,-0.024669413,-0.0074095773,-0.00031300128,0.0069297594,-0.040028654,-0.0633254,-0.02223713,-0.07056181,-0.02356154,-0.031985156,-0.067329675,-0.0837893,-0.07053617,-0.068136536,-0.051141992,-0.058942396,-0.056920808,-0.06017341,-0.021537999,-0.021194715,-0.029837066,-0.06740393,-0.05105121,-0.056256015,-0.039316203,-0.051860496,-0.052763216,-0.047531616,-0.043089718,-0.03509672,-0.015275037,-0.00960253,-0.04933296,-0.035261292,0.04672658,0.026707051,0.041227445,0.04574446,0.04070925,0.045043714,0.0041333963,-0.0019819476,-0.024149293,0.032231223,0.00060566445,0.019006426,-0.011925063,-0.058207743,-0.034209445,-0.0032063199,-0.019053636,0.0159018,0.042248365,-0.020006841,-0.0056382385,-0.030855238,-0.03127495,0.03668251,0.075549245,-0.00045730942,-0.02598276,0.009896751,-0.034665957,0.048152417,0.1451186,0.024085494,0.023158355,0.05536962,0.019583274,0.024207864,-0.004403669,-0.0027140821,-0.02806216,-0.059059992,-0.0043801568,-0.03066296,-0.030111348,-0.04318515,-0.07769756,-0.12847064,-0.12118109,-0.058375318,0.010723924,-0.08557842,-0.113203876,-0.10796347,-0.09299583,-0.08127483,-0.0038133305,-0.070926294,-0.059073016,-0.05561964,-0.04056811,-0.10166698,-0.054513734,-0.07894679,-0.009854572,0.012044305,0.008019862,-0.06551244,-0.07815873,-0.13779329,-0.074528635,-0.04210835,0.014042166,-0.07928244,-0.011269928,0.01239072,0.023606664,0.010877661,-0.07955254,-0.04492317,0.009412209,-0.011656847,0.01793855,-0.0197062,-0.04370859,-0.0346836,-0.04088234,-0.11251267,-0.032877162,-0.087180145,-0.07604119,-0.040102098,-0.05414188,-0.07741624,0.008127495,-0.029508293,0.0015103511,0.05361041,-0.08931463,-0.011121568,-0.0067297714,-0.00048502747,0.05007591,0.15127997,-0.079513244,-0.02110495,-0.0035351012,0.06497013,0.11838954,0.2678354,-0.013218356,0.035196602,0.04898165,0.041259985,0.044687275,0.004892011,-0.014009355,0.012232488,0.04173662,0.09771185,0.06313673,0.029798461,0.00047576593,0.018265828,0.018875945,0.08276597,0.07098873,-0.009810982,-0.024488747,-0.0101479385,-0.028052717,0.008167206,-0.051122397,-0.020534478,-0.053384554,-0.024130583,-0.06752042,-0.041714583,-0.0131546445,0.031204095,0.019094352,0.03662284,-0.0054577724,-0.0007789708,0.04679271,0.05241099,0.06304069,0.07196779,0.023879377,0.052931555,0.062184677,0.04263182,0.0009798338,0.01960132,-0.025350453,-0.052148648,0.013225946,0.04074601,-0.06573401,-0.13788949,-0.103851244,-0.1493813,-0.0784348,-0.07061022,-0.02412004,-0.16645822,-0.10900875,-0.093682595,-0.092677705,-0.05097972,-0.023473926,-0.053249132,-0.014003416,0.008463461,-0.043745957,0.010758234,-0.026520213,-0.060508903,0.026750097,0.015178764,-0.0040958384,-0.029608997,0.05007133,0.00904993,-0.010713756,-0.015702538,-0.014796794,0.016748264,0.028786972,-0.01565957,-0.031695,-0.01848464,-0.03457571,0.0047617652,-0.017126733,-0.030384246,-0.013030163,0.0053305468,-0.014338705,-0.003829161,-0.010300303,-0.046878394,-0.017654018,-0.045668796,-0.04254647,-0.029453732,-0.012056041,-0.01733972,-0.022537371,-0.008797039,-0.0342054,-0.02571727,0.03899361,0.032048974,0.017156282,0.03419801,0.05826163,0.039104413,-0.040638294,-0.044821516,-0.040340994,-0.04516289,-0.059161823,-0.05115011,-0.011592755,0.0059506097,0.024616808,0.058493614,0.032411702,-0.0055419435,-0.02359129,-0.016627124,0.009393972,-0.001329786,0.018226644,-0.020169877,-0.045389555,-0.031894986,-0.03494201,-0.04565056,-0.012867413,-0.054142103,-0.0158778,0.043531384,0.030251786,0.0291159,0.046889313,0.010812995,-0.00090771966,0.08142198,0.017929532,0.06694769,0.092204,0.06286944,-0.0021425665,0.023225045,-0.0110153,-0.056207642,-0.025820753,-0.013105317,-0.015105726,-0.025606966,-0.059989393,-0.074723035,-0.060783613,-0.008608392,0.013585871,0.06839932,0.023164012,0.052115895,0.032007884,0.08520966,0.040283944,0.054887798,0.06660466,0.07422269,0.079586275,0.1303564,0.05886296,0.08098156,0.03240098,0.040369555,0.032594796,0.13177165,0.006968087,0.033122927,0.030554546,0.0683444,0.0410086,0.08403223,0.015398682,0.007938926,-0.06123286,-0.09818597,-0.09493184,-0.03647473,0.09405099,0.006249206,-0.0470444,-0.07527,-0.08683048,-0.055283744,0.07720825,0.025899302,0.032261025,-0.005436411,-0.016952174,0.025917742,0.08800499,0.003023536,0.06758162,0.016752876,0.0031867756,0.04421138,0.038449157,-0.06288712,0.009498018,0.031443007,-0.07205143,0.031244794,-0.033587564,-0.13463144,-0.09626081,-0.06594209,-0.061535597,-0.01057094,0.0076191034,-0.0026645768,0.05306695,0.069653384,0.03129454,0.012781403,-0.014493921,0.03763068,-0.013409638,0.00499009,-0.005955733,-0.016653199,0.028813329,0.016017508,-0.0025954447,-0.025187412,0.015506754,-0.016141264,-0.009740856,0.08954886,0.061873123,-0.037662853,-0.045788277,-0.009422031,-0.0068838955,0.07488855,0.026498584,0.009794399,0.08744616,0.06359113,-0.030751724,0.07948536,0.08196229,0.085811734,0.12334759,0.040706836,-0.025809562,-0.0069951075,0.00788433,0.037879057,0.031049414,0.07045119,-0.008184824,-0.015322162,-0.011954905,0.014841422,0.022113008,0.062171616,-0.0326987,-0.024034606,0.027273258,0.062332258,0.012540052,0.06438536,-0.0013481902,0.02434987,-0.0024145318,-0.005275505,-0.0023758516,-0.0063387644,0.011566574,0.05262045,-0.048375465,-0.027173223,-0.023937516,0.01082196,0.025977077,0.035429697,0.00796333,-0.018805819,-0.030719759,-0.0431324,0.010642614,0.017792184,0.016296165,-0.02026694,0.031203635,0.012117445,0.0015975966,0.005862147,-0.00094162003,0.010363993,-0.004995015,-0.02033879,-0.017875643,0.004535052,-0.008002931,-0.017903756,-0.0010571908,-0.0030585302,-0.013235194,-0.016747002,-0.046048284,-0.08278764,-0.077696025,-0.057510156,0.0095600225,-0.008229062,-0.021243658,-0.03732768,0.003794649,-0.018863402,0.03355251,0.007104488,-0.04638389,-0.020399418,0.0035528638,0.020714827,-0.06269318,-0.01791784,-5.6945286e-05,-0.024016598,-0.07192649,-0.0842229,0.022967212,0.024437064,0.03150275,0.007434133,-0.024339369,-0.0710897,0.046021752,0.018432438,0.05859268,0.091259606,0.030965531,-0.054897446,0.0032134529,0.05050502,0.07895465,0.06995796,0.08598422,0.037414793,-0.006995227,0.027314777,0.0292208,0.027172558,0.027224446,-0.019238349,0.0024418682,-0.03382167,-0.02185588,-0.023109024,0.0019880736,-0.05328721,-0.009719379,-0.008435111,0.011368247,0.06403377,0.0071294988,0.023486776,0.043514334,-0.010251027,0.026355412,0.021490283,-0.00029084686,0.044675145,-0.028385391,0.01529476,0.04479479,0.017197262,0.036021136,0.06716907,-0.00010008538,-0.00063732895,-0.00175796,-0.007837054,0.017750876,0.053466097,-0.04263083,-0.054507002,-0.021146629,-0.028874401,0.029699067,0.10926663,-0.13954513,-0.06658909,-0.035945598,-0.0124089,0.0065826145,0.05465428,-0.027758036,0.062870584,0.06718036,0.038829256,-0.024770971,-0.038939267,0.02316264,0.023133455,0.060603958,0.03838099,0.0071634697,-0.01106395,0.0401052,0.02371079,0.09858108,0.09809536,0.038928464,-0.07004106,0.07362238,0.10337236,0.084859066,0.090714976,0.1310433,-0.023682296,0.035571914,0.041910302,0.011460577,0.024284746,0.04976272,-0.06366376,0.013903803,0.058865733,0.015080709,0.0042824685,-0.0013452236,-0.105144896,-0.030949345,0.00912862,0.011437992,0.06177019,0.0637698,0.0703045,-0.028266396,-0.0518455,-0.05573665,-0.034774706,0.040694498,0.043848693,-0.069251105,-0.08811222,-0.05267349,-0.048980884,-0.006811897,0.08127315,-0.03813595,0.0005511181,-0.029597629,-0.017851658,-0.04516079,0.016301015,0.0063196584,0.0018067788,-0.02057077,-0.024242675,-0.07813572,-0.012889001,-0.007140945,0.010374734,0.016864313,-0.008302604,-0.014923498,-0.061553083,-0.016524663,0.031160338,0.016425,0.025172368,0.0004463164,-0.008501119,-0.04707033,-0.0108391,-0.045835108,-0.045480527,-0.031585686,-0.04722077,0.010584431,-0.04114185,-0.005542503,-0.034491703,-0.07251849,-0.02947177,0.011374956,-0.006050459,-0.013114342,-0.028299825,-0.057285678,-0.016658895,-0.022742629,-0.07140086,-0.006468594,-0.003755842,-0.021163149,-0.03297604,-0.013839,-0.061222997,-0.026105287,-0.014146027,9.715314e-05,-0.056110784,-0.060568184,-0.05639769,-0.018958593,0.010949292,0.00084018626,0.028882064,-0.060790725,-0.08691449,-0.117370665,-0.039782036,-0.013705186,-0.030472888,-0.0325834,-0.106086306,-0.13908216,-0.088204056,-0.061997645,-0.009228778,-0.063292354,-0.0853943,-0.08238756,-0.07014555,-0.05386832,-0.022824092,0.0004663973,-0.04518043,-0.027290368,-0.013069078,-0.03994097,-0.0076206126,-0.008273998,-0.06662752,-0.06399214,-0.08595073,-0.08852564,-0.06996307,-0.042409457,-0.026909705,-0.026175898,-0.026910521,-0.0068193036,-0.03145705,-0.028545467,0.01041909,-0.0037368804,0.020044183,-0.0017324426,-0.03415055,0.006505071,0.036506772,0.01627445,0.029195754,0.023743311,-0.030276762,0.008771938,0.028367814,0.017847808,0.020752877,-0.00727114,-0.023446692,0.035499107,-0.015867533,-0.0016581565,0.016660538,-0.0051513277,0.021703858,-0.017505853,0.010182644,-0.029273832,-0.02190248,-0.004219407,-0.014199544,0.038632758,0.0035345866,0.023926342,0.03648141,0.0510745,0.045413963,-0.05460073,-0.09805216,-0.08356557,-0.051932294,-0.01132951,-0.035509598,-0.094076,-0.16911422,-0.14128958,-0.11414407,-0.1433598,-0.095654525,-0.04679653,-0.08603148,-0.0931055,-0.025002934,-0.06443949,-0.11416487,0.0043181023,0.031466406,0.030882623,0.0038585418,-0.04340753,-0.07622147,0.037895046,0.020475166,0.04511479,-0.024234938,-0.1176521,-0.04710152,0.038451847,0.05280872,0.024619628,0.019135911,0.0019871974,0.053575467,0.016017485,0.004686543,-0.03514525,-0.024338335,-0.05734298,0.041090745,-0.022149166,-0.108602904,-0.11542458,-0.11271764,-0.10811231,-0.028541163,-0.018297741,-0.053014614,-0.10297128,-0.13656078,-0.052355763,0.022008393,0.019967292,-0.021937696,-0.016527556,-0.013241773,-0.04056405,0.070438884,0.0478966,0.0030988243,0.08150849,0.04275588,0.066527635,0.053997643,-0.01403983,-0.048126828,-0.05143125,-0.05588579,-0.010637268,8.138224e-05,0.012312585,-0.047808386,-0.05385427,-0.08671861,-0.032140814,0.0043058447,-0.020297706,-0.026343811,-0.008617848,-0.024661565,-0.010396138,0.0009439064,-0.02058431,-0.013036469,0.013829866,0.010856324,0.030198658,-0.026025955,-0.03939098,0.000342094,0.03177116,0.05414084,0.039672364,0.02066862,-0.017106254,-0.0120958425,-0.014888683,0.010773679,0.02995411,-2.9714598e-05,-0.03881614,-0.017021073,-0.02472289,0.030767793,0.0038716882,-0.00948315,-0.03724573,-0.022374818,0.025687488,0.017353745,0.01172256,-0.022906777,-0.022900917,0.029779663,0.08646766,0.07287482,-0.022381363,-0.021001333,0.00036533718,0.05327057,0.083094075,0.080939665,0.05295828,-0.010758118,0.03478956,0.08817454,0.03155578,0.031948995,0.027338324,-0.049941704,-0.07002065,0.019998252,0.004165315,0.0043083397,0.0087111,-0.06932602,0.060145117,0.018296437,-0.023210749,0.020961922,0.03964074,0.054489028,-0.040027767,-0.05350527,-0.09189877,-0.105593115,-0.04655266,0.024078056,-0.05086628,-0.113984704,-0.18173307,-0.17105465,-0.14666823,0.028252529,0.01250602,-0.11453671,-0.10559651,-0.07807695,-0.07956801,0.00023332311,0.10918758,-0.05047071,-0.020274907,-0.010805119,-0.058184516,-0.056514494,0.07725837,0.07684347,0.04384235,0.009470926,-0.10526984,-0.07104536,-0.007890271,0.009296495,-0.026520109,-0.020761466,0.006041597,0.037377734,0.0011214073,-0.037435353,-0.08140146,-0.08365401,-0.02957141,-0.02391461,-0.014397604,-0.046825226,-0.054625627,-0.07371325,-0.039241005,-0.029715154,0.0002397789,-0.051491085,-0.044346716,-0.041673556,-0.08129535,-0.04428739,-0.011209084,-0.03873152,-0.026721729,-0.027349249,-0.06027691,-0.068026096,0.0029827165,-0.030521937,-0.052315127,-0.06894712,-0.034934357,-0.034119993,-0.14632471,-0.08730707,-0.04278461,-0.060471453,-0.07891579,-0.12382837,-0.065357186,-0.018536733,0.0058193794,0.0070030205,-0.05290748,-0.06830235,-0.045299035,0.07186828,0.025836078,0.051108498,0.026984738,-0.0521243,-0.071827084,0.003648825,0.039629,0.019659324,0.030020105,-0.05832741,-0.045719046,-0.0021628374,-0.020441802,0.0029216858,-0.008985366,-0.040678717,0.017251173,0.07503778,0.022588609,0.058504038,0.0703525,0.022590322,-0.063952304,-0.054932382,-0.06547286,-0.04589145,0.0042702076,-0.023174565,-0.047978446,0.013327585,-0.05782062,-0.011334496,0.023263061,1.9893275e-06,0.043428835,0.034544755,0.061378878,-0.045175996,0.017318234,0.045938026,0.0651679,0.050809316,0.06368614,0.048604324,0.063200615,-0.005205938,0.08266367,0.04989905,0.03221978,0.04424464,0.060866624,-0.016811544,0.15764555,0.088582695,0.113154896,0.033254053,-0.024809992,-0.10292271,-0.05480869,-0.05432562,-0.017528918,0.019246938,0.06526454,0.030611895,-0.060363624,-0.019984819,-0.01276674,0.008467359,0.035707206,0.034654286,-0.065594636,-0.026364133,-0.016234664,-0.051976684,-0.009464197,-0.028707754,-0.045220453,-0.043500584,-0.078131124,-0.038267724,-0.0032112782,-0.02252777,-0.021014087,-0.0027428789,-0.054483205,-0.02350332,-0.011953035,-0.05099281,0.010573756,0.038853135,0.036051,0.01607264,-0.026762225,-0.07800706,0.030647317,0.06523984,0.038141273,-0.02637845,-0.010234735,-0.025644673,0.05763096,0.042386815,0.005772701,-0.064696595,-0.07146403,-0.05898497,0.10741441,-0.0012891727,0.03743862,0.009239342,0.030479614,-0.009080245,0.033735987,-0.028092198,0.018705506,0.0038161413,-0.0023982972,0.019434843,0.05250311,-0.0097367,0.022126919,-0.0016299625,0.00021700701,0.02309222,0.010024662,-0.02545367,0.046969183,0.016508168,0.014077141,-0.03549195,0.013860005,-0.0006664326,0.012298637,0.026608888,0.020977542,0.027600257,-0.02380001,-0.0041988622,-0.017892933,0.023034247,0.026621247,0.090800785,-0.028719349,-0.02761276,-0.027136067,-0.001903668,0.039804395,0.043201607,-0.00944385,-0.04019198,-0.013574516,-0.034435444,-0.014129163,0.05889298,-0.049029607,-0.048627254,0.0048693866,-0.024391843,0.032921012,0.11509851,-0.09247476,-0.0060562105,0.015563162,0.0638297,0.03370014,0.031973988,-0.011379823,0.028092736,0.016709337,-0.0016292883,-0.056883123,-0.09197944,0.050348092,0.025324512,0.01302922,-0.027246086,-0.046410628,-0.0064293635,0.05360299,0.059991095,0.055394404,0.038842957,-0.055638913,-0.029842084,0.005129466,0.07263704,0.0022006396,0.02919221,0.02895557,-0.01394061,-0.04034583,0.033637412,-0.03689388,-0.020284645,0.01864515,-0.024571864,-0.048184138,-0.022886174,-0.04682423,-0.01477052,-3.0657735e-05,-0.02196559,0.01654624,0.02449188,-0.005571259,-0.003503736,0.004449967,-0.006039838,-0.017686296,-0.020047575,-0.009672553,0.017959435,-0.0053850776,-0.0018014304,-0.00038323956,-0.010012664,-0.017120004,-0.026199752,-0.008275674,-0.020751668,-0.0068828445,0.010353054,0.019089183,-0.0068527516,-0.028140077,-0.0059346803,-0.0031905356,-0.007444763,-0.014312776,-0.017903786,-0.011092186,-0.005778613,-0.00891273,-0.01977969,0.006695768,-0.012664892,-0.021859858,-0.032623436,0.048998382,0.017822118,0.035072945,0.011448795,0.008223021,0.014825416,0.05578285,0.083426304,0.10764155,0.11488046,0.083620176,0.037550136,0.05461258,0.10950537,0.10289774,0.07221992,0.06771346,-0.015369837,-0.0046997434,0.014119294,0.0026526733,0.00057749223,0.007542755,-0.008295297,0.015347529,0.010054345,0.0015623367,-0.0060500572,0.027552094,0.014942418,0.051107332,0.019194778,0.009402845,0.061077908,0.10890051,0.06654625,-0.12782581,-0.04366032,-0.037361994,-0.03254932,-0.04144628,-0.120862685,-0.06630648,0.03212979,0.08390941,0.085715525,0.050023194,-0.08237618,-0.050990578,0.05732643,0.07990903,0.05398152,0.01653057,-0.046883576,-0.037002366,0.0866567,0.0953386,0.07586909,0.082310274,-0.0506205,-0.06405439,0.031076644,0.0030053428,0.03560336,0.010978928,-0.1195567,-0.05944013,-0.02387919,0.019621909,0.0017978846,0.0009768504,-0.080806814,0.0102171255,0.015137513,0.0030784782,0.021068608,0.025556935,0.004491163,0.009130399,-0.0036333676,-0.012487206,0.013262506,0.0057154964,-0.013583913,0.013337702,0.019377178,0.00056754437,0.0061910576,0.03711706,0.01162288,-0.0057424,0.006241456,0.021539206,0.010134558,0.0005972128,-0.0012114039,0.0051426706,-0.0076390323,-0.015588812,0.010230219,-0.013174374,0.022247188,-0.010634603,-0.02091617,-0.012862004,0.001538302,-0.014223363,0.0038188118,0.085114226,0.097884245,0.057204474,0.017065741,0.011538652,0.035843067,0.03873586,0.034207344,-0.042817578,-0.049749766,-0.06965719,-0.02157052,0.075112246,0.020523783,-0.04141863,-0.04593353,-0.03275279,0.063529946,0.025861684,-0.025357952,-0.011286337,-0.03861419,-0.037023917,0.037087325,0.010141978,0.024566421,-0.047552787,-0.09385129,-0.026986582,0.033727273,-0.05893489,0.014805894,0.028608562,0.03220781,0.01736059,-0.02772051,0.0052801035,0.037869096,0.04712687,0.013181946,-0.0004956468,0.05389336,-0.0058972714,0.003147895,0.026138695,0.0022233713,-0.02140296,0.0014432317,0.0034707282,-0.034940336,-0.012663725,-0.032337047,-0.036512796,-0.02848887,-0.018856721,-0.058490615,-0.05657915,-0.046145417,-0.058019117,-0.06557568,-0.00122151,-0.07558583,-0.067116395,-0.058810536,-0.03891534,0.0042180587,0.025077092,0.029818028,0.045720913,0.039896093,0.017202346,0.0048818043,0.027531162,0.017416883,-0.0207878,0.011234022,-0.0042053545,-0.009290096,0.024471609,-0.001514067,0.00789599,0.008891789,0.03834899,0.025720594,0.0338723,0.0071680634,0.06572997,0.033421706,0.017550157,0.044221196,0.029287381,-0.0007804063,0.045846388,0.028716061,0.02410543,-0.0022938226,-0.05346872,-0.01443693,-0.017131705,0.008325132,0.008812375,-0.06423138,-0.020602228,-0.022458976,-0.027955048,-0.013780084,0.012230893,-0.062155064,-0.025281921,-0.017884234,-0.010205851,-0.0070997,-0.0032422347,-0.033106484,0.065607496,0.02876262,0.049891494,0.06734173,0.03803596,0.0027427496,0.07155152,0.08021522,0.0447856,0.013202457,0.06262191,0.04172763,0.051355008,0.07534592,0.060464468,0.06691551,0.01511333,-0.009107296,0.074468754,0.08136714,0.043868262,0.07233032,0.0575165,0.029830761,0.004190453,0.009890375,-0.009580929,-0.024138654,-0.041047975,-0.070637636,0.03934699,0.025591847,-0.017122783,0.042506855,0.040714364,0.11495772,-0.03507662,-0.014348896,-0.07668587,-0.04992399,-0.031807583,-0.026365176,-0.007991549,-0.08168996,-0.103846096,-0.13738193,-0.08110074,-0.03750187,0.053760916,-0.010796119,0.023642981,0.026243797,-0.024530284,-0.014441829,0.050894815,0.108247556,0.16556469,0.18783918,0.060387567,-0.021834463,0.006395704,0.028395284,0.13505441,0.115714364,0.04172282,-0.07358016,-0.023335613,-0.023561258,-0.057803724,-0.027020555,-0.0070314086,-0.006493907,-0.023406558,-0.036770407,-0.04495887,-0.059000358,-0.0441825,0.0015687207,0.07282448,-0.02201386,0.031087331,0.043442167,0.021459786,0.020313285,0.117804565,0.05686833,0.042678367,0.05123887,0.026236711,-0.013119568,0.09245915,0.037280314,0.057567835,0.026818931,0.04333007,-0.0083343,0.05534534,-0.014188194,0.01833215,-0.00982582,-0.019769732,-0.048977744,0.022384474,0.014176424,0.010717655,0.027988788,-0.020270586,0.0068264487,0.03414888,-0.019606257,-0.022789758,-0.044757046,0.025445271,-0.025829904,-0.024561109,-0.03635349,-0.010661967,-0.045047604,-0.046947688,0.00028089967,0.031156836,-0.02847631,-0.019483723,0.029116109,-0.027494948,-0.04310609,-0.012290475,-0.029467292,-0.06223481,-0.039634306,-0.00511707,-0.061229378,-0.021283962,0.009116751,-0.030852018,-0.06697351,-0.042498596,-0.027775662,-0.054656655,-0.016321773,0.04211702,0.05127067,-0.010408366,-0.02418472,-0.011775864,-0.02212116,-0.0060672136,0.005574577,0.031832453,0.056371693,0.03455896,0.050510373,-0.0028710652,0.019294413,-0.0043995,0.04087779,0.050436717,0.08048763,-0.06444491,-0.06421542,0.05598988,0.10501881,0.0942837,0.123655476,-0.017087463,-0.0034320103,0.08136332,0.17622302,-0.036182724,0.1018396,0.094288304,0.13761015,0.098722,-0.0018153328,-0.028899355,-0.035487752,0.016590554,0.03474861,0.018946422,-0.0067364066,-0.019588195,0.04509659,0.06060186,0.053272054,0.012545188,0.0043520434,-0.013622171,0.016168732,0.05686882,0.059387796,0.009012624,-0.018076276,0.07149837,0.029701404,-0.0031463262,0.033334326,0.028583217,-0.0042719184,0.08933307,0.12809645,0.046676286,0.013528248,0.015456902,0.045998458,0.14774986,0.11964982,0.14626785,0.06454625,0.061522156,0.09713245,0.010926897,-0.014072998,-0.032108996,-0.04097099,-0.020831838,0.004780085,0.05049389,-0.0034202237,-0.03948492,-0.04968141,0.01181261,0.013729364,0.009761288,0.0035430784,-0.034892537,-0.0010308045,0.025572773,0.014644507,0.021710861,0.0033086094,0.030280437,0.021209422,0.04363437,-0.0123929465,0.018346723,-0.0028703636,0.038886644,0.018914202,-0.031384584,-0.008775509,-0.05808045,-0.077671625,-0.05159187,-0.06304868,-0.08627405,-0.029231392,-0.057972357,-0.017399268,0.02297732,0.040913742,0.013010747,-0.0351095,-0.033371903,-0.023281373,-0.011587952,0.060405202,0.020469232,-0.016493488,0.012367687,0.021742413,-0.0060526184,0.019114716,0.052104324,0.0029752804,0.04026964,0.051106557,0.038586676,0.01655786,0.014583323,-0.029031027,0.03688356,0.051530056,0.01690117,0.016919503,0.016085794,-0.034647226,0.009152678,0.04919562,0.014436844,0.0035160766,-0.034315113,-0.065849796,-0.0063756234,0.019898625,-0.01075777,-0.018356018,0.0028834848,0.005510595,0.008039582,0.01859505,0.0057061207,0.013250572,-0.01533516,0.016496278,-0.014090694,-0.004813628,0.01700678,-0.0076384204,0.019360995,-0.010948461,0.00094163744,0.008766523,0.007077459,-0.013813467,0.004368568,-0.0011298336,0.003420573,0.021247227,0.021296402,-0.0016962406,0.012828048,0.018628582,-0.003515567,0.0035053717,0.011962658,0.020115541,-0.0022126683,-0.007224079,0.01252577,0.02234485,0.047134116,-0.010765912,-0.08710426,-0.029101698,0.06291901,0.018899925,0.019271646,0.032138202,-0.03951667,0.019926116,0.0777566,0.042931985,0.07967196,0.067566045,-0.0013502461,-0.013679766,-0.015032168,-0.04393858,0.011837643,0.05436323,0.04869567,-0.016040081,-0.0868007,0.00293365,0.024573995,0.014129069,-0.0043282486,0.03230401,-0.09742057,-0.10556265,-0.06761832,-0.05201793,-0.0014341588,0.1020132,0.03634887,0.029905336,0.0017529497,-0.010393555,0.006247299,-0.017903013,0.013767126,-0.0060541104,0.026418252,0.030392166,0.017426005,0.013689881,0.013314173,0.02069713,0.055605754,0.047256034,0.048878174,-0.001174477,0.03022621,-0.008037468,0.018598087,0.013884745,0.007919739,-0.011318352,0.002907492,0.013825434,0.012377859,0.02305915,-0.02256907,0.019237787,0.014817122,0.03407424,-0.0026346613,0.005769508,0.020080073,0.016243363
2,0.078585595,0.009660328,-0.001820998,-0.01601698,0.014645626,0.05248155,0.020934343,0.0182448,-0.028820448,-0.029358266,0.009464716,0.027241215,0.021853289,0.022634344,0.021650448,0.004477278,-0.008187125,-0.017592803,0.053309966,0.03286392,0.031427447,0.014749936,0.02465118,-0.012144168,0.05055048,0.05114177,0.040742524,-0.01722221,0.008738987,-0.014342033,0.07089525,0.043798186,0.017493898,-0.0030273963,0.066492334,0.044978376,-0.023149695,0.021053184,-0.018378794,0.056870118,0.046786886,0.023176357,-0.030110627,-0.011843573,0.0026876046,0.0406891,0.081689455,0.037013467,-0.0004137344,0.0020621456,0.032907337,0.05855113,0.04546257,-0.017001487,-0.03311865,0.026305899,0.08255127,-0.028810274,0.021488758,-0.011714918,-0.043937087,-0.024256732,0.02104815,-0.04128994,-0.047430247,-0.013682631,-0.04391724,-0.029959667,-0.02648704,-0.030464545,0.056057665,0.056213465,-0.026481684,-0.022880498,0.0053900247,0.026903963,-0.01595179,-0.046984453,-0.0135214515,0.040981025,0.052321848,0.05592839,0.049050704,-0.055019904,-0.004349907,0.0531973,0.024724048,0.067033336,0.06196334,0.011790359,-0.018594177,0.05027878,0.04848511,0.020559344,0.024141196,0.0063510886,-0.00045747642,-0.018871471,-3.9789655e-05,-0.0055495515,-0.023897115,-0.029201603,0.043710884,7.804094e-05,0.036220845,0.076906875,0.02557362,-0.004272735,-0.03881797,-0.0017463026,0.022831656,0.016206376,-0.006758727,-0.04763035,-0.004737835,-0.025321426,-0.012399415,0.0038088763,-0.023736477,0.0032179556,-0.0038402793,-0.03061343,0.0050835367,-0.01295837,0.0083641615,0.01009741,-0.014930055,-0.012222398,-0.015081835,0.0005102421,0.04217578,0.033946108,-0.0132194245,-0.009131514,-0.04111514,-0.0054754205,0.027539762,0.041235283,0.0018134438,-0.014869314,-0.0012267054,-0.023888836,-0.01896646,-0.004099242,-0.020420106,-0.013034648,-0.014039194,-0.014753635,-0.009095382,-0.002377511,-0.0037214628,-0.014887166,-0.007414401,-0.03818574,-0.02361753,-0.026349913,0.0038566156,-0.0021414172,0.0033612777,0.007665929,-0.0353216,-0.0413917,0.031120447,0.04467424,0.06055697,0.03796132,-0.00564807,0.01060344,-0.00010797164,0.033781942,0.068674855,-0.0066191694,-0.0081035625,-0.004507525,0.014161553,0.011842267,0.042292304,0.015345902,0.04807198,0.06818987,-0.048370346,0.0027359577,-0.035420157,-0.002271005,-0.02799986,-0.041336525,-0.023716273,-0.0003488759,-0.045373417,-0.02402101,0.03616383,-0.004139833,-0.037204225,0.0006623371,-0.019732257,-0.017405506,0.019534146,-0.012020719,0.013048663,0.021650953,-0.0103986515,-0.021198738,0.027609987,-0.010367621,-0.034577943,0.02106073,0.003269802,-0.0038808752,-0.01460464,-0.066435754,-0.120548345,-0.084701374,-0.08350997,-0.10158095,-0.040242292,-0.028081225,-0.01823722,-0.03805589,-0.0138595505,-0.043900046,0.007451106,0.01694244,-0.002807185,0.008340778,-0.009456808,0.023905104,-0.006161552,0.032001942,0.013868894,0.044524707,0.035423722,-0.024015082,0.011281176,0.034190405,-0.02273643,0.0046168063,-0.0066255014,0.0115939025,-0.010591283,0.0039767963,0.0066074356,0.015299081,0.008182546,-0.022497663,-0.0060613947,0.0028770785,0.035145078,0.03936985,0.01418269,-0.011710739,0.031894248,0.019397104,0.0003313921,-0.010119722,0.011453895,0.015339687,0.026054746,-0.022897955,0.0330386,-0.0033266083,0.023689603,-0.0049809227,0.020462213,0.007883555,0.0063733505,-0.0062982677,-0.0064615877,0.007816966,0.039003197,0.030191185,0.038125724,0.012806753,0.011803128,0.016080262,0.012852565,-0.010992117,0.044000078,0.06959857,0.03036102,0.04390334,0.0067565576,0.007933492,0.014721099,0.040912535,-0.0148632135,-0.0023658755,-0.0063424483,0.04137464,-0.052506763,-0.039073292,-0.034993153,-0.016618617,0.0040636263,-0.012609256,-0.004718659,0.011849459,0.032687664,0.008691773,0.04046357,0.025299089,-0.0011373698,0.017762084,0.047070615,0.07310275,0.07311014,-0.025686106,-0.0011335185,0.021713352,0.068112835,0.044614557,0.044825137,-0.06905233,-0.04877449,0.023332022,0.057140052,0.01747894,0.035225086,-0.04541577,-0.032706473,0.049195595,0.0587635,0.06485586,0.028626746,-0.027593996,-0.04671146,-0.025971306,-0.030416142,-0.0003054256,0.008969221,-0.03138471,-0.028507682,0.007490296,0.014071846,0.008469286,0.017660728,-0.005557289,-0.04479432,0.001665599,0.019778589,-0.0062749595,0.0076256706,-0.02882559,-0.0034935845,0.024023235,-0.022194825,-0.031854,0.027186533,0.011542327,-0.017427525,0.028471192,-0.00036285372,-0.042379394,0.024833847,-0.019515522,-0.095084876,-0.06712795,-0.11059514,-0.08695006,-0.06476659,-0.06911574,0.02915261,-0.011776194,-0.023361009,-0.019763196,0.016304055,0.022180839,0.03088629,0.012087686,-0.0072328043,-0.0019271479,0.016528266,0.009614961,0.049923785,0.024187893,0.02266352,0.0036272882,-0.003820488,-0.0009096812,0.015251961,0.01717198,-0.0066276,-0.028066078,-0.03775339,0.0015897913,-0.00054653664,0.011724138,-0.008518322,-0.021333752,0.006208885,-0.022063777,-0.05711542,-0.06762501,-0.08493495,-0.0731603,-0.025493458,0.0039393823,-0.03769893,-0.01371085,-0.008482195,-0.0072513823,0.0019644175,-0.0029905702,-0.007805207,0.014172238,-0.021521205,0.030590529,-0.00336802,-0.014158715,-0.039497074,-0.049013715,-0.016150972,0.037979912,0.0010607693,-0.058164813,-0.06973482,-0.035172444,-0.06931587,-0.028590031,-0.04630803,-0.09381589,-0.10462777,-0.00939258,-0.07847372,-0.05422007,-0.03320025,-0.07396058,-0.100558415,-0.023594428,0.011594916,0.025244983,0.021085622,-0.0015122873,-0.024139166,-0.026635911,-0.004237963,-0.006245413,0.009088924,0.008655987,0.019485118,0.0072887344,0.019156309,0.0058801873,0.014596062,0.029522622,0.040142275,0.028568652,-0.013792272,-0.010364322,-0.0016704387,0.032398965,0.013256318,-0.0024238643,-0.033430103,-0.046826012,-0.0077269576,0.040693708,0.039520234,-0.0017161762,-0.013195896,0.0070289928,0.012799251,0.011957474,0.018141512,0.026559805,-0.0074230325,-0.002789817,-0.022895541,-0.01663897,-0.025741648,0.0629728,0.0134683335,-0.024312926,-0.04679847,-0.07951531,-0.02033911,0.05394692,0.017166335,0.0027812438,-0.019355891,-0.00489636,-0.021735262,0.047380432,0.027968014,-0.01500493,0.00046113157,0.04194479,-0.049786467,-0.011452151,0.010248294,-0.01864925,0.034883976,0.041975547,-0.034377344,0.0045438786,-0.0051359367,0.027277702,0.021316238,0.0119524775,-0.02829253,-0.013388248,-0.05397349,-0.12004113,-0.11686823,-0.14586,-0.06163582,-0.021155655,0.0037235802,-0.015301641,-0.012803406,-0.023042973,0.00934027,0.038473308,0.059126258,-0.025436977,-0.026765255,-0.00014483853,-0.010371085,0.027901202,0.028196707,-0.008112312,-0.005351651,0.06027158,-0.021412786,-0.003343202,-0.010707097,-0.027604062,-0.005768606,0.02268126,-0.012846818,-0.012780894,-0.009927352,-0.006235997,0.0058376626,0.017230377,-7.871935e-05,0.027063247,0.013594391,0.016295196,0.04374067,0.008495438,0.0044752527,-0.02156903,-0.013005102,-0.014901126,-0.00557022,-0.0024143346,-0.005270698,0.013317062,-0.034741383,0.02980366,0.010200102,0.019190473,-0.036452163,-0.045444034,-0.016684014,-0.011991405,0.005802417,-0.0039697406,-0.059078127,-0.013897649,-0.027869005,-0.02671997,-0.019805579,-0.017222049,-0.06690435,-0.014473036,-0.011095704,-0.014791239,-0.006924757,-0.007060476,-0.06490641,-0.018432314,-0.012676533,-0.0099900495,-0.02162789,0.008920723,0.04575589,0.027679874,0.05790087,0.053427484,-0.0032027005,0.05630622,0.044954736,0.056578543,0.09073961,0.08417072,0.05509263,0.105787836,-0.00011713114,0.058282442,0.06862006,0.081864946,0.10967681,0.110972784,-0.011637743,-0.0067165857,0.021047337,0.049726456,0.078520715,0.097550996,-0.029929554,-0.03934603,-0.009398744,0.0036034498,0.005891822,0.03828577,0.0532833,0.0497773,0.1052398,0.07049213,0.11729976,0.01516405,-0.03741949,0.057506163,0.06750091,0.024361614,-0.031092219,-0.05339317,-0.04247536,0.067304015,0.11358813,0.017109973,0.03900222,-0.022942614,-0.034128826,0.07770216,0.13327818,0.1067331,0.07482174,0.062244974,-0.06053597,-0.015434797,0.09080681,0.11057111,0.10731993,0.05924611,-0.05074964,0.023851432,0.0046532513,0.018578835,0.03900285,-0.031193111,0.07048238,0.041532315,-0.008432602,-0.044373818,-0.06371713,-0.16640022,-0.035646375,-0.036705323,-0.008515032,0.0024805872,-0.037800025,-0.016062858,-0.07989044,-0.04770927,-0.04300643,0.006733485,-0.0007554024,-0.060080905,-0.08530778,-0.014489927,-0.009141385,-0.018497825,-0.008317427,-0.006943391,-0.023565855,-0.0039009508,-0.004183569,-0.00073699525,0.05203161,0.0038697456,0.040305976,0.06066071,0.0065839575,0.040395755,0.0077051288,-0.048071817,0.060862992,0.01220916,0.015873967,0.01686719,0.00210384,0.020054845,0.04037427,0.0042603198,-0.026705781,-0.007324267,-0.020332614,0.07537939,-0.017616963,-0.008020232,0.013535139,-0.019738082,-0.009950417,0.01260631,0.015253421,-0.030669404,-0.0063504605,-0.032209482,-0.013664303,-0.013107112,0.011139035,-0.031306904,-0.06782977,-0.0787484,-0.020576542,-0.017384157,-0.018942356,-0.02665171,-0.038304154,-0.08317053,-0.039457887,-0.0472365,0.050168507,0.0028873482,-0.02494678,-0.009405897,-0.02149132,-0.012173436,-0.0021585606,-0.02370337,-0.008618285,-0.010054982,-0.008165761,-0.02086889,0.008424082,0.0188044,-0.011466634,-0.013664472,0.00603547,0.005330308,0.007913929,0.0147917215,-0.013776559,-0.042379923,-0.006596391,0.037960853,0.044360455,0.00034737316,-0.0021980014,-0.023061745,0.016624296,0.0071901637,0.0058889743,0.008157537,0.019422915,-0.0013316117,0.01712341,0.011607563,-0.009161817,-0.017157655,-0.025996683,-0.026204716,-0.021746064,-0.021506751,-0.038308673,0.005493537,0.034752075,0.012065942,0.0026394257,-0.021175511,-0.03851218,-0.00396788,0.0034580568,0.017539442,-0.0033269506,0.030019313,-0.01384055,-0.0046536885,0.017413665,0.0080181025,-0.004577419,0.021861242,-0.00061105145,0.0076438133,-0.009382716,0.027712304,0.06252811,0.03690849,-0.0040408475,-0.01197304,-0.007558972,0.010275415,0.02424949,-0.0036117008,0.013261096,0.004218981,-0.039180066,-0.05498871,-0.051782742,0.008173894,-0.020804778,0.006686071,-0.01439546,-0.025159061,-0.030755557,-0.03457431,-0.02256827,-0.006702771,0.0102386195,-0.017842118,-0.010913678,-0.040880788,-0.05010067,0.01353282,0.028528372,0.032599553,-0.018096743,-0.084240876,-0.06262891,-0.0024845605,-0.008846414,-0.023557091,-0.05307255,-0.08324678,-0.059631534,-0.065714106,-0.03494354,-0.016376171,-0.030632047,-0.080926456,-0.058599934,-0.017915657,-0.055468578,-0.02907912,-0.047116686,-0.06125705,0.0039198673,-0.014703972,0.035864744,-0.02099917,0.013722083,-0.0729857,-0.013901091,-0.0020788128,0.037831057,-0.036329858,-0.035334613,-0.043528743,-0.05100975,-0.029830534,0.013723574,-0.084328085,-0.06256768,-0.0653387,-0.070118755,0.06441736,0.031473503,0.0043402435,-0.026720678,-0.043569855,0.02337937,0.049507666,0.018727457,0.02345048,-0.023242956,-0.01585161,0.11153467,0.07588818,0.06941026,0.015320491,0.015579573,-0.0006588041,-0.026755115,0.020570127,0.017167917,-0.006768177,0.0031673783,-0.034192126,0.012511633,0.023737509,-0.0033320403,-0.017646713,0.008566888,-0.042770356,-0.034113284,0.007752454,0.019453363,0.040846355,-0.0010181362,-0.028594518,0.0030875688,0.028519824,0.04655181,0.03375493,-0.030187244,-0.056332204,0.017537372,0.005735146,0.066863164,0.04395284,-0.02882304,-0.052725885,-0.015188102,-0.0119615495,-0.04051692,-0.01830312,-0.040788036,-0.03469787,-0.052857496,-0.016315406,0.031933725,0.005860122,0.0013123632,-0.008901545,-0.062077045,-0.004745709,0.020451361,0.067958616,0.014247124,-0.03125561,-0.0491024,-0.009460928,0.009512904,0.03992452,0.053430513,-0.0027825325,-0.04923171,-0.01082729,0.020401102,0.032049343,0.015449106,0.033138636,-0.05073063,-0.012064919,0.0026638967,-0.017788164,0.012487265,0.040233124,0.007014564,0.008940047,0.061933234,0.048234396,0.06152371,0.03709756,-0.030638859,-0.010563273,0.005226824,-0.008821767,-0.014067583,-0.0092874,-0.007321932,0.009375076,-0.00701901,0.010852173,0.010266637,-0.01421059,-0.010476349,-0.014373393,-0.01849345,-0.013905687,0.004979126,-0.001841048,-0.03086004,-0.023664502,0.021372441,0.015968667,-0.048953585,-0.026801923,-0.018009974,-0.001980944,-0.014419711,-0.0057330946,-0.03115711,-0.014725748,-0.00096371246,-0.017289698,-0.010111528,-0.012218665,-0.026672954,0.0021961161,-0.031455163,-0.00019687231,0.010527245,0.00480427,-0.034504153,-0.059305992,-0.029579308,0.013490956,0.0111002745,0.037586614,-0.00062491914,-0.016150447,-0.051383466,0.0013250445,0.019767592,-0.028700585,-0.05036471,-0.0348721,-0.02263356,-0.018324256,-0.026013607,-0.008181359,-0.0011653645,0.00047563005,0.002439494,0.0070639933,-0.0037528523,-0.016136548,0.00072916085,0.013112819,0.04605727,0.034114562,-0.009915337,-0.010141837,0.007556279,0.0060842084,0.022243403,0.056685902,0.037058033,0.012725483,0.019710964,-0.01477221,-0.01166446,-0.006555999,0.048449203,0.0029332445,-0.0049104984,-0.029706128,-0.04835624,-0.008687376,0.04165152,-0.00953533,0.0012949164,-0.045377247,0.008029994,0.012107967,0.047342062,0.07150431,-0.022240946,-0.050934795,0.03619425,0.047681764,0.02847231,0.04409632,-0.006622227,-0.02527359,0.088992596,0.043666147,0.02415968,0.038873304,0.050210346,-0.011860826,0.0068050963,0.008516608,-0.010460654,0.0060301055,-0.022578364,0.009606266,-0.01682612,-0.010768555,-0.025666798,0.004091908,0.009028868,0.017870614,-0.010560627,0.021664504,0.009629013,0.002189318,0.027896252,-0.01698991,-0.023235649,0.029328872,0.0050162356,0.0043216185,0.017232614,0.028374603,0.0158163,0.029798191,0.007956544,-0.0064500626,0.051113576,0.06303113,0.0059306067,-0.06768525,-0.035901017,-0.038969606,0.012826709,0.03703952,-0.027716601,-0.010074266,0.0216092,0.031540066,0.07134358,0.06056262,-0.0821926,-0.009283119,-0.012341773,0.068892874,0.06474471,0.030902114,-0.06988887,-0.038638458,0.021653961,0.0054177,0.07618622,-0.029527035,-0.08025057,0.0042820745,0.01244636,0.056027435,0.024539547,0.007879207,-0.07254636,-0.030421639,-0.003850223,0.015287292,0.02157773,0.04294447,0.0063644657,-0.029351125,0.066705376,0.07769338,0.118645936,0.04791488,0.023594528,0.038245346,0.053745363,0.042132556,0.042998146,0.041881382,0.03987204,0.024727503,0.069391385,0.11601676,0.06497723,0.001266384,0.0033125193,0.06014387,0.114755146,0.09819529,0.12459435,0.0047372445,-0.017012473,0.03230312,0.10499702,0.11435514,0.04206431,-0.023672998,-0.02540566,-0.0017693074,0.056019083,0.06740514,0.009936846,-0.06177696,0.07652945,0.07817707,0.05636468,0.09409038,0.05699314,-0.033914536,0.039415255,-0.023477064,0.012458697,0.053651806,-0.00044490883,0.036301818,0.031638253,0.017207824,0.029059164,0.04594818,-0.01090165,0.03833056,0.07485595,0.077011466,0.0786321,0.032355938,-0.012236139,0.008670266,0.0005880462,0.015294473,0.050182,-0.02459566,-0.03666641,-0.064583406,-0.033766903,0.0036026572,0.010944402,-0.0143105695,-0.03218108,-0.07612275,0.0049307095,0.028956594,0.06796983,0.06501917,0.025026254,0.043499935,-0.0013737456,-0.012948183,-0.032229718,-0.009347414,-0.0075569307,-0.022617918,0.043764822,-0.014359442,-0.026388502,0.016645486,-0.00038938344,0.0024957615,0.0321377,-0.008106849,0.03521155,0.046517737,0.029136568,0.013834518,0.03397796,0.06367543,0.06802065,0.023905888,0.036029983,0.014787887,0.034174234,0.056618847,0.037408456,0.050056674,0.025616629,0.0045398567,0.008226781,0.021661155,0.0189985,-0.015957778,0.0011049939,-0.0026690923,0.031810246,-0.064820185,-0.041814957,-0.012808086,0.02422185,-0.028875193,0.039393622,0.028266741,0.053308327,0.08112741,0.07413662,0.030560324,0.07157032,0.031672504,0.07221282,0.06691195,0.051549245,0.008377182,-0.009602039,-0.00024453914,-0.005438685,0.038257446,0.011224521,0.03583176,-0.09292389,-0.021882568,0.0065248404,-0.046767153,-0.014322859,-0.023149315,-0.054132327,0.041284755,0.028843839,0.053294905,0.022584729,-0.031273942,0.0018448732,-0.0370565,-0.010027079,0.009468365,0.031341683,0.017233938,-0.042503938,-0.013411469,-0.019442221,0.0057131913,0.003589657,0.037148975,-0.018963803,-0.021399157,-0.025573837,0.012285273,0.032931086,0.029789023,0.02207898,0.044528656,-0.015301881,0.039962456,0.061444797,0.055516463,-0.015456905,-0.008985685,-0.0019553339,0.013027434,0.031833053,0.049932335,0.03459478,-0.013331515,0.020112105,-0.016259743,-0.0074473657,0.031904425,0.039211582,0.032308586,0.0056577246,-0.011420151,0.020286947,0.03788138,0.0055779493,-0.019342955,-0.013386915,0.0007453054,0.043443095,0.05949924,-0.0001280174,0.032839112,0.07116285,0.058129918,0.077234425,0.07262859,0.03837518,0.06901835,0.037723344,0.019089162,0.029127719,0.059340168,0.04566317,0.04118722,0.01879934,-0.0044776043,0.019257246,0.095804945,0.08358196,0.04652235,0.004896293,0.04916691,0.034920525,0.08110806,-0.01776053,0.02401547,-0.0036449954,-0.0006279757,0.022051753,-0.027503787,-0.012636126,-0.00877093,0.012752042,0.023957226,0.030467931,-0.0011964361,-0.012657931,-0.013516759,0.021410365,0.028893549,0.02915481,-0.024862876,0.006619201,0.046696067,0.05163804,0.027953876,0.030095333,0.03751466,0.010530226,0.03209497,0.05350701,0.029147627,0.015426167,0.052921508,-0.008378797,8.970033e-05,-0.019012192,0.016220922,0.039531305,0.047727488,0.0424984,0.047495857,0.061423622,0.078143775,0.06062208,0.03728004,0.01579492,0.017928043,0.033355206,0.052743647,0.021670137,0.0337469,0.04083102,0.061466355,0.0220152,0.07517229,0.09469941,-0.057847768,0.04806427,0.036090255,0.026201257,0.023548916,0.056168385,-0.021485673,-0.05008221,0.005104653,0.02101469,-0.023440614,0.0024286858,-0.022074841,-0.0028004672,0.044893816,0.035303295,0.02953237,0.059092145,0.096125774,-0.046664238,-0.055138487,-0.007949197,0.0055274307,-0.017952502,-0.022700215,0.0043200445,-0.028813122,0.008141652,0.046796232,0.046184883,0.004479561,0.011711263,0.05218112,0.03268176,-0.0061571314,-0.033538286,0.008774152,0.008191381,0.010214472,-0.014904139,-0.010136791,-0.026266674,-0.021837914,0.033759963,-0.021740563,0.005807616,-0.010316433,-0.009094618,0.005817924,0.0010931848,0.012328414,0.016277023,0.023080502,0.04445677,0.0173309,-0.014070965,0.014623244,0.028094525,0.035312243,-0.013287189,-0.025353294,0.014490777,0.037615407,-0.013810942,-0.024287282,0.020258475,0.037928615,0.05986597,0.0072089434,-0.01728282,-0.018530788,0.018196754,0.100328855,0.013417048,0.013079239,0.0016775738,-0.03097562,-0.0058476436,0.07126736,0.026319334,0.025925089,0.022488186,-0.014267085,0.028870158,0.07954533,-0.030642148,-0.06660298,-0.088945046,-0.06525328,-0.048841473,-0.030636182,-0.083270356,-0.047540154,0.006804339,0.026647951,0.03838845,-0.044202987,-0.053014517,-0.073147476,0.07632517,0.13506635,0.053818148,-0.0598853,-0.06828191,-0.0197246,0.024735082,0.09811577,0.12574469,-0.052129287,-0.06542193,0.042071942,0.059971992,0.05589696,0.08448994,-0.002765989,-0.06517779,0.041503407,0.05867091,0.023515731,0.007902326,0.04409881,-0.12086425,-0.05944009,-0.03986602,-0.044160068,0.009585992,0.060289033,-0.043749735,-0.037581425,0.008371677,3.860392e-05,-0.007995843,-0.01747185,-0.0439237,-0.014488909,-0.012693054,0.0381376,0.043901473,0.011973656,-0.026869964,0.003641662,-0.006119117,-0.019901497,0.056901768,0.038856145,0.008788584,-0.011270842,0.03915559,0.022794336,0.0077051707,0.06282067,0.024337938,0.03540766,0.047788013,0.02805599,0.025425268,0.045539457,0.041138537,0.0393069,0.02966444,0.041624635,0.055907764,0.07961543,0.027909074,0.024833612,0.0636229,0.0021535235,-0.01453433,-0.032409556,-0.029027725,0.0040417886,0.052420504,0.055504642,-0.02163886,-0.05679189,-0.06368356,0.051268823,0.076192714,0.0015850873,0.0059272344,-0.016554564,-0.023830337,0.022714555,-0.010554585,-0.026002392,-0.019854156,-0.0332061,0.018853283,-0.002445453,-0.046017405,-0.017872337,0.054851007,-0.07052927,0.082082756,0.054012787,0.046755746,-0.0013259735,-0.001698346,-0.05068114,-0.014719497,-0.028457884,-0.013458582,-0.023811841,-0.042241096,-0.012952061,-0.023001166,-0.028983226,0.002355252,-0.048852965,-0.022963762,-0.025888454,-0.05230277,0.0034660073,0.009881586,-0.042247564,-0.061608046,-0.080618404,-0.023104822,-0.00026950912,-0.0050282036,-0.0066534416,-0.026189456,-0.061658867,0.017309302,0.03519141,0.004661519,0.02175614,-0.033265468,-0.028541982,0.081958055,0.059736405,0.05820014,0.042080853,0.019289628,0.0038671396,-0.014626211,0.056132704,0.034864724,0.020836534,-0.0018882684,-0.03738963,-0.02878185,-0.0065139434,0.056568697,-0.0061383224,-0.002834782,-0.056870885,-0.010948863,0.050355025,0.016512858,-0.015878703,-0.0026783217,-0.016111635,0.022382678,0.05040091,0.023876354,0.021387791,-0.022040391,0.050936125,0.02411449,0.036590423,-0.004152053,0.010356723,-0.015140908,0.028969027,0.09433889,0.031625878,-0.014039816,-0.011736618,0.045335084,0.0965473,-0.009963296,0.0042531244,-0.020062432,0.008010282,0.0013806937,0.0007826019,0.004904045,0.017633995,0.009002127,-0.020991372,-0.024128871,-0.007318829,0.011191911,-0.004594038,-0.00081011775,-0.028024102,0.01710457,0.013146311,0.012329192,0.0019458858,-0.0057662805,0.012266038,0.021735232,-0.02127514,0.007803109,0.0068017608,0.002681162,0.00955564,0.014061117,-0.014576891,-0.0015259382,0.02058671,0.010796279,0.035570323,0.0038198896,-0.018654326,-0.071333855,-0.029062828,-0.021805752,-0.032758117,-0.023865545,-0.040818334,-0.039639644,0.0026520514,-0.0056516663,0.0018551917,0.014956368,-0.055155218,-0.06411056,-0.025552258,0.0070181456,0.016487159,-0.038438324,-0.040471304,-0.03795564,0.029224247,-0.021183424,0.01803623,0.005032922,-0.03190437,-0.012560339,-0.012733349,-0.008361021,0.003055024,-0.02893482,-0.062477473,-0.03170216,-0.030512748,-0.060047317,-0.0531252,-0.075066775,-0.058031265,0.008450011,-0.006274838,0.035471052,0.025140116,0.008831695,-0.028161246,0.038641404,0.014315177,0.008793654,0.040589504,0.0066731153,0.015698478,0.0949809,0.026360834,-0.03963134,-0.0067338417,0.056154087,0.069872856,0.089813694,0.034412205,-0.02606597,-0.0067242226,0.048819143,0.057356313,0.1026976,0.056247476,-0.020501716,0.0018822817,0.013997212,0.04570248,0.033204727,0.002801058,0.014470901,0.0074684154,0.013771302,0.052851357,0.02889159,-0.012538763,0.0026275232,0.011748038,-0.021768948,0.0052016517,0.00625265,-0.0030531345,9.112887e-05,0.00086892105,0.021762475,-0.0015216517,-0.00048638883,0.002692313,-0.0037007593,0.021206012,0.0058272406,-0.008361087,0.008743796,0.017317746,-0.027566968,-0.006846654,-0.010718879,-0.015520616,-0.011253739,0.014319872,0.009363969,-0.010628335,-0.0029347835,-0.018374983,-0.024275733,-0.0071524116,-0.03005915,0.001312874,0.008591385,-0.0018744122,0.0029993027,0.022134477,0.013521381,0.00994324,-0.013885055,-0.06284005,-0.06679081,-0.031601146,0.047146235,0.051758032,-0.04123925,-0.06556092,-0.09458763,-0.03970649,0.06500925,0.03849293,-0.06227308,-0.10562178,-0.022343999,0.0026044222,0.036349855,0.0648749,-0.016809821,-0.13773818,-0.024230681,-0.044808388,0.030604655,0.06591597,0.012706457,-0.046207618,0.031538714,-0.023823863,-0.01884203,0.004742492,-0.038896818,-0.03472409,0.012292401,-0.005511045,-0.019111281,-0.023297286,-0.027022904,-0.021598408,-0.017022062,0.0060169096,-0.0044439742,-0.050718617,-0.0046921703,-0.009689924,-0.048848234,0.017002558,0.009467152,0.004429238,-0.0153351575,0.012800367,-0.03657137,0.0037720643,0.0040169195,0.01165788,-0.016766833,-0.0151039595,-0.00783447,0.016127063,0.0070872246,0.0089581255,-0.020050341,0.0044117626,-0.020313917,-0.011635721,-0.040585656,-0.036959928,-0.019289758,-0.022396307,-0.02753678,0.028271932,0.009354154,0.046536744,-0.03050797,-0.045777474,-0.024232177,0.027649762,0.0369447,0.060705528,0.036791068,-0.01577181,-0.012892617,0.0024794496,0.015849689,0.03558891,0.030902825,-0.033427447,-0.019364996,-0.0014075253,-0.03443615,0.024391562,0.017537856,-0.009128955,-0.030348508,-0.008426362,-0.017531136,0.0020238198,-0.024805563,0.01876008,0.051489178,-0.0062018903,0.001681355,0.014552009,0.034920007,0.046361,-0.010697698,-0.018548034,0.01757793,0.02419755,0.008196976,-0.035351478,-0.0037415805,0.0042956294,-0.007374528,-0.0012581543,0.0045360033,-0.015602554,0.006044555,-0.064672984,-0.007953629,0.018488979,-0.007248882,-0.034677688,0.029472986,0.027882019,-0.021408241,0.020222642,-0.011945466,-0.05061903,0.034649733,0.080370426,0.028187282,0.022941804,0.011736979,-0.03740215,-0.0021618505,0.005485918,0.027513867,0.003479178,0.0328201,0.009585347,-0.03924536,-0.051911928,-0.09870975,-0.09712582,-0.026960695,-0.0029169517,0.027909258,0.023785213,-0.03759325,0.003405818,0.032550078,0.04620465,0.05274106,0.015948804,-0.029321356,0.034959055,0.044095047,0.020416848,-0.038557716,-0.08894753,-0.06834732,-0.040720448,-0.019378478,-0.010447007,-0.057722405,-0.064069055,-0.09425336,-0.05371397,-0.034087818,-0.0043391837,0.014346475,0.04214163,0.02088808,0.062076826,0.057749875,0.025467051,-0.02347194,0.00413714,0.013284171,0.0144598875,0.008315168,0.0028291573,0.0065743523,0.02647483,0.023456201,0.05373195,0.052029308,-0.020924147,-0.025772152,-0.021620343,0.033720125,0.028214406,0.03683109,0.030055044,-0.041551612,0.0041165706,0.03600684,0.023441996,-0.014259817,-0.009739943,-0.061769973,-0.03061264,-0.015248307,-0.013073074,0.025074357,-0.00024822843,-0.040521204,-0.04934749,0.04771132,0.05079808,0.05223703,0.044835087,-0.023281438,-0.06788266,-0.025579175,0.021520495,-0.014002584,-0.064910345,-0.014160991,-0.023106994,-0.008649881,0.03530934,-0.014355836,-0.008731738,0.026412329,0.07514453,0.032148525,-0.02104267,0.015556235,-0.019363038,0.054220546,0.07969825,0.06552985,0.019168073,-0.009973832,0.00181795,-0.0139320055,0.047800418,0.037659682,0.0024974225,0.01637863,-0.015740504,-0.019981893,-0.04247994,-0.04317899,-0.0054111253,0.048254736,0.044091057,-0.076634005,-0.034689855,-0.013379687,-0.032300927,-0.047067266,-0.12105454,-0.08356493,-0.046277728,0.071992785,0.058391526,-0.029219385,-0.12317714,-0.08964208,0.023826161,0.085444964,0.05308838,-0.048000116,-0.10995464,-0.06685842,-0.00038063905,0.050106138,0.05207577,-0.07841636,-0.15583716,-0.046261355,-0.041773446,0.0081416005,0.0006718884,-0.075859964,-0.10848247,-0.017533598,-0.045467734,-0.06422193,-0.0628072,-0.06882884,-0.06795122,-0.06262306,-0.051912747,-0.032065332,-0.016175421,-0.03422132,-0.053085186,-0.098593935,-0.015532586,0.029253343,-0.00456848,-0.04542228,-0.09657074,-0.009413771,0.011001721,0.01781008,0.032082625,-0.0067443573,-0.09705432,0.004710099,0.03394634,0.015558625,-0.014080988,-0.021807687,-0.02995798,-0.06937564,-0.05150966,0.0023858903,-0.009082882,-0.06633963,-0.0601654,-0.05111799,-0.056047916,-0.06261355,-0.06171858,-0.02039569,0.02693626,0.0034907765,-0.0006077488,0.027912065,0.020253422,0.022187028,0.0019574715,-0.0534912,-0.048995253,0.011618051,0.031945296,0.010407045,0.014995801,-0.046569105,-0.036009327,-0.011772257,0.021409148,-0.013620026,-0.015355659,-0.035735216,-0.025939742,-0.004166508,-0.015230361,-0.03410591,-0.016059501,-0.01602679,-0.011468621,-0.011433079,0.019066922,0.03985897,-0.022122346,-0.007863784,0.020961467,-0.002387389,0.08947301,0.081722885,0.0061408975,-0.011980575,0.0066867494,0.008271454,-0.0120618865,-0.023604697,0.005553617,-0.011402689,-0.004424534,0.003553379,0.023256702,0.00055702234,-0.040807106,-0.00989103,0.0023719808,-0.02426122,0.023062877,-0.037860613,-0.014017094,-0.032987908,-0.055007175,0.029562306,-0.0033171908,-0.028397264,0.00799983,-0.014179573,-0.009318205,-0.0029306673,-0.021440785,-0.028846761,-0.013161113,-0.024056982,-0.017062955,-0.033951245,-0.022140186,0.002763325,-0.014675911,-0.018511845,-0.014191169,-0.00096898363,-0.0023182258,0.016442595,-0.011838154,-0.016762814,-0.0028492743,-0.022082293,0.017005678,0.022009958,0.021488078,-0.00010880137,-0.010677459,0.019882312,0.0016485411,0.010911649,-0.008141426,-0.006115626,0.013850016,-0.009751703,-0.0029653583,0.003046221,-1.7706667e-05,0.0070339506,0.0050960593,0.017318442,-0.017056527,-0.017823288,0.018853182,-0.012507199,0.0045468244,-0.0059931474,0.00992801,-0.013836411,0.014817309,0.0027433543,0.06458677,0.09009077,-0.017427351,-0.032860514,-0.037447512,-0.11561148,0.01763919,0.045032836,0.06719359,0.029125025,-0.039295908,-0.13396227,-0.0126411645,0.0896848,0.084368795,0.002218238,-0.027969748,-0.09879432,0.07183579,0.08193453,0.038110577,0.046577424,-0.018279873,-0.034917817,0.030193552,-0.0048830337,-0.014213764,0.011566415,-0.007403892,0.072394215,0.022241201,0.057480924,0.004978626,-0.049891774,-0.05531821,0.022042986,0.03014393,0.036981694,0.023192877,0.009404024,-0.0045514265,-0.016411394,-0.0019379822,0.0018702806,0.013728104,-0.009841865,-0.021207064,-0.038234256,0.0051120855,0.020040534,0.015469524,0.029389162,0.030973863,-0.011899649,0.012128215,0.051271208,0.06164798,0.04934082,0.0629738,-0.026458334,0.00858583,0.043245986,0.031467184,0.069744185,0.031765208,0.021950264,0.012698608,-0.019447356,-0.021229863,0.014043738,0.015999567
